%YAML:1.0
my_svm: !!opencv-ml-svm
   svm_type: C_SVC
   kernel: { type:LINEAR }
   C: 1.
   term_criteria: { epsilon:2.2204460492503131e-016, iterations:100 }
   var_all: 2500
   var_count: 2500
   class_count: 10
   class_labels: !!opencv-matrix
      rows: 1
      cols: 10
      dt: i
      data: [ 0, 1, 2, 3, 4, 5, 6, 7, 8, 9 ]
   sv_total: 45
   support_vectors:
      - [ 0., 0., 0., 0., 0., 0., 0., 0., 0., 0., 0., 0., 0., 0., 0., 0.,
          0., 0., 0., 0., 0., 0., 0., 0., 0., 0., 0., 0., 0., 0., 0., 0.,
          0., 0., 0., 0., 0., 0., 0., 0., 0., 0., 0., 0., 0., 0., 0., 0.,
          0., 0., 0., 0., 0., 0., 0., 0., 0., 0., 0., 0., 0., 0., 0., 0.,
          0., 0., 0., 0., 0., 0., 0., 0., 0., 0., 0., 0., 0., 0., 0., 0.,
          0., 0., 0., 0., 0., 0., 0., 0., 0., 0., 0., 0., 0., 0., 0., 0.,
          0., 0., 0., 0., 0., 0., 0., 0., 0., 0., 0., 0., 0., 0., 0., 0.,
          0., 0., 0., 0., 0., 0., 0., 0., 0., 0., 0., 0., 0., 0., 0., 0.,
          0., 0., 0., 0., 0., 0., 0., 0., 0., 0., 0., 0., 0., 0., 0., 0.,
          0., 0., 0., 0., 0., 0., 0., 0., 0., 0., 0., 0., 0., 0., 0., 0.,
          0., 0., 0., 0., 0., 0., 0., 0., 0., 0., 0., 0., 0., 0., 0., 0.,
          0., 0., 0., 0., 0., 0., 0., 0., 0., 0., 0., 0., 0., 0., 0., 0.,
          0., 0., 0., 0., 0., 0., 0., 0., 0., 0., 0., 0., 0., 0., 0., 0.,
          0., 0., 0., 0., 0., 0., 0., 0., 0., 0., 0., 0., 0., 0., 0., 0.,
          0., 0., 0., 0., 0., 0., 0., 0., 0., 0., 0., 0., 0., 0., 0., 0.,
          0., 0., 0., 0., 0., 0., 0., 0., 0., 0., 0., 0., 0., 0., 0., 0.,
          0., 0., 0., 0., 0., 0., 0., 0., 0., 0., 0., 0., 0., 0., 0., 0.,
          0., 0., 0., 0., 0., 0., 0., 0., 0., 0., 0., 0., 0., 0., 0., 0.,
          0., 0., 0., 0., 0., 0., 0., 0., 0., 0., 0., 0., 0., 0., 0., 0.,
          0., 0., 0., 0., 0., 0., 0., 0., 0., 0., 0., 0., 0., 0., 0., 0.,
          0., 0., 0., 0., 0., 0., 0., 0., 0., 0., 0., 0., 0., 0., 0., 0.,
          0., 0., 0., 0., 0., 0., 0., 0., 0., 0., 0., 0., 0., 0., 0., 0.,
          0., 0., 0., 0., 0., 0., 0., 0., 0., 0., 0., 0., 0., 0., 0., 0.,
          0., 0., 0., 0., 0., 0., 0., 0., 0., 0., 0., 0., 0., 0., 0., 0.,
          0., 0., 0., 0., 0., 0., 0., 0., 0., 0., 0., 0., 0., 0., 0., 0.,
          0., 0., 0., 0., 0., 0., 0., 0., 0., 0., 0., 0., 0., 0., 0., 0.,
          0., 0., 0., 0., 0., 0., 0., 0., 0., 0., 0., 0.,
          -2.30330115e-005, -2.30330115e-005, -2.30330115e-005, 0., 0.,
          0., 0., 0., 0., 0., 0., 0., 0., 0., 0., 0., 0., 0., 0., 0., 0.,
          0., 0., 0., 0., 0., 0., 0., 0., 0., 0., 0., 0., 0., 0., 0., 0.,
          0., 0., 0., 0., 0., 0., 0., 0., 0., 0., 0., 0.,
          -2.30330115e-005, -2.30330115e-005, -4.52717795e-005,
          -4.52717795e-005, -2.30330115e-005, 0., 0., 0., 0., 0., 0., 0.,
          0., 0., 0., 0., 0., 0., 0., 0., 0., 0., 0., 0., 0., 0., 0., 0.,
          0., 0., 0., 0., 0., 0., 0., 0., 0., 0., 0., 0., 0., 0., 0., 0.,
          0., 0., 0., 0., 0., 0., -2.30330115e-005, -4.52717795e-005,
          -4.52717795e-005, -4.52717795e-005, -4.52717795e-005, 0., 0.,
          0., 0., 0., 0., 0., 0., 0., 0., 0., 0., 0., 0., 0., 0., 0., 0.,
          0., 0., 0., 0., 0., 0., 0., 0., 0., 0., 0., 0., 0., 0., 0., 0.,
          0., 0., 0., 0., 0., 0., 0., 0., 0., 0., 0., -4.52717795e-005,
          -4.52717795e-005, -4.52717795e-005, -4.52717795e-005,
          -4.52717795e-005, 0., 0., 0., 0., 0., 0., 0., 0., 0., 0., 0.,
          0., 0., 0., 0., 0., 0., 0., 0., 0., 0., 0., 0., 0., 0., 0., 0.,
          0., 0., 0., 0., 0., 0., 0., 0., 0., 0., 0., 0., 0., 0., 0., 0.,
          0., -2.30330115e-005, -4.52717795e-005, -4.52717795e-005,
          -4.52717795e-005, -4.52717795e-005, -4.52717795e-005, 0., 0.,
          0., 0., 0., 0., 0., 0., 0., 0., 0., 0., 0., 0., 0., 0., 0., 0.,
          0., 0., 0., 0., 0., 0., 0., 0., 0., 0., 0., 0., 0., 0., 0., 0.,
          0., 0., 0., 0., 0., 0., 0., 0., 0., -2.30330115e-005,
          -4.52717795e-005, -4.52717795e-005, -4.52717795e-005,
          -4.52717795e-005, -4.52717795e-005, -2.22387698e-005, 0., 0.,
          0., 0., 0., 0., 0., 0., 0., 0., 0., 0., 0., 0., 0., 0., 0., 0.,
          0., 0., 0., 0., 0., 0., 0., 0., 0., 0., 0., 0., 0., 0., 0., 0.,
          0., 0., 0., 0., 0., -2.30330115e-005, -2.30330115e-005,
          -2.30330115e-005, -2.30330115e-005, -2.30330115e-005,
          -4.52717795e-005, -4.52717795e-005, -4.52717795e-005,
          -4.52717795e-005, -4.52717795e-005, -2.22387698e-005, 0., 0.,
          0., 0., 0., 0., 0., 0., 0., 0., 0., 0., 0., 0., 0., 0., 0., 0.,
          0., 0., 0., 0., 0., 0., 0., 0., 0., 0., 0., 0., 0., 0., 0., 0.,
          0., 0., 0., -2.30330115e-005, -2.30330115e-005,
          -2.30330115e-005, -4.52717795e-005, -4.52717795e-005,
          -4.52717795e-005, -4.52717795e-005, -4.52717795e-005,
          -4.52717795e-005, -4.52717795e-005, -4.52717795e-005,
          -4.52717795e-005, -2.22387698e-005, 0., 0., 0., 0., 0., 0., 0.,
          0., 0., 0., 0., 0., 0., 0., 0., 0., 0., 0., 0., 0., 0., 0., 0.,
          0., 0., 0., 0., 0., 0., 0., 0., 0., 0., 0., 0., 0., 0.,
          -2.30330115e-005, -4.52717795e-005, -4.52717795e-005,
          -4.52717795e-005, -4.52717795e-005, -4.52717795e-005,
          -4.52717795e-005, -4.52717795e-005, -4.52717795e-005,
          -4.52717795e-005, -4.52717795e-005, -4.52717795e-005,
          -2.22387698e-005, 0., 0., 0., 0., 0., 0., 0., 0., 0., 0., 0.,
          0., 0., 0., 0., 0., 0., 0., 0., 0., 0., 0., 0., 0., 0., 0., 0.,
          0., 0., 0., 0., 0., 0., 0., 0., 0., 0., -4.52717795e-005,
          -4.52717795e-005, -4.52717795e-005, -4.52717795e-005,
          -4.52717795e-005, -4.52717795e-005, -4.52717795e-005,
          -4.52717795e-005, -4.52717795e-005, -4.52717795e-005,
          -4.52717795e-005, -4.52717795e-005, -2.22387698e-005, 0., 0.,
          0., 0., 0., 0., 0., 0., 0., 0., 0., 0., 0., 0., 0., 0., 0., 0.,
          0., 0., 0., 0., 0., 0., 0., 0., 0., 0., 0., 0., 0., 0., 0., 0.,
          0., 0., 0., -4.52717795e-005, -4.52717795e-005,
          -4.52717795e-005, -4.52717795e-005, -4.52717795e-005,
          -2.22387698e-005, -2.22387698e-005, -4.52717795e-005,
          -4.52717795e-005, -4.52717795e-005, -4.52717795e-005,
          -4.52717795e-005, -2.22387698e-005, 0., 0., 0., 0., 0., 0., 0.,
          0., 0., 0., 0., 0., 0., 0., 0., 0., 0., 0., 0., 0., 0., 0., 0.,
          0., 0., 0., 0., 0., 0., 0., 0., 0., 0., 0., 0., 0., 0., 0.,
          -2.22387698e-005, -2.22387698e-005, -2.22387698e-005,
          -2.22387698e-005, 0., 0., 0., -4.52717795e-005,
          -4.52717795e-005, -4.52717795e-005, -4.52717795e-005,
          -2.22387698e-005, 0., 0., 0., 0., 0., 0., 0., 0., 0., 0., 0.,
          0., 0., 0., 0., 0., 0., 0., 0., 0., 0., 0., 0., 0., 0., 0., 0.,
          0., 0., 0., 0., 0., 0., 0., 0., 0., 0., 0., 0., 0., 0., 0., 0.,
          0., 0., -4.52717795e-005, -4.52717795e-005, -4.52717795e-005,
          -4.52717795e-005, -2.22387698e-005, 0., 0., 0., 0., 0., 0., 0.,
          0., 0., 0., 0., 0., 0., 0., 0., 0., 0., 0., 0., 0., 0., 0., 0.,
          0., 0., 0., 0., 0., 0., 0., 0., 0., 0., 0., 0., 0., 0., 0., 0.,
          0., 0., 0., 0., 0., 0., -4.52717795e-005, -4.52717795e-005,
          -4.52717795e-005, -4.52717795e-005, -2.22387698e-005, 0., 0.,
          0., 0., 0., 0., 0., 0., 0., 0., 0., 0., 0., 0., 0., 0., 0., 0.,
          0., 0., 0., 0., 0., 0., 0., 0., 0., 0., 0., 0., 0., 0., 0., 0.,
          0., 0., 0., 0., 0., 0., 0., 0., 0., 0., 0., -4.52717795e-005,
          -4.52717795e-005, -4.52717795e-005, -4.52717795e-005,
          -2.22387698e-005, 0., 0., 0., 0., 0., 0., 0., 0., 0., 0., 0.,
          0., 0., 0., 0., 0., 0., 0., 0., 0., 0., 0., 0., 0., 0., 0., 0.,
          0., 0., 0., 0., 0., 0., 0., 0., 0., 0., 0., 0., 0., 0., 0., 0.,
          0., 0., -4.52717795e-005, -4.52717795e-005, -4.52717795e-005,
          -4.52717795e-005, -2.22387698e-005, 0., 0., 0., 0., 0., 0., 0.,
          0., 0., 0., 0., 0., 0., 0., 0., 0., 0., 0., 0., 0., 0., 0., 0.,
          0., 0., 0., 0., 0., 0., 0., 0., 0., 0., 0., 0., 0., 0., 0., 0.,
          0., 0., 0., 0., 0., 0., -4.52717795e-005, -4.52717795e-005,
          -4.52717795e-005, -4.52717795e-005, -2.22387698e-005, 0., 0.,
          0., 0., 0., 0., 0., 0., 0., 0., 0., 0., 0., 0., 0., 0., 0., 0.,
          0., 0., 0., 0., 0., 0., 0., 0., 0., 0., 0., 0., 0., 0., 0., 0.,
          0., 0., 0., 0., 0., 0., 0., 0., 0., 0., 0., -4.52717795e-005,
          -4.52717795e-005, -4.52717795e-005, -4.52717795e-005,
          -2.22387698e-005, 0., 0., 0., 0., 0., 0., 0., 0., 0., 0., 0.,
          0., 0., 0., 0., 0., 0., 0., 0., 0., 0., 0., 0., 0., 0., 0., 0.,
          0., 0., 0., 0., 0., 0., 0., 0., 0., 0., 0., 0., 0., 0., 0., 0.,
          0., 0., -4.52717795e-005, -4.52717795e-005, -4.52717795e-005,
          -4.52717795e-005, -4.52717795e-005, 0., 0., 0., 0., 0., 0., 0.,
          0., 0., 0., 0., 0., 0., 0., 0., 0., 0., 0., 0., 0., 0., 0., 0.,
          0., 0., 0., 0., 0., 0., 0., 0., 0., 0., 0., 0., 0., 0., 0., 0.,
          0., 0., 0., 0., 0., 0., -4.52717795e-005, -4.52717795e-005,
          -4.52717795e-005, -4.52717795e-005, -2.22387698e-005, 0., 0.,
          0., 0., 0., 0., 0., 0., 0., 0., 0., 0., 0., 0., 0., 0., 0., 0.,
          0., 0., 0., 0., 0., 0., 0., 0., 0., 0., 0., 0., 0., 0., 0., 0.,
          0., 0., 0., 0., 0., 0., 0., 0., 0., 0., 0., -4.52717795e-005,
          -4.52717795e-005, -4.52717795e-005, -4.52717795e-005,
          -2.22387698e-005, 0., 0., 0., 0., 0., 0., 0., 0., 0., 0., 0.,
          0., 0., 0., 0., 0., 0., 0., 0., 0., 0., 0., 0., 0., 0., 0., 0.,
          0., 0., 0., 0., 0., 0., 0., 0., 0., 0., 0., 0., 0., 0., 0., 0.,
          0., 0., -4.52717795e-005, -4.52717795e-005, -4.52717795e-005,
          -4.52717795e-005, -2.22387698e-005, 0., 0., 0., 0., 0., 0., 0.,
          0., 0., 0., 0., 0., 0., 0., 0., 0., 0., 0., 0., 0., 0., 0., 0.,
          0., 0., 0., 0., 0., 0., 0., 0., 0., 0., 0., 0., 0., 0., 0., 0.,
          0., 0., 0., 0., 0., 0., -4.52717795e-005, -4.52717795e-005,
          -4.52717795e-005, -4.52717795e-005, -2.22387698e-005, 0., 0.,
          0., 0., 0., 0., 0., 0., 0., 0., 0., 0., 0., 0., 0., 0., 0., 0.,
          0., 0., 0., 0., 0., 0., 0., 0., 0., 0., 0., 0., 0., 0., 0., 0.,
          0., 0., 0., 0., 0., 0., 0., 0., 0., 0., 0., -4.52717795e-005,
          -4.52717795e-005, -4.52717795e-005, -4.52717795e-005,
          -2.22387698e-005, 0., 0., 0., 0., 0., 0., 0., 0., 0., 0., 0.,
          0., 0., 0., 0., 0., 0., 0., 0., 0., 0., 0., 0., 0., 0., 0., 0.,
          0., 0., 0., 0., 0., 0., 0., 0., 0., 0., 0., 0., 0., 0., 0., 0.,
          0., 0., -4.52717795e-005, -4.52717795e-005, -4.52717795e-005,
          -4.52717795e-005, -2.22387698e-005, 0., 0., 0., 0., 0., 0., 0.,
          0., 0., 0., 0., 0., 0., 0., 0., 0., 0., 0., 0., 0., 0., 0., 0.,
          0., 0., 0., 0., 0., 0., 0., 0., 0., 0., 0., 0., 0., 0., 0., 0.,
          0., 0., 0., 0., 0., 0., -4.52717795e-005, -4.52717795e-005,
          -4.52717795e-005, -4.52717795e-005, -2.22387698e-005, 0., 0.,
          0., 0., 0., 0., 0., 0., 0., 0., 0., 0., 0., 0., 0., 0., 0., 0.,
          0., 0., 0., 0., 0., 0., 0., 0., 0., 0., 0., 0., 0., 0., 0., 0.,
          0., 0., 0., 0., 0., 0., 0., 0., 0., 0., 0., -4.52717795e-005,
          -4.52717795e-005, -4.52717795e-005, -4.52717795e-005,
          -2.22387698e-005, 0., 0., 0., 0., 0., 0., 0., 0., 0., 0., 0.,
          0., 0., 0., 0., 0., 0., 0., 0., 0., 0., 0., 0., 0., 0., 0., 0.,
          0., 0., 0., 0., 0., 0., 0., 0., 0., 0., 0., 0., 0., 0., 0., 0.,
          0., 0., -4.52717795e-005, -4.52717795e-005, -4.52717795e-005,
          -4.52717795e-005, -2.22387698e-005, 0., 0., 0., 0., 0., 0., 0.,
          0., 0., 0., 0., 0., 0., 0., 0., 0., 0., 0., 0., 0., 0., 0., 0.,
          0., 0., 0., 0., 0., 0., 0., 0., 0., 0., 0., 0., 0., 0., 0., 0.,
          0., 0., 0., 0., 0., 0., -4.52717795e-005, -4.52717795e-005,
          -4.52717795e-005, -4.52717795e-005, -2.22387698e-005, 0., 0.,
          0., 0., 0., 0., 0., 0., 0., 0., 0., 0., 0., 0., 0., 0., 0., 0.,
          0., 0., 0., 0., 0., 0., 0., 0., 0., 0., 0., 0., 0., 0., 0., 0.,
          0., 0., 0., 0., 0., 0., 0., 0., 0., 0., -2.30330115e-005,
          -4.52717795e-005, -4.52717795e-005, -4.52717795e-005,
          -4.52717795e-005, -4.52717795e-005, 0., 0., 0., 0., 0., 0., 0.,
          0., 0., 0., 0., 0., 0., 0., 0., 0., 0., 0., 0., 0., 0., 0., 0.,
          0., 0., 0., 0., 0., 0., 0., 0., 0., 0., 0., 0., 0., 0., 0., 0.,
          0., 0., 0., 0., 0., -2.30330115e-005, -4.52717795e-005,
          -4.52717795e-005, -4.52717795e-005, -4.52717795e-005,
          -4.52717795e-005, 0., 0., 0., 0., 0., 0., 0., 0., 0., 0., 0.,
          0., 0., 0., 0., 0., 0., 0., 0., 0., 0., 0., 0., 0., 0., 0., 0.,
          0., 0., 0., 0., 0., 0., 0., 0., 0., 0., 0., 0., 0., 0., 0., 0.,
          0., -2.30330115e-005, -4.52717795e-005, -4.52717795e-005,
          -4.52717795e-005, -4.52717795e-005, -4.52717795e-005, 0., 0.,
          0., 0., 0., 0., 0., 0., 0., 0., 0., 0., 0., 0., 0., 0., 0., 0.,
          0., 0., 0., 0., 0., 0., 0., 0., 0., 0., 0., 0., 0., 0., 0., 0.,
          0., 0., 0., 0., 0., 0., 0., 0., 0., 0., -2.30330115e-005,
          -2.30330115e-005, -4.52717795e-005, -4.52717795e-005,
          -4.52717795e-005, -2.30330115e-005, 0., 0., 0., 0., 0., 0., 0.,
          0., 0., 0., 0., 0., 0., 0., 0., 0., 0., 0., 0., 0., 0., 0., 0.,
          0., 0., 0., 0., 0., 0., 0., 0., 0., 0., 0., 0., 0., 0., 0., 0.,
          0., 0., 0., 0., 0., 0., -2.30330115e-005, -2.30330115e-005,
          -2.30330115e-005, -2.30330115e-005, 0., 0., 0., 0., 0., 0., 0.,
          0., 0., 0., 0., 0., 0., 0., 0., 0., 0., 0., 0., 0., 0., 0., 0.,
          0., 0., 0., 0., 0., 0., 0., 0., 0., 0., 0., 0., 0., 0., 0., 0.,
          0., 0., 0., 0., 0., 0., 0., 0., 0., 0., 0., 0., 0., 0., 0., 0.,
          0., 0., 0., 0., 0., 0., 0., 0., 0., 0., 0., 0., 0., 0., 0., 0.,
          0., 0., 0., 0., 0., 0., 0., 0., 0., 0., 0., 0., 0., 0., 0., 0.,
          0., 0., 0., 0., 0., 0., 0., 0., 0., 0., 0., 0., 0., 0., 0., 0.,
          0., 0., 0., 0., 0., 0., 0., 0., 0., 0., 0., 0., 0., 0., 0., 0.,
          0., 0., 0., 0., 0., 0., 0., 0., 0., 0., 0., 0., 0., 0., 0., 0.,
          0., 0., 0., 0., 0., 0., 0., 0., 0., 0., 0., 0., 0., 0., 0., 0.,
          0., 0., 0., 0., 0., 0., 0., 0., 0., 0., 0., 0., 0., 0., 0., 0.,
          0., 0., 0., 0., 0., 0., 0., 0., 0., 0., 0., 0., 0., 0., 0., 0.,
          0., 0., 0., 0., 0., 0., 0., 0., 0., 0., 0., 0., 0., 0., 0., 0.,
          0., 0., 0., 0., 0., 0., 0., 0., 0., 0., 0., 0., 0., 0., 0., 0.,
          0., 0., 0., 0., 0., 0., 0., 0., 0., 0., 0., 0., 0., 0., 0., 0.,
          0., 0., 0., 0., 0., 0., 0., 0., 0., 0., 0., 0., 0., 0., 0., 0.,
          0., 0., 0., 0., 0., 0., 0., 0., 0., 0., 0., 0., 0., 0., 0., 0.,
          0., 0., 0., 0., 0., 0., 0., 0., 0., 0., 0., 0., 0., 0., 0., 0.,
          0., 0., 0., 0., 0., 0., 0., 0., 0., 0., 0., 0., 0., 0., 0., 0.,
          0., 0., 0., 0., 0., 0., 0., 0., 0., 0., 0., 0., 0., 0., 0., 0.,
          0., 0., 0., 0., 0., 0., 0., 0., 0., 0., 0., 0., 0., 0., 0., 0.,
          0., 0., 0., 0., 0., 0., 0., 0., 0., 0., 0., 0., 0., 0., 0., 0.,
          0., 0., 0., 0., 0., 0., 0., 0., 0., 0., 0., 0., 0., 0., 0., 0.,
          0., 0., 0., 0., 0., 0., 0., 0., 0., 0., 0., 0., 0., 0., 0., 0.,
          0., 0., 0., 0., 0., 0., 0., 0., 0., 0., 0., 0., 0., 0., 0., 0.,
          0., 0., 0., 0., 0., 0., 0., 0., 0., 0., 0., 0., 0., 0., 0., 0.,
          0., 0., 0., 0., 0., 0., 0., 0., 0., 0., 0., 0. ]
      - [ 0., 0., 0., 0., 0., 0., 0., 0., 0., 0., 0., 0., 0., 0., 0., 0.,
          0., 0., 0., 0., 0., 0., 0., 0., 0., 0., 0., 0., 0., 0., 0., 0.,
          0., 0., 0., 0., 0., 0., 0., 0., 0., 0., 0., 0., 0., 0., 0., 0.,
          0., 0., 0., 0., 0., 0., 0., 0., 0., 0., 0., 0., 0., 0., 0., 0.,
          0., 0., 0., 0., 0., 0., 0., 0., 0., 0., 0., 0., 0., 0., 0., 0.,
          0., 0., 0., 0., 0., 0., 0., 0., 0., 0., 0., 0., 0., 0., 0., 0.,
          0., 0., 0., 0., 0., 0., 0., 0., 0., 0., 0., 0., 0., 0., 0., 0.,
          0., 0., 0., 0., 0., 0., 0., 0., 0., 0., 0., 0., 0., 0., 0., 0.,
          0., 0., 0., 0., 0., 0., 0., 0., 0., 0., 0., 0., 0., 0., 0., 0.,
          0., 0., 0., 0., 0., 0., 0., 0., 0., 0., 0., 0., 0., 0., 0., 0.,
          0., 0., 0., 0., 0., 0., 0., 0., 0., 0., 0., 0., 0., 0., 0., 0.,
          0., 0., 0., 0., 0., 0., 0., 0., 0., 0., 0., 0., 0., 0., 0., 0.,
          0., 0., 0., 0., 0., 0., 0., 0., 0., 0., 0., 0., 0., 0., 0., 0.,
          0., 0., 0., 0., 0., 0., 0., 0., 0., 0., 0., 0., 0., 0., 0., 0.,
          0., 0., 0., 0., 0., 0., 0., 0., 0., 0., 0., 0., 0., 0., 0., 0.,
          0., 0., 0., 0., 0., 0., 0., 0., 0., 0., 0., 0., 0., 0., 0., 0.,
          0., 0., 0., 0., 0., 0., 0., 0., 0., 0., 0., 0., 0., 0., 0., 0.,
          0., 0., 0., 0., 0., 0., 0., 0., 0., 0., 0., 0., 0., 0., 0., 0.,
          0., 0., 0., 0., 0., 0., 0., 0., 0., 0., 0., 0., 0., 0., 0., 0.,
          0., 0., 0., 0., 0., 0., 0., 0., 0., 0., 0., 0., 0., 0., 0., 0.,
          0., 0., 0., 0., 0., 0., 0., 0., 0., 0., 0., 0., 0., 0., 0., 0.,
          0., 0., 0., 0., 0., 0., 0., 0., 0., 0., 0., 0., 0., 0., 0., 0.,
          0., 0., 0., 0., 0., 0., 0., 0., 0., 0., 0., 0., 0., 0., 0., 0.,
          0., 0., 0., 0., 0., 0., 0., 0., 0., 0., 0., 0., 0., 0., 0., 0.,
          0., 0., 0., 0., 0., 0., 0., 0., 0., 0., 0., 0., 0., 0., 0., 0.,
          0., 0., 0., 0., 0., 0., 0., 0., 0., 0., 0., 0., 0., 0., 0., 0.,
          0., 0., 0., 0., 0., 0., 0., 0., -8.43215003e-006,
          -8.43215003e-006, -8.43215003e-006, -8.43215003e-006, 0., 0.,
          0., 0., 0., 0., 0., 0., 0., 0., 0., 0., 0., 0., 0., 0., 0., 0.,
          0., 0., 0., 0., 0., 0., 0., 0., 0., 0., 0., 0., 0., 0., 0., 0.,
          0., 0., 0., 0., 0., 0., 0., 0., 0., -1.90723167e-005,
          -2.52292739e-005, -2.52292739e-005, -2.52292739e-005,
          -2.52292739e-005, -2.52292739e-005, -2.52292739e-005,
          -2.52292739e-005, -1.90723167e-005, -8.43215003e-006, 0., 0.,
          0., 0., 0., 0., 0., 0., 0., 0., 0., 0., 0., 0., 0., 0., 0., 0.,
          0., 0., 0., 0., 0., 0., 0., 0., 0., 0., 0., 0., 0., 0., 0., 0.,
          0., 0., 0., 0., -2.52292739e-005, -2.52292739e-005,
          -2.52292739e-005, -2.52292739e-005, -2.52292739e-005,
          -2.52292739e-005, -2.52292739e-005, -2.52292739e-005,
          -2.52292739e-005, -2.52292739e-005, -2.52292739e-005,
          -2.52292739e-005, -1.90723167e-005, 0., 0., 0., 0., 0., 0., 0.,
          0., 0., 0., 0., 0., 0., 0., 0., 0., 0., 0., 0., 0., 0., 0., 0.,
          0., 0., 0., 0., 0., 0., 0., 0., 0., 0., 0., 0., 0.,
          -2.52292739e-005, -2.52292739e-005, -2.52292739e-005,
          -2.52292739e-005, -2.52292739e-005, -2.52292739e-005,
          -2.52292739e-005, -2.52292739e-005, -2.52292739e-005,
          -2.52292739e-005, -2.52292739e-005, -2.52292739e-005,
          -2.52292739e-005, -2.52292739e-005, -2.52292739e-005, 0., 0.,
          0., 0., 0., 0., 0., 0., 0., 0., 0., 0., 0., 0., 0., 0., 0., 0.,
          0., 0., 0., 0., 0., 0., 0., 0., 0., 0., 0., 0., 0., 0., 0., 0.,
          -2.52292739e-005, -2.52292739e-005, -2.52292739e-005,
          -2.52292739e-005, -2.52292739e-005, -2.52292739e-005,
          -2.52292739e-005, -2.52292739e-005, -2.52292739e-005,
          -2.52292739e-005, -2.52292739e-005, -2.52292739e-005,
          -2.52292739e-005, -2.52292739e-005, -2.52292739e-005,
          -2.52292739e-005, -2.52292739e-005, 0., 0., 0., 0., 0., 0., 0.,
          0., 0., 0., 0., 0., 0., 0., 0., 0., 0., 0., 0., 0., 0., 0., 0.,
          0., 0., 0., 0., 0., 0., 0., 0., 0., -1.70822568e-006,
          -2.52292739e-005, -2.52292739e-005, -2.52292739e-005,
          -2.52292739e-005, -2.52292739e-005, -2.52292739e-005,
          -6.15695762e-006, 0., 0., -6.15695762e-006, -6.15695762e-006,
          -2.52292739e-005, -2.52292739e-005, -2.52292739e-005,
          -2.52292739e-005, -2.52292739e-005, -2.52292739e-005,
          -1.90723167e-005, 0., 0., 0., 0., 0., 0., 0., 0., 0., 0., 0.,
          0., 0., 0., 0., 0., 0., 0., 0., 0., 0., 0., 0., 0., 0., 0., 0.,
          0., 0., 0., 0., -2.52292739e-005, -2.52292739e-005,
          -2.52292739e-005, -2.52292739e-005, -2.52292739e-005,
          -1.45891081e-005, 0., 0., 0., 0., 0., 0., 0., -7.86518376e-006,
          -2.52292739e-005, -2.52292739e-005, -2.52292739e-005,
          -2.52292739e-005, -2.52292739e-005, 0., 0., 0., 0., 0., 0., 0.,
          0., 0., 0., 0., 0., 0., 0., 0., 0., 0., 0., 0., 0., 0., 0., 0.,
          0., 0., 0., 0., 0., 0., 0., -7.86518376e-006, -2.52292739e-005,
          -2.52292739e-005, -2.52292739e-005, -2.52292739e-005,
          -2.52292739e-005, 0., 0., 0., 0., 0., 0., 0., 0., 0.,
          -2.52292739e-005, -2.52292739e-005, -2.52292739e-005,
          -2.52292739e-005, -2.52292739e-005, -8.93194010e-006, 0., 0.,
          0., 0., 0., 0., 0., 0., 0., 0., 0., 0., 0., 0., 0., 0., 0., 0.,
          0., 0., 0., 0., 0., 0., 0., 0., 0., 0., 0., -2.52292739e-005,
          -2.52292739e-005, -2.52292739e-005, -2.52292739e-005,
          -2.52292739e-005, -8.43215003e-006, 0., 0., 0., 0., 0., 0., 0.,
          0., 0., 0., -2.52292739e-005, -2.52292739e-005,
          -2.52292739e-005, -2.52292739e-005, -1.90723167e-005, 0., 0.,
          0., 0., 0., 0., 0., 0., 0., 0., 0., 0., 0., 0., 0., 0., 0., 0.,
          0., 0., 0., 0., 0., 0., 0., 0., 0., 0., 0., -2.52292739e-005,
          -2.52292739e-005, -2.52292739e-005, -2.52292739e-005,
          -2.52292739e-005, 0., 0., 0., 0., 0., 0., 0., 0., 0., 0., 0.,
          -2.52292739e-005, -2.52292739e-005, -2.52292739e-005,
          -2.52292739e-005, -2.52292739e-005, 0., 0., 0., 0., 0., 0., 0.,
          0., 0., 0., 0., 0., 0., 0., 0., 0., 0., 0., 0., 0., 0., 0., 0.,
          0., 0., 0., 0., 0., 0., -2.52292739e-005, -2.52292739e-005,
          -2.52292739e-005, -2.52292739e-005, -2.52292739e-005, 0., 0.,
          0., 0., 0., 0., 0., 0., 0., 0., 0., -2.52292739e-005,
          -2.52292739e-005, -2.52292739e-005, -2.52292739e-005,
          -2.52292739e-005, 0., 0., 0., 0., 0., 0., 0., 0., 0., 0., 0.,
          0., 0., 0., 0., 0., 0., 0., 0., 0., 0., 0., 0., 0., 0., 0., 0.,
          0., 0., -2.52292739e-005, -2.52292739e-005, -2.52292739e-005,
          -2.52292739e-005, -2.52292739e-005, 0., 0., 0., 0., 0., 0., 0.,
          0., 0., 0., 0., -2.52292739e-005, -2.52292739e-005,
          -2.52292739e-005, -2.52292739e-005, -2.52292739e-005, 0., 0.,
          0., 0., 0., 0., 0., 0., 0., 0., 0., 0., 0., 0., 0., 0., 0., 0.,
          0., 0., 0., 0., 0., 0., 0., 0., 0., 0., 0., -2.52292739e-005,
          -2.52292739e-005, -2.52292739e-005, -2.52292739e-005,
          -8.43215003e-006, 0., 0., 0., 0., 0., 0., 0., 0., 0., 0., 0.,
          -2.52292739e-005, -2.52292739e-005, -2.52292739e-005,
          -2.52292739e-005, -2.35210482e-005, 0., 0., 0., 0., 0., 0., 0.,
          0., 0., 0., 0., 0., 0., 0., 0., 0., 0., 0., 0., 0., 0., 0., 0.,
          0., 0., 0., 0., 0., 0., 0., -1.45891081e-005, -1.45891081e-005,
          0., 0., 0., 0., 0., 0., 0., 0., 0., 0., 0., 0.,
          -2.52292739e-005, -2.52292739e-005, -2.52292739e-005,
          -2.52292739e-005, -2.52292739e-005, -1.73640910e-005, 0., 0.,
          0., 0., 0., 0., 0., 0., 0., 0., 0., 0., 0., 0., 0., 0., 0., 0.,
          0., 0., 0., 0., 0., 0., 0., 0., 0., 0., 0., 0., 0., 0., 0., 0.,
          0., 0., 0., 0., 0., 0., 0., 0., 0., -1.67971230e-005,
          -2.52292739e-005, -2.52292739e-005, -2.52292739e-005,
          -2.52292739e-005, -2.52292739e-005, 0., 0., 0., 0., 0., 0., 0.,
          0., 0., 0., 0., 0., 0., 0., 0., 0., 0., 0., 0., 0., 0., 0., 0.,
          0., 0., 0., 0., 0., 0., 0., 0., 0., 0., 0., 0., 0., 0., 0., 0.,
          0., 0., 0., 0., -1.67971230e-005, -2.52292739e-005,
          -2.52292739e-005, -2.52292739e-005, -2.52292739e-005,
          -2.52292739e-005, -2.35210482e-005, 0., 0., 0., 0., 0., 0., 0.,
          0., 0., 0., 0., 0., 0., 0., 0., 0., 0., 0., 0., 0., 0., 0., 0.,
          0., 0., 0., 0., 0., 0., 0., 0., 0., 0., 0., 0., 0., 0., 0., 0.,
          0., 0., -1.06401658e-005, -2.52292739e-005, -2.52292739e-005,
          -2.52292739e-005, -2.52292739e-005, -2.52292739e-005,
          -2.52292739e-005, -2.52292739e-005, 0., 0., 0., 0., 0., 0., 0.,
          0., 0., 0., 0., 0., 0., 0., 0., 0., 0., 0., 0., 0., 0., 0., 0.,
          0., 0., 0., 0., 0., 0., 0., 0., 0., 0., 0., 0., 0., 0., 0., 0.,
          0., 0., -1.67971230e-005, -2.52292739e-005, -2.52292739e-005,
          -2.52292739e-005, -2.52292739e-005, -2.52292739e-005,
          -2.52292739e-005, -2.52292739e-005, -8.43215003e-006, 0., 0.,
          0., 0., 0., 0., 0., 0., 0., 0., 0., 0., 0., 0., 0., 0., 0., 0.,
          0., 0., 0., 0., 0., 0., 0., 0., 0., 0., 0., 0., 0., 0., 0., 0.,
          0., 0., 0., 0., 0., -1.06401658e-005, -2.52292739e-005,
          -2.52292739e-005, -2.52292739e-005, -2.52292739e-005,
          -2.52292739e-005, -2.52292739e-005, -2.52292739e-005,
          -1.45891081e-005, -8.43215003e-006, 0., 0., 0., 0., 0., 0., 0.,
          0., 0., 0., 0., 0., 0., 0., 0., 0., 0., 0., 0., 0., 0., 0., 0.,
          0., 0., 0., 0., 0., 0., 0., 0., 0., 0., 0., 0., 0., 0., 0.,
          -8.93194010e-006, -1.67971230e-005, -2.52292739e-005,
          -2.52292739e-005, -2.52292739e-005, -2.52292739e-005,
          -2.52292739e-005, -2.52292739e-005, -2.52292739e-005,
          -1.45891081e-005, 0., 0., 0., 0., 0., 0., 0., 0., 0., 0., 0.,
          0., 0., 0., 0., 0., 0., 0., 0., 0., 0., 0., 0., 0., 0., 0., 0.,
          0., 0., 0., 0., 0., 0., 0., 0., 0., 0., 0., 0.,
          -1.67971230e-005, -2.52292739e-005, -2.52292739e-005,
          -2.52292739e-005, -2.52292739e-005, -2.52292739e-005,
          -2.52292739e-005, -2.52292739e-005, -2.52292739e-005,
          -8.43215003e-006, 0., 0., 0., 0., 0., 0., 0., 0., 0., 0., 0.,
          0., 0., 0., 0., 0., 0., 0., 0., 0., 0., 0., 0., 0., 0., 0., 0.,
          0., 0., 0., 0., 0., 0., 0., 0., 0., 0., 0., 0.,
          -1.67971230e-005, -2.52292739e-005, -2.52292739e-005,
          -2.52292739e-005, -2.52292739e-005, -2.52292739e-005,
          -2.52292739e-005, -1.62973338e-005, -8.43215003e-006, 0., 0.,
          0., 0., 0., 0., 0., 0., 0., 0., 0., 0., 0., 0., 0., 0., 0., 0.,
          0., 0., 0., 0., 0., 0., 0., 0., 0., 0., 0., 0., 0., 0., 0., 0.,
          0., 0., 0., 0., 0., -8.93194010e-006, -2.52292739e-005,
          -2.52292739e-005, -2.52292739e-005, -2.52292739e-005,
          -2.52292739e-005, -2.52292739e-005, -1.62973338e-005,
          -1.45891081e-005, -8.43215003e-006, 0., 0., 0., 0., 0., 0., 0.,
          0., 0., 0., 0., 0., 0., 0., 0., 0., 0., 0., 0., 0., 0., 0., 0.,
          0., 0., 0., 0., 0., 0., 0., 0., 0., 0., 0., 0., 0., 0., 0., 0.,
          0., -2.52292739e-005, -2.52292739e-005, -2.52292739e-005,
          -2.52292739e-005, -2.52292739e-005, -2.52292739e-005,
          -1.45891081e-005, -8.43215003e-006, 0., 0., 0., 0., 0., 0., 0.,
          0., 0., 0., 0., 0., 0., 0., 0., 0., 0., 0., 0., 0., 0., 0., 0.,
          0., 0., 0., 0., 0., 0., 0., 0., 0., 0., 0., 0., 0., 0., 0., 0.,
          0., 0., -8.93194010e-006, -2.52292739e-005, -2.52292739e-005,
          -2.52292739e-005, -2.52292739e-005, -1.62973338e-005,
          -8.43215003e-006, 0., 0., 0., 0., 0., 0., 0., 0., 0., 0., 0.,
          0., 0., 0., 0., 0., 0., 0., 0., 0., 0., 0., 0., 0., 0., 0., 0.,
          0., 0., 0., 0., 0., 0., 0., 0., 0., 0., 0., 0., 0., 0., 0., 0.,
          -2.52292739e-005, -2.52292739e-005, -2.52292739e-005,
          -2.52292739e-005, -1.62973338e-005, 0., 0., 0., 0., 0., 0., 0.,
          0., 0., 0., 0., 0., 0., 0., 0., 0., 0., 0., 0., 0., 0., 0., 0.,
          0., 0., 0., 0., 0., 0., 0., 0., 0., 0., 0., 0., 0., 0., 0., 0.,
          0., 0., 0., 0., 0., -8.93194010e-006, -2.52292739e-005,
          -2.52292739e-005, -2.52292739e-005, -2.52292739e-005, 0., 0.,
          0., 0., 0., 0., 0., 0., 0., 0., 0., 0., 0., 0., 0., 0., 0., 0.,
          0., 0., 0., 0., 0., 0., 0., 0., 0., 0., 0., 0., 0., 0., 0., 0.,
          0., 0., 0., 0., 0., 0., 0., 0., 0., 0., 0., -2.52292739e-005,
          -2.52292739e-005, -2.52292739e-005, -2.52292739e-005,
          -2.52292739e-005, 0., 0., 0., 0., 0., 0., 0., 0., 0., 0., 0.,
          0., -1.06401658e-005, -1.67971230e-005, -1.06401658e-005, 0.,
          0., 0., 0., 0., 0., 0., 0., 0., 0., 0., 0., 0., 0., 0., 0., 0.,
          0., 0., 0., 0., 0., 0., 0., 0., 0., 0., 0., 0., 0.,
          -2.52292739e-005, -2.52292739e-005, -2.52292739e-005,
          -2.52292739e-005, -1.67971230e-005, -1.67971230e-005,
          -1.67971230e-005, -1.06401658e-005, -1.67971230e-005,
          -1.67971230e-005, -1.67971230e-005, -1.67971230e-005,
          -1.67971230e-005, -1.67971230e-005, -1.67971230e-005,
          -1.67971230e-005, -1.67971230e-005, -1.67971230e-005,
          -1.67971230e-005, -1.67971230e-005, -1.67971230e-005, 0., 0.,
          0., 0., 0., 0., 0., 0., 0., 0., 0., 0., 0., 0., 0., 0., 0., 0.,
          0., 0., 0., 0., 0., 0., 0., 0., 0., 0., -1.06401658e-005,
          -2.52292739e-005, -2.52292739e-005, -2.52292739e-005,
          -2.52292739e-005, -2.52292739e-005, -1.67971230e-005,
          -1.67971230e-005, -1.67971230e-005, -1.67971230e-005,
          -2.52292739e-005, -2.52292739e-005, -2.52292739e-005,
          -2.52292739e-005, -2.52292739e-005, -2.52292739e-005,
          -2.52292739e-005, -2.52292739e-005, -2.52292739e-005,
          -2.52292739e-005, -2.52292739e-005, -1.67971230e-005,
          -1.06401658e-005, 0., 0., 0., 0., 0., 0., 0., 0., 0., 0., 0.,
          0., 0., 0., 0., 0., 0., 0., 0., 0., 0., 0., 0., 0., 0., 0., 0.,
          -1.90723167e-005, -2.52292739e-005, -2.52292739e-005,
          -2.52292739e-005, -2.52292739e-005, -2.52292739e-005,
          -2.52292739e-005, -2.52292739e-005, -2.52292739e-005,
          -2.52292739e-005, -2.52292739e-005, -2.52292739e-005,
          -2.52292739e-005, -2.52292739e-005, -2.52292739e-005,
          -2.52292739e-005, -2.52292739e-005, -2.52292739e-005,
          -2.52292739e-005, -2.52292739e-005, -2.52292739e-005,
          -2.52292739e-005, -1.06401658e-005, 0., 0., 0., 0., 0., 0., 0.,
          0., 0., 0., 0., 0., 0., 0., 0., 0., 0., 0., 0., 0., 0., 0., 0.,
          0., 0., 0., 0., -1.01403766e-005, -2.52292739e-005,
          -2.52292739e-005, -2.52292739e-005, -2.52292739e-005,
          -2.52292739e-005, -2.52292739e-005, -2.52292739e-005,
          -2.52292739e-005, -2.52292739e-005, -2.52292739e-005,
          -2.52292739e-005, -2.52292739e-005, -2.52292739e-005,
          -2.52292739e-005, -2.52292739e-005, -2.52292739e-005,
          -2.52292739e-005, -2.52292739e-005, -2.52292739e-005,
          -2.52292739e-005, -2.52292739e-005, 0., 0., 0., 0., 0., 0., 0.,
          0., 0., 0., 0., 0., 0., 0., 0., 0., 0., 0., 0., 0., 0., 0., 0.,
          0., 0., 0., 0., 0., -8.43215003e-006, -8.43215003e-006,
          -8.43215003e-006, -8.43215003e-006, -8.43215003e-006,
          -8.43215003e-006, -8.43215003e-006, -8.43215003e-006,
          -8.43215003e-006, -8.43215003e-006, -8.43215003e-006,
          -8.43215003e-006, -8.43215003e-006, -8.43215003e-006,
          -8.43215003e-006, -1.45891081e-005, -1.45891081e-005,
          -1.45891081e-005, -1.62973338e-005, -2.52292739e-005,
          -2.52292739e-005, -8.43215003e-006, 0., 0., 0., 0., 0., 0., 0.,
          0., 0., 0., 0., 0., 0., 0., 0., 0., 0., 0., 0., 0., 0., 0., 0.,
          0., 0., 0., 0., 0., 0., 0., -8.43215003e-006, 0., 0., 0., 0.,
          0., 0., -8.43215003e-006, -8.43215003e-006, -8.43215003e-006,
          -8.43215003e-006, -8.43215003e-006, -8.43215003e-006,
          -8.43215003e-006, -8.43215003e-006, -8.43215003e-006,
          -8.43215003e-006, -8.43215003e-006, -8.43215003e-006, 0., 0.,
          0., 0., 0., 0., 0., 0., 0., 0., 0., 0., 0., 0., 0., 0., 0., 0.,
          0., 0., 0., 0., 0., 0., 0., 0., 0., 0., 0., 0., 0., 0., 0., 0.,
          0., 0., 0., 0., 0., 0., 0., 0., 0., 0., 0., 0., 0., 0., 0., 0.,
          0., 0., 0., 0., 0., 0., 0., 0., 0., 0., 0., 0., 0., 0., 0., 0.,
          0., 0., 0., 0., 0., 0., 0., 0., 0., 0., 0., 0., 0., 0., 0., 0.,
          0., 0., 0., 0., 0., 0., 0., 0., 0., 0., 0., 0., 0., 0., 0., 0.,
          0., 0., 0., 0., 0., 0., 0., 0., 0., 0., 0., 0., 0., 0., 0., 0.,
          0., 0., 0., 0., 0., 0., 0., 0., 0., 0., 0., 0., 0., 0., 0., 0.,
          0., 0., 0., 0., 0., 0., 0., 0., 0., 0., 0., 0., 0., 0., 0., 0.,
          0., 0., 0., 0., 0., 0., 0., 0., 0., 0., 0., 0., 0., 0., 0., 0.,
          0., 0., 0., 0., 0., 0., 0., 0., 0., 0., 0., 0., 0., 0., 0., 0.,
          0., 0., 0., 0., 0., 0., 0., 0., 0., 0., 0., 0., 0., 0., 0., 0.,
          0., 0., 0., 0., 0., 0., 0., 0., 0., 0., 0., 0., 0., 0., 0., 0.,
          0., 0., 0., 0., 0., 0., 0., 0., 0., 0., 0., 0., 0., 0., 0., 0.,
          0., 0., 0., 0., 0., 0., 0., 0., 0., 0., 0., 0., 0., 0., 0., 0.,
          0., 0., 0., 0., 0., 0., 0., 0., 0., 0., 0., 0., 0., 0., 0., 0.,
          0., 0., 0., 0., 0., 0., 0., 0., 0., 0., 0., 0., 0., 0., 0., 0.,
          0., 0., 0., 0., 0., 0., 0., 0., 0., 0., 0., 0., 0., 0., 0., 0.,
          0., 0., 0., 0., 0., 0., 0., 0., 0., 0., 0., 0., 0., 0., 0., 0.,
          0., 0., 0., 0., 0., 0., 0., 0., 0., 0., 0., 0., 0., 0., 0., 0.,
          0., 0., 0., 0., 0., 0., 0., 0., 0., 0., 0., 0., 0., 0., 0., 0.,
          0., 0., 0., 0., 0., 0., 0., 0., 0., 0., 0., 0., 0., 0., 0., 0.,
          0., 0., 0., 0., 0., 0., 0., 0., 0., 0., 0., 0., 0., 0., 0., 0.,
          0., 0., 0., 0., 0., 0., 0., 0., 0., 0., 0., 0., 0., 0., 0., 0.,
          0., 0., 0., 0., 0., 0., 0., 0., 0., 0., 0., 0., 0., 0., 0., 0.,
          0., 0., 0., 0., 0., 0., 0., 0., 0., 0., 0., 0., 0. ]
      - [ 0., 0., 0., 0., 0., 0., 0., 0., 0., 0., 0., 0., 0., 0., 0., 0.,
          0., 0., 0., 0., 0., 0., 0., 0., 0., 0., 0., 0., 0., 0., 0., 0.,
          0., 0., 0., 0., 0., 0., 0., 0., 0., 0., 0., 0., 0., 0., 0., 0.,
          0., 0., 0., 0., 0., 0., 0., 0., 0., 0., 0., 0., 0., 0., 0., 0.,
          0., 0., 0., 0., 0., 0., 0., 0., 0., 0., 0., 0., 0., 0., 0., 0.,
          0., 0., 0., 0., 0., 0., 0., 0., 0., 0., 0., 0., 0., 0., 0., 0.,
          0., 0., 0., 0., 0., 0., 0., 0., 0., 0., 0., 0., 0., 0., 0., 0.,
          0., 0., 0., 0., 0., 0., 0., 0., 0., 0., 0., 0., 0., 0., 0., 0.,
          0., 0., 0., 0., 0., 0., 0., 0., 0., 0., 0., 0., 0., 0., 0., 0.,
          0., 0., 0., 0., 0., 0., 0., 0., 0., 0., 0., 0., 0., 0., 0., 0.,
          0., 0., 0., 0., 0., 0., 0., 0., 0., 0., 0., 0., 0., 0., 0., 0.,
          0., 0., 0., 0., 0., 0., 0., 0., 0., 0., 0., 0., 0., 0., 0., 0.,
          0., 0., 0., 0., 0., 0., 0., 0., 0., 0., 0., 0., 0., 0., 0., 0.,
          0., 0., 0., 0., 0., 0., 0., 0., 0., 0., 0., 0., 0., 0., 0., 0.,
          0., 0., 0., 0., 0., 0., 0., 0., 0., 0., 0., 0., 0., 0., 0., 0.,
          0., 0., 0., 0., 0., 0., 0., 0., 0., 0., 0., 0., 0., 0., 0., 0.,
          0., 0., 0., 0., 0., 0., 0., 0., 0., 0., 0., 0., 0., 0., 0., 0.,
          0., 0., 0., 0., 0., 0., 0., 0., 0., 0., 0., 0., 0., 0., 0., 0.,
          0., 0., 0., 0., 0., 0., 0., 0., 0., 0., 0., 0., 0., 0., 0., 0.,
          0., 0., 0., 0., 0., 0., 0., 0., 0., 0., 0., 0., 0., 0., 0., 0.,
          0., 0., 0., 0., 0., 0., 0., 0., 0., 0., 0., 0., 0., 0., 0., 0.,
          0., 0., 0., 0., 0., 0., 0., 0., 0., 0., 0., 0., 0., 0., 0., 0.,
          0., 0., 0., 0., 0., 0., 0., 0., 0., 0., 0., 0., 0., 0., 0., 0.,
          0., 0., 0., 0., 0., 0., 0., 0., 0., 0., 0., 0., 0., 0., 0., 0.,
          0., 0., 0., 0., 0., 0., 0., 0., 0., 0., 0., 0., 0., 0., 0., 0.,
          0., 0., 0., 0., 0., 0., 0., 0., 0., 0., 0., 0., 0., 0., 0., 0.,
          0., 0., 0., 0., 0., 0., 0., 0., 0., 0., 0., 0., 0., 0., 0., 0.,
          0., 0., 0., 0., 0., 0., 0., 0., 0., 0., 0., 0., 0., 0., 0., 0.,
          0., 0., 0., 0., 0., 0., 0., 0., 0., 0., 0., 0., 0., 0., 0., 0.,
          0., 0., 0., 0., 0., 0., -2.61236119e-006, -1.57644936e-005,
          -1.57644936e-005, -1.57644936e-005, -1.57644936e-005,
          -1.57644936e-005, -1.57644936e-005, -1.57644936e-005,
          -1.57644936e-005, -1.28823085e-005, -1.28823085e-005, 0., 0.,
          0., 0., 0., 0., 0., 0., 0., 0., 0., 0., 0., 0., 0., 0., 0., 0.,
          0., 0., 0., 0., 0., 0., 0., 0., 0., 0., 0., 0., 0., 0., 0., 0.,
          0., 0., 0., -2.61236119e-006, -1.57644936e-005,
          -1.57644936e-005, -1.57644936e-005, -1.57644936e-005,
          -1.57644936e-005, -1.57644936e-005, -1.57644936e-005,
          -1.57644936e-005, -1.57644936e-005, -1.57644936e-005,
          -3.73443145e-005, -3.73443145e-005, -3.73443145e-005,
          -1.28823085e-005, 0., 0., 0., 0., 0., 0., 0., 0., 0., 0., 0.,
          0., 0., 0., 0., 0., 0., 0., 0., 0., 0., 0., 0., 0., 0., 0., 0.,
          0., 0., 0., 0., 0., 0., 0., -2.88218530e-006, -1.57644936e-005,
          -1.57644936e-005, -1.57644936e-005, -1.57644936e-005,
          -1.57644936e-005, -1.57644936e-005, -1.57644936e-005,
          -1.57644936e-005, -1.57644936e-005, -1.57644936e-005,
          -3.73443145e-005, -3.73443145e-005, -3.73443145e-005,
          -3.73443145e-005, -3.73443145e-005, -1.28823085e-005, 0., 0.,
          0., 0., 0., 0., 0., 0., 0., 0., 0., 0., 0., 0., 0., 0., 0., 0.,
          0., 0., 0., 0., 0., 0., 0., 0., 0., 0., 0., 0., 0., 0.,
          -2.61236119e-006, -2.88218530e-006, -1.57644936e-005,
          -1.57644936e-005, -1.57644936e-005, -1.57644936e-005,
          -1.57644936e-005, -1.57644936e-005, -1.57644936e-005,
          -1.57644936e-005, -1.57644936e-005, -3.73443145e-005,
          -3.73443145e-005, -3.73443145e-005, -3.73443145e-005,
          -3.73443145e-005, -3.73443145e-005, -1.57644936e-005, 0., 0.,
          0., 0., 0., 0., 0., 0., 0., 0., 0., 0., 0., 0., 0., 0., 0., 0.,
          0., 0., 0., 0., 0., 0., 0., 0., 0., 0., 0., 0., 0.,
          -2.61236119e-006, -2.88218530e-006, -1.57644936e-005,
          -1.57644936e-005, -1.57644936e-005, -1.57644936e-005,
          -1.57644936e-005, -1.31521329e-005, -2.69824113e-007, 0., 0.,
          -2.41921807e-005, -2.44620041e-005, -3.73443145e-005,
          -3.73443145e-005, -3.73443145e-005, -3.73443145e-005,
          -3.73443145e-005, -1.57644936e-005, -1.57644936e-005, 0., 0.,
          0., 0., 0., 0., 0., 0., 0., 0., 0., 0., 0., 0., 0., 0., 0., 0.,
          0., 0., 0., 0., 0., 0., 0., 0., 0., 0., 0., -2.61236119e-006,
          -2.88218530e-006, -1.57644936e-005, -1.57644936e-005,
          -1.57644936e-005, -1.57644936e-005, -1.57644936e-005,
          -1.28823085e-005, 0., 0., 0., 0., -2.15798191e-005,
          -2.15798191e-005, -2.15798191e-005, -2.44620041e-005,
          -3.73443145e-005, -3.73443145e-005, -1.57644936e-005,
          -1.57644936e-005, -1.57644936e-005, -1.28823085e-005, 0., 0.,
          0., 0., 0., 0., 0., 0., 0., 0., 0., 0., 0., 0., 0., 0., 0., 0.,
          0., 0., 0., 0., 0., 0., 0., 0., 0., 0., -2.61236119e-006,
          -2.88218530e-006, -1.57644936e-005, -1.57644936e-005,
          -1.57644936e-005, -1.57644936e-005, -1.28823085e-005, 0., 0.,
          0., 0., -2.15798191e-005, -2.15798191e-005, -2.15798191e-005,
          -2.15798191e-005, -2.15798191e-005, -2.44620041e-005,
          -3.73443145e-005, -1.57644936e-005, -1.57644936e-005,
          -1.57644936e-005, -1.57644936e-005, 0., 0., 0., 0., 0., 0., 0.,
          0., 0., 0., 0., 0., 0., 0., 0., 0., 0., 0., 0., 0., 0., 0., 0.,
          0., 0., 0., 0., -2.61236119e-006, -2.88218530e-006,
          -2.88218530e-006, -1.57644936e-005, -1.57644936e-005,
          -1.57644936e-005, -1.31521329e-005, -1.28823085e-005, 0., 0.,
          0., 0., -2.15798191e-005, -2.15798191e-005, -2.15798191e-005,
          -2.15798191e-005, -2.15798191e-005, -2.41921807e-005,
          -3.73443145e-005, -1.57644936e-005, -1.57644936e-005,
          -1.57644936e-005, -1.57644936e-005, 0., 0., 0., 0., 0., 0., 0.,
          0., 0., 0., 0., 0., 0., 0., 0., 0., 0., 0., 0., 0., 0., 0., 0.,
          0., 0., 0., 0., -2.61236119e-006, -2.88218530e-006,
          -1.57644936e-005, -1.57644936e-005, -1.57644936e-005,
          -1.57644936e-005, -1.31521329e-005, -1.28823085e-005, 0., 0.,
          0., -2.15798191e-005, -2.15798191e-005, -2.15798191e-005,
          -2.15798191e-005, -2.15798191e-005, -2.15798191e-005,
          -2.15798191e-005, -3.73443145e-005, -1.57644936e-005,
          -1.57644936e-005, -1.57644936e-005, -1.57644936e-005, 0., 0.,
          0., 0., 0., 0., 0., 0., 0., 0., 0., 0., 0., 0., 0., 0., 0., 0.,
          0., 0., 0., 0., 0., 0., 0., 0., 0., -2.61236119e-006,
          -2.88218530e-006, -1.57644936e-005, -1.57644936e-005,
          -1.57644936e-005, -1.57644936e-005, -1.31521329e-005,
          -1.28823085e-005, 0., 0., -2.15798191e-005, -2.15798191e-005,
          -2.15798191e-005, -2.15798191e-005, -2.15798191e-005,
          -2.15798191e-005, -2.15798191e-005, -2.15798191e-005,
          -3.73443145e-005, -1.57644936e-005, -1.57644936e-005,
          -1.57644936e-005, -1.57644936e-005, 0., 0., 0., 0., 0., 0., 0.,
          0., 0., 0., 0., 0., 0., 0., 0., 0., 0., 0., 0., 0., 0., 0., 0.,
          0., 0., 0., 0., 0., -2.88218530e-006, -2.88218530e-006,
          -1.57644936e-005, -1.57644936e-005, -1.31521329e-005,
          -1.28823085e-005, 0., 0., -2.15798191e-005, -2.15798191e-005,
          -2.15798191e-005, -2.15798191e-005, 0., 0., -2.15798191e-005,
          -2.15798191e-005, -2.41921807e-005, -3.73443145e-005,
          -1.57644936e-005, -1.57644936e-005, -1.57644936e-005,
          -1.57644936e-005, 0., 0., 0., 0., 0., 0., 0., 0., 0., 0., 0.,
          0., 0., 0., 0., 0., 0., 0., 0., 0., 0., 0., 0., 0., 0., 0., 0.,
          0., 0., -2.69824113e-007, -2.69824113e-007, -1.31521329e-005,
          -1.28823085e-005, 0., 0., -2.15798191e-005, -2.15798191e-005,
          -2.15798191e-005, -2.15798191e-005, 0., 0., 0.,
          -2.15798191e-005, -2.15798191e-005, -2.44620041e-005,
          -3.73443145e-005, -1.57644936e-005, -1.57644936e-005,
          -1.57644936e-005, 0., 0., 0., 0., 0., 0., 0., 0., 0., 0., 0.,
          0., 0., 0., 0., 0., 0., 0., 0., 0., 0., 0., 0., 0., 0., 0., 0.,
          0., 0., 0., 0., 0., 0., 0., 0., -2.15798191e-005,
          -2.15798191e-005, -2.15798191e-005, -2.15798191e-005, 0., 0.,
          0., 0., -2.41921807e-005, -2.44620041e-005, -3.73443145e-005,
          -3.73443145e-005, -1.57644936e-005, -1.31521329e-005,
          -1.28823085e-005, 0., 0., 0., 0., 0., 0., 0., 0., 0., 0., 0.,
          0., 0., 0., 0., 0., 0., 0., 0., 0., 0., 0., 0., 0., 0., 0., 0.,
          0., 0., 0., 0., 0., 0., 0., -2.15798191e-005, -2.15798191e-005,
          -2.15798191e-005, -2.44620041e-005, -2.44620041e-005,
          -1.57644936e-005, -1.57644936e-005, -1.57644936e-005,
          -1.57644936e-005, -3.73443145e-005, -3.73443145e-005,
          -3.73443145e-005, -3.73443145e-005, -1.57644936e-005,
          -1.28823085e-005, 0., 0., 0., 0., 0., 0., 0., 0., 0., 0., 0.,
          0., 0., 0., 0., 0., 0., 0., 0., 0., 0., 0., 0., 0., 0., 0., 0.,
          0., 0., 0., 0., 0., 0., 0., -2.15798191e-005, -2.15798191e-005,
          -2.15798191e-005, -2.41921807e-005, -2.44620041e-005,
          -1.57644936e-005, -1.57644936e-005, -1.57644936e-005,
          -1.57644936e-005, -1.57644936e-005, -3.73443145e-005,
          -3.73443145e-005, -3.73443145e-005, -3.73443145e-005,
          -1.31521329e-005, 0., 0., 0., 0., 0., 0., 0., 0., 0., 0., 0.,
          0., 0., 0., 0., 0., 0., 0., 0., 0., 0., 0., 0., 0., 0., 0., 0.,
          0., 0., 0., 0., 0., 0., 0., 0., -2.15798191e-005,
          -2.15798191e-005, -2.15798191e-005, -2.41921807e-005,
          -2.44620041e-005, -1.57644936e-005, -1.57644936e-005,
          -1.57644936e-005, -1.57644936e-005, -1.57644936e-005,
          -3.73443145e-005, -3.73443145e-005, -3.73443145e-005,
          -3.73443145e-005, -3.73443145e-005, 0., 0., 0., 0., 0., 0., 0.,
          0., 0., 0., 0., 0., 0., 0., 0., 0., 0., 0., 0., 0., 0., 0., 0.,
          0., 0., 0., 0., 0., 0., 0., 0., 0., 0., 0., -2.15798191e-005,
          -2.15798191e-005, -2.15798191e-005, -2.15798191e-005,
          -2.15798191e-005, -2.88218530e-006, -1.57644936e-005,
          -1.57644936e-005, -1.57644936e-005, -1.57644936e-005,
          -1.57644936e-005, -3.73443145e-005, -3.73443145e-005,
          -3.73443145e-005, -3.73443145e-005, -1.57644936e-005,
          -1.57644936e-005, 0., 0., 0., 0., 0., 0., 0., 0., 0., 0., 0.,
          0., 0., 0., 0., 0., 0., 0., 0., 0., 0., 0., 0., 0., 0., 0., 0.,
          0., 0., 0., 0., 0., 0., -2.15798191e-005, -2.15798191e-005,
          -2.15798191e-005, -2.15798191e-005, 0., 0., -1.31521329e-005,
          -1.31521329e-005, -1.31521329e-005, -1.28823085e-005,
          -1.28823085e-005, -3.47319510e-005, -3.73443145e-005,
          -3.73443145e-005, -3.73443145e-005, -1.57644936e-005,
          -1.57644936e-005, -1.57644936e-005, 0., 0., 0., 0., 0., 0., 0.,
          0., 0., 0., 0., 0., 0., 0., 0., 0., 0., 0., 0., 0., 0., 0., 0.,
          0., 0., 0., 0., 0., 0., 0., 0., -2.15798191e-005,
          -2.15798191e-005, -2.15798191e-005, -2.15798191e-005, 0., 0.,
          0., 0., 0., 0., 0., 0., -2.15798191e-005, -2.15798191e-005,
          -3.73443145e-005, -3.73443145e-005, -1.57644936e-005,
          -1.57644936e-005, -1.57644936e-005, -1.57644936e-005, 0., 0.,
          0., 0., 0., 0., 0., 0., 0., 0., 0., 0., 0., 0., 0., 0., 0., 0.,
          0., 0., 0., 0., 0., 0., 0., 0., 0., 0., -2.15798191e-005,
          -2.15798191e-005, -2.15798191e-005, -2.15798191e-005,
          -2.15798191e-005, 0., 0., 0., 0., 0., 0., 0., 0., 0.,
          -2.15798191e-005, -2.15798191e-005, -2.15798191e-005,
          -3.73443145e-005, -1.57644936e-005, -1.57644936e-005,
          -1.57644936e-005, -1.57644936e-005, -2.61236119e-006, 0., 0.,
          0., 0., 0., 0., 0., 0., 0., 0., 0., 0., 0., 0., 0., 0., 0., 0.,
          0., 0., 0., 0., 0., 0., 0., 0., 0., -2.41921807e-005,
          -2.41921807e-005, -2.41921807e-005, -2.15798191e-005,
          -2.15798191e-005, -2.15798191e-005, 0., 0., 0., 0., 0., 0., 0.,
          0., -2.15798191e-005, -2.15798191e-005, -2.15798191e-005,
          -2.41921807e-005, -3.73443145e-005, -1.57644936e-005,
          -1.57644936e-005, -1.57644936e-005, -1.57644936e-005, 0., 0.,
          0., 0., 0., 0., 0., 0., 0., 0., 0., 0., 0., 0., 0., 0., 0., 0.,
          0., 0., 0., 0., 0., 0., 0., 0., -2.41921807e-005,
          -2.44620041e-005, -2.44620041e-005, -3.73443145e-005,
          -3.73443145e-005, -2.15798191e-005, -2.15798191e-005,
          -2.15798191e-005, -2.15798191e-005, -2.15798191e-005,
          -2.15798191e-005, -2.15798191e-005, -2.15798191e-005,
          -2.15798191e-005, -2.15798191e-005, -2.15798191e-005,
          -2.15798191e-005, -2.15798191e-005, -2.15798191e-005,
          -3.73443145e-005, -3.73443145e-005, -3.73443145e-005,
          -3.73443145e-005, -3.73443145e-005, 0., 0., 0., 0., 0., 0., 0.,
          0., 0., 0., 0., 0., 0., 0., 0., 0., 0., 0., 0., 0., 0., 0., 0.,
          0., 0., 0., -2.44620041e-005, -2.44620041e-005,
          -3.73443145e-005, -3.73443145e-005, -3.73443145e-005,
          -3.47319510e-005, -3.44621294e-005, -2.15798191e-005,
          -2.15798191e-005, -2.15798191e-005, -2.15798191e-005,
          -2.15798191e-005, -2.15798191e-005, -2.15798191e-005,
          -2.15798191e-005, -2.15798191e-005, -2.15798191e-005,
          -2.15798191e-005, -2.15798191e-005, -3.73443145e-005,
          -3.73443145e-005, -3.73443145e-005, -3.73443145e-005,
          -3.73443145e-005, 0., 0., 0., 0., 0., 0., 0., 0., 0., 0., 0.,
          0., 0., 0., 0., 0., 0., 0., 0., 0., 0., 0., 0., 0., 0., 0.,
          -2.44620041e-005, -3.73443145e-005, -3.73443145e-005,
          -3.73443145e-005, -3.73443145e-005, -3.73443145e-005,
          -3.44621294e-005, -2.15798191e-005, -2.15798191e-005,
          -2.15798191e-005, -2.15798191e-005, -2.15798191e-005,
          -2.15798191e-005, -2.15798191e-005, -2.15798191e-005,
          -2.15798191e-005, -2.15798191e-005, -2.15798191e-005,
          -2.41921807e-005, -3.73443145e-005, -3.73443145e-005,
          -3.73443145e-005, -3.73443145e-005, -3.73443145e-005, 0., 0.,
          0., 0., 0., 0., 0., 0., 0., 0., 0., 0., 0., 0., 0., 0., 0., 0.,
          0., 0., 0., 0., 0., 0., 0., 0., -2.88218530e-006,
          -3.73443145e-005, -3.73443145e-005, -3.73443145e-005,
          -3.73443145e-005, -3.73443145e-005, -3.44621294e-005,
          -2.15798191e-005, -2.15798191e-005, -2.15798191e-005,
          -2.15798191e-005, -2.15798191e-005, -2.15798191e-005,
          -2.15798191e-005, -2.15798191e-005, -2.15798191e-005,
          -2.15798191e-005, -2.15798191e-005, -2.44620041e-005,
          -3.73443145e-005, -3.73443145e-005, -1.57644936e-005,
          -1.57644936e-005, -1.57644936e-005, 0., 0., 0., 0., 0., 0., 0.,
          0., 0., 0., 0., 0., 0., 0., 0., 0., 0., 0., 0., 0., 0., 0., 0.,
          0., 0., 0., -2.61236119e-006, -2.88218530e-006,
          -1.57644936e-005, -1.57644936e-005, -1.57644936e-005,
          -1.57644936e-005, -1.57644936e-005, 0., 0., 0., 0., 0., 0., 0.,
          0., -2.15798191e-005, -2.15798191e-005, -2.41921807e-005,
          -2.44620041e-005, -1.57644936e-005, -1.57644936e-005,
          -1.57644936e-005, -1.57644936e-005, -1.28823085e-005, 0., 0.,
          0., 0., 0., 0., 0., 0., 0., 0., 0., 0., 0., 0., 0., 0., 0., 0.,
          0., 0., 0., 0., 0., 0., 0., 0., 0., -2.88218530e-006,
          -1.57644936e-005, -1.57644936e-005, -1.57644936e-005,
          -1.57644936e-005, -1.57644936e-005, -1.54946702e-005, 0., 0.,
          0., 0., 0., 0., 0., -2.15798191e-005, -2.41921807e-005,
          -2.44620041e-005, -3.73443145e-005, -1.57644936e-005,
          -1.57644936e-005, -1.57644936e-005, -1.57644936e-005, 0., 0.,
          0., 0., 0., 0., 0., 0., 0., 0., 0., 0., 0., 0., 0., 0., 0., 0.,
          0., 0., 0., 0., 0., 0., 0., 0., 0., 0., 0., -2.88218530e-006,
          -1.57644936e-005, -1.57644936e-005, -1.57644936e-005,
          -1.57644936e-005, -1.57644936e-005, -2.88218530e-006,
          -2.61236119e-006, -2.61236119e-006, -2.61236119e-006,
          -2.61236119e-006, -2.61236119e-006, -2.61236119e-006,
          -2.44620041e-005, -2.44620041e-005, -3.73443145e-005,
          -3.73443145e-005, -1.57644936e-005, -1.57644936e-005,
          -1.57644936e-005, -1.28823085e-005, 0., 0., 0., 0., 0., 0., 0.,
          0., 0., 0., 0., 0., 0., 0., 0., 0., 0., 0., 0., 0., 0., 0., 0.,
          0., 0., 0., 0., 0., 0., -2.69824113e-007, -1.57644936e-005,
          -1.57644936e-005, -1.57644936e-005, -1.57644936e-005,
          -1.57644936e-005, -1.57644936e-005, -2.88218530e-006,
          -2.88218530e-006, -2.88218530e-006, -2.88218530e-006,
          -2.88218530e-006, -2.44620041e-005, -2.44620041e-005,
          -3.73443145e-005, -3.73443145e-005, -3.73443145e-005,
          -1.57644936e-005, -1.57644936e-005, -1.31521329e-005,
          -1.28823085e-005, 0., 0., 0., 0., 0., 0., 0., 0., 0., 0., 0.,
          0., 0., 0., 0., 0., 0., 0., 0., 0., 0., 0., 0., 0., 0., 0., 0.,
          0., 0., 0., -2.69824113e-007, -1.57644936e-005,
          -1.57644936e-005, -1.57644936e-005, -1.57644936e-005,
          -1.57644936e-005, -1.57644936e-005, -1.57644936e-005,
          -1.57644936e-005, -1.57644936e-005, -1.57644936e-005,
          -3.73443145e-005, -3.73443145e-005, -3.73443145e-005,
          -3.73443145e-005, -3.73443145e-005, -1.57644936e-005,
          -1.31521329e-005, -1.28823085e-005, 0., 0., 0., 0., 0., 0., 0.,
          0., 0., 0., 0., 0., 0., 0., 0., 0., 0., 0., 0., 0., 0., 0., 0.,
          0., 0., 0., 0., 0., 0., 0., 0., 0., -1.31521329e-005,
          -1.57644936e-005, -1.57644936e-005, -1.57644936e-005,
          -1.57644936e-005, -1.57644936e-005, -1.57644936e-005,
          -1.57644936e-005, -1.57644936e-005, -1.57644936e-005,
          -3.73443145e-005, -3.73443145e-005, -3.73443145e-005,
          -3.73443145e-005, -3.47319510e-005, -1.31521329e-005,
          -1.28823085e-005, 0., 0., 0., 0., 0., 0., 0., 0., 0., 0., 0.,
          0., 0., 0., 0., 0., 0., 0., 0., 0., 0., 0., 0., 0., 0., 0., 0.,
          0., 0., 0., 0., 0., 0., 0., -1.28823085e-005, -1.31521329e-005,
          -1.31521329e-005, -1.57644936e-005, -1.57644936e-005,
          -1.57644936e-005, -1.57644936e-005, -1.57644936e-005,
          -1.57644936e-005, -3.73443145e-005, -3.73443145e-005,
          -3.47319510e-005, -3.47319510e-005, -3.44621294e-005,
          -1.28823085e-005, 0., 0., 0., 0., 0., 0., 0., 0., 0., 0., 0.,
          0., 0., 0., 0., 0., 0., 0., 0., 0., 0., 0., 0., 0., 0., 0., 0.,
          0., 0., 0., 0., 0., 0., 0., 0., 0., 0., -1.28823085e-005,
          -1.28823085e-005, -1.28823085e-005, -1.28823085e-005,
          -1.28823085e-005, -1.28823085e-005, -1.28823085e-005,
          -1.28823085e-005, -1.28823085e-005, -1.28823085e-005, 0., 0.,
          0., 0., 0., 0., 0., 0., 0., 0., 0., 0., 0., 0., 0., 0., 0., 0.,
          0., 0., 0., 0., 0., 0., 0., 0., 0., 0., 0., 0., 0., 0., 0., 0.,
          0., 0., 0., 0., 0., 0., 0., 0., 0., 0., 0., 0., 0., 0., 0., 0.,
          0., 0., 0., 0., 0., 0., 0., 0., 0., 0., 0., 0., 0., 0., 0., 0.,
          0., 0., 0., 0., 0., 0., 0., 0., 0., 0., 0., 0., 0., 0., 0., 0.,
          0., 0., 0., 0., 0., 0., 0., 0., 0., 0., 0., 0., 0., 0., 0., 0.,
          0., 0., 0., 0., 0., 0., 0., 0., 0., 0., 0., 0., 0., 0., 0., 0.,
          0., 0., 0., 0., 0., 0., 0., 0., 0., 0., 0., 0., 0., 0., 0., 0.,
          0., 0., 0., 0., 0., 0., 0., 0., 0., 0., 0., 0., 0., 0., 0., 0.,
          0., 0., 0., 0., 0., 0., 0., 0., 0., 0., 0., 0., 0., 0., 0., 0.,
          0., 0., 0., 0., 0., 0., 0., 0., 0., 0., 0., 0., 0., 0., 0., 0.,
          0., 0., 0., 0., 0., 0., 0., 0., 0., 0., 0., 0., 0., 0., 0., 0.,
          0., 0., 0., 0., 0., 0., 0., 0., 0., 0., 0., 0., 0., 0., 0., 0.,
          0., 0., 0., 0., 0., 0., 0., 0., 0., 0., 0., 0., 0., 0., 0., 0.,
          0., 0., 0., 0., 0., 0., 0., 0., 0., 0., 0., 0., 0., 0., 0., 0.,
          0., 0., 0., 0., 0., 0., 0., 0., 0., 0., 0., 0., 0., 0., 0., 0.,
          0., 0., 0., 0., 0., 0., 0., 0., 0., 0., 0., 0., 0., 0., 0., 0.,
          0., 0., 0., 0., 0., 0., 0., 0., 0., 0., 0., 0., 0., 0., 0., 0.,
          0., 0., 0., 0., 0., 0., 0., 0., 0., 0., 0., 0., 0., 0., 0., 0.,
          0., 0., 0., 0., 0., 0., 0., 0., 0., 0., 0., 0., 0., 0., 0., 0.,
          0., 0., 0., 0., 0., 0., 0., 0., 0., 0., 0., 0., 0., 0., 0., 0.,
          0., 0., 0., 0., 0., 0., 0., 0., 0., 0., 0., 0., 0., 0., 0., 0.,
          0., 0., 0., 0., 0., 0., 0., 0., 0., 0., 0., 0., 0., 0., 0., 0.,
          0., 0., 0., 0., 0., 0., 0., 0., 0., 0., 0., 0., 0., 0., 0., 0.,
          0., 0., 0., 0., 0., 0., 0., 0., 0., 0., 0., 0., 0., 0., 0., 0.,
          0., 0., 0., 0., 0., 0., 0., 0., 0., 0., 0., 0., 0., 0., 0., 0.,
          0., 0. ]
      - [ 0., 0., 0., 0., 0., 0., 0., 0., 0., 0., 0., 0., 0., 0., 0., 0.,
          0., 0., 0., 0., 0., 0., 0., 0., 0., 0., 0., 0., 0., 0., 0., 0.,
          0., 0., 0., 0., 0., 0., 0., 0., 0., 0., 0., 0., 0., 0., 0., 0.,
          0., 0., 0., 0., 0., 0., 0., 0., 0., 0., 0., 0., 0., 0., 0., 0.,
          0., 0., 0., 0., 0., 0., 0., 0., 0., 0., 0., 0., 0., 0., 0., 0.,
          0., 0., 0., 0., 0., 0., 0., 0., 0., 0., 0., 0., 0., 0., 0., 0.,
          0., 0., 0., 0., 0., 0., 0., 0., 0., 0., 0., 0., 0., 0., 0., 0.,
          0., 0., 0., 0., 0., 0., 0., 0., 0., 0., 0., 0., 0., 0., 0., 0.,
          0., 0., 0., 0., 0., 0., 0., 0., 0., 0., 0., 0., 0., 0., 0., 0.,
          0., 0., 0., 0., 0., 0., 0., 0., 0., 0., 0., 0., 0., 0., 0., 0.,
          0., 0., 0., 0., 0., 0., 0., 0., 0., 0., 0., 0., 0., 0., 0., 0.,
          0., 0., 0., 0., 0., 0., 0., 0., 0., 0., 0., 0., 0., 0., 0., 0.,
          0., 0., 0., 0., 0., 0., 0., 0., 0., 0., 0., 0., 0., 0., 0., 0.,
          0., 0., 0., 0., 0., 0., 0., 0., 0., 0., 0., 0., 0., 0., 0., 0.,
          0., 0., 0., 0., 0., 0., 0., 0., 0., 0., 0., 0., 0., 0., 0., 0.,
          0., 0., 0., 0., 0., 0., 0., 0., 0., 0., 0., 0., 0., 0., 0., 0.,
          0., 0., 0., 0., 0., 0., 0., 0., 0., 0., 0., 0., 0., 0., 0., 0.,
          0., 0., 0., 0., 0., 0., 0., 0., 0., 0., 0., 0., 0., 0., 0., 0.,
          0., 0., 0., 0., 0., 0., 0., 0., 0., 0., 0., 0., 0., 0., 0., 0.,
          0., 0., 0., 0., 0., 0., 0., 0., 0., 0., 0., 0., 0., 0., 0., 0.,
          0., 0., 0., 0., 0., 0., 0., 0., 0., 0., 0., 0., 0., 0., 0., 0.,
          0., 0., 0., 0., 0., 0., 0., 0., 0., 0., 0., 0., 0., 0., 0., 0.,
          0., 0., 0., 0., 0., 0., 0., 0., 0., 0., 0., 0., 0., 0., 0., 0.,
          0., 0., 0., 0., 0., 0., 0., 0., 0., 0., 0., 0., 0., 0., 0., 0.,
          0., 0., 0., 0., 0., 0., 0., 0., 0., 0., 0., 0., 0., 0., 0., 0.,
          0., 0., 0., 0., 0., 0., 0., 0., 0., 0., 0., 0., 0., 0., 0., 0.,
          0., 0., 0., 0., 0., 0., 0., 0., 0., 0., 0., 0.,
          -1.20109362e-005, -1.20109362e-005, -1.20109362e-005, 0., 0.,
          0., 0., 0., 0., 0., 0., 0., 0., 0., 0., 0., 0., 0., 0., 0., 0.,
          0., 0., 0., 0., 0., 0., 0., 0., 0., 0., 0., 0., 0., 0., 0., 0.,
          0., 0., 0., 0., 0., 0., 0., 0., 0., 0., 0., 0.,
          -1.20109362e-005, -1.20109362e-005, -1.20109362e-005,
          -1.20109362e-005, -1.20109362e-005, 0., 0., 0., 0., 0., 0., 0.,
          0., 0., 0., 0., 0., 0., 0., 0., 0., 0., 0., 0., 0., 0., 0., 0.,
          0., 0., 0., 0., 0., 0., 0., 0., 0., 0., 0., 0., 0., 0., 0., 0.,
          0., 0., 0., 0., 0., -1.20109362e-005, -1.20109362e-005,
          -1.20109362e-005, -2.94461497e-005, -2.94461497e-005,
          -2.94461497e-005, 0., 0., 0., 0., 0., 0., 0., 0., 0., 0., 0.,
          0., 0., 0., 0., 0., 0., 0., 0., 0., 0., 0., 0., 0., 0., 0., 0.,
          0., 0., 0., 0., 0., 0., 0., 0., 0., 0., 0., 0., 0., 0., 0., 0.,
          0., -1.20109362e-005, -1.20109362e-005, -2.94461497e-005,
          -2.94461497e-005, -2.94461497e-005, -2.94461497e-005,
          -1.74352153e-005, 0., 0., 0., 0., 0., 0., 0., 0., 0., 0., 0.,
          0., 0., 0., 0., 0., 0., 0., 0., 0., 0., 0., 0., 0., 0., 0., 0.,
          0., 0., 0., 0., 0., 0., 0., 0., 0., 0., 0., 0., 0., 0., 0.,
          -1.20109362e-005, -1.20109362e-005, -2.94461497e-005,
          -2.94461497e-005, -2.94461497e-005, -2.94461497e-005,
          -2.94461497e-005, -1.74352153e-005, 0., 0., 0., 0., 0., 0., 0.,
          0., 0., 0., 0., 0., 0., 0., 0., 0., 0., 0., 0., 0., 0., 0., 0.,
          0., 0., 0., 0., 0., 0., 0., 0., 0., 0., 0., 0., 0., 0., 0., 0.,
          0., 0., 0., -1.20109362e-005, -2.94461497e-005,
          -2.94461497e-005, -2.94461497e-005, -2.94461497e-005,
          -2.94461497e-005, -2.94461497e-005, -1.74352153e-005, 0., 0.,
          0., 0., 0., 0., 0., 0., 0., 0., 0., 0., 0., 0., 0., 0., 0., 0.,
          0., 0., 0., 0., 0., 0., 0., 0., 0., 0., 0., 0., 0., 0., 0., 0.,
          0., 0., 0., 0., 0., 0., 0., -1.20109362e-005, -1.20109362e-005,
          -2.94461497e-005, -2.94461497e-005, -2.94461497e-005,
          -2.94461497e-005, -2.94461497e-005, -1.74352153e-005, 0., 0.,
          0., 0., 0., 0., 0., 0., 0., 0., 0., 0., 0., 0., 0., 0., 0., 0.,
          0., 0., 0., 0., 0., 0., 0., 0., 0., 0., 0., 0., 0., 0., 0., 0.,
          0., 0., 0., 0., 0., 0., 0., -1.20109362e-005, -1.20109362e-005,
          -2.94461497e-005, -2.94461497e-005, -2.94461497e-005,
          -2.94461497e-005, -2.94461497e-005, -2.94461497e-005,
          -1.74352153e-005, 0., 0., 0., 0., 0., 0., 0., 0., 0., 0., 0.,
          0., 0., 0., 0., 0., 0., 0., 0., 0., 0., 0., 0., 0., 0., 0., 0.,
          0., 0., 0., 0., 0., 0., 0., 0., 0., 0., 0., 0., 0., 0.,
          -1.20109362e-005, -1.20109362e-005, -2.94461497e-005,
          -2.94461497e-005, -2.94461497e-005, -2.94461497e-005,
          -2.94461497e-005, -2.94461497e-005, -1.74352153e-005, 0., 0.,
          0., 0., 0., 0., 0., 0., 0., 0., 0., 0., 0., 0., 0., 0., 0., 0.,
          0., 0., 0., 0., 0., 0., 0., 0., 0., 0., 0., 0., 0., 0., 0., 0.,
          0., 0., 0., 0., 0., 0., -1.20109362e-005, -1.20109362e-005,
          -2.94461497e-005, -2.94461497e-005, -2.94461497e-005,
          -2.94461497e-005, -2.94461497e-005, -2.94461497e-005,
          -2.94461497e-005, -1.74352153e-005, 0., 0., 0., 0., 0., 0., 0.,
          0., 0., 0., 0., 0., 0., 0., 0., 0., 0., 0., 0., 0., 0., 0., 0.,
          0., 0., 0., 0., 0., 0., 0., 0., 0., 0., 0., 0., 0., 0., 0., 0.,
          -1.20109362e-005, -1.20109362e-005, -2.94461497e-005,
          -2.94461497e-005, -1.74352153e-005, -1.74352153e-005,
          -1.74352153e-005, -2.94461497e-005, -2.94461497e-005,
          -2.94461497e-005, -1.74352153e-005, 0., 0., 0., 0., 0., 0., 0.,
          0., 0., 0., 0., 0., 0., 0., 0., 0., 0., 0., 0., 0., 0., 0., 0.,
          0., 0., 0., 0., 0., 0., 0., 0., 0., 0., 0., 0., 0., 0., 0.,
          -1.20109362e-005, -1.20109362e-005, -2.94461497e-005,
          -2.94461497e-005, -2.94461497e-005, -1.74352153e-005, 0., 0.,
          -2.94461497e-005, -2.94461497e-005, -2.94461497e-005,
          -2.94461497e-005, 0., 0., 0., 0., 0., 0., 0., 0., 0., 0., 0.,
          0., 0., 0., 0., 0., 0., 0., 0., 0., 0., 0., 0., 0., 0., 0., 0.,
          0., 0., 0., 0., 0., 0., 0., 0., 0., 0., -1.20109362e-005,
          -1.20109362e-005, -2.94461497e-005, -2.94461497e-005,
          -2.94461497e-005, -1.74352153e-005, 0., 0., 0.,
          -2.94461497e-005, -2.94461497e-005, -2.94461497e-005,
          -2.94461497e-005, 0., 0., 0., 0., 0., 0., 0., 0., 0., 0., 0.,
          0., 0., 0., 0., 0., 0., 0., 0., 0., 0., 0., 0., 0., 0., 0., 0.,
          0., 0., 0., 0., 0., 0., 0., 0., 0., 0., -1.20109362e-005,
          -2.94461497e-005, -2.94461497e-005, -2.94461497e-005,
          -2.94461497e-005, 0., 0., 0., 0., -2.94461497e-005,
          -2.94461497e-005, -2.94461497e-005, -2.94461497e-005, 0., 0.,
          0., 0., 0., 0., 0., 0., 0., 0., 0., 0., 0., 0., 0., 0., 0., 0.,
          0., 0., 0., 0., 0., 0., 0., 0., 0., 0., 0., 0., 0., 0., 0., 0.,
          0., 0., -1.20109362e-005, -2.94461497e-005, -2.94461497e-005,
          -2.94461497e-005, -2.94461497e-005, -1.74352153e-005, 0., 0.,
          0., 0., -2.94461497e-005, -2.94461497e-005, -2.94461497e-005,
          -2.94461497e-005, 0., 0., 0., 0., 0., 0., 0., 0., 0., 0., 0.,
          0., 0., 0., 0., 0., 0., 0., 0., 0., 0., 0., 0., 0., 0., 0., 0.,
          0., 0., 0., 0., 0., 0., 0., 0., 0., -2.94461497e-005,
          -2.94461497e-005, -2.94461497e-005, -2.94461497e-005,
          -2.94461497e-005, 0., 0., 0., 0., 0., -2.94461497e-005,
          -2.94461497e-005, -2.94461497e-005, -2.94461497e-005, 0., 0.,
          0., 0., 0., 0., 0., 0., 0., 0., 0., 0., 0., 0., 0., 0., 0., 0.,
          0., 0., 0., 0., 0., 0., 0., 0., 0., 0., 0., 0., 0., 0., 0., 0.,
          0., -1.20109362e-005, -2.94461497e-005, -2.94461497e-005,
          -2.94461497e-005, -2.94461497e-005, -1.74352153e-005, 0., 0.,
          0., 0., 0., -2.94461497e-005, -2.94461497e-005,
          -2.94461497e-005, -2.94461497e-005, -1.74352153e-005, 0., 0.,
          0., 0., 0., 0., 0., 0., 0., 0., 0., 0., 0., 0., 0., 0., 0., 0.,
          0., 0., 0., 0., 0., 0., 0., 0., 0., 0., 0., 0., 0., 0., 0.,
          -1.20109362e-005, -2.94461497e-005, -2.94461497e-005,
          -2.94461497e-005, -2.94461497e-005, -1.74352153e-005, 0., 0.,
          0., 0., 0., 0., -2.94461497e-005, -2.94461497e-005,
          -2.94461497e-005, -2.94461497e-005, 0., 0., 0., 0., 0., 0., 0.,
          0., 0., 0., 0., 0., 0., 0., 0., 0., 0., 0., 0., 0., 0., 0., 0.,
          0., 0., 0., 0., 0., 0., 0., 0., 0., 0., 0., -1.20109362e-005,
          -2.94461497e-005, -2.94461497e-005, -2.94461497e-005,
          -1.74352153e-005, 0., 0., 0., 0., 0., 0., 0., -2.94461497e-005,
          -2.94461497e-005, -2.94461497e-005, -1.74352153e-005, 0., 0.,
          0., 0., 0., 0., 0., 0., 0., 0., 0., 0., 0., 0., 0., 0., 0., 0.,
          0., 0., 0., 0., 0., 0., 0., 0., 0., 0., 0., 0., 0., 0., 0.,
          -1.20109362e-005, -2.94461497e-005, -2.94461497e-005,
          -2.94461497e-005, -2.94461497e-005, 0., 0., 0., 0., 0., 0., 0.,
          0., -2.94461497e-005, -2.94461497e-005, -2.94461497e-005,
          -1.74352153e-005, 0., 0., 0., 0., 0., 0., 0., 0., 0., 0., 0.,
          0., 0., 0., 0., 0., 0., 0., 0., 0., 0., 0., 0., 0., 0., 0., 0.,
          0., 0., 0., 0., 0., -2.94461497e-005, -2.94461497e-005,
          -2.94461497e-005, -2.94461497e-005, -2.94461497e-005,
          -1.20109362e-005, 0., 0., 0., 0., 0., 0., 0., 0.,
          -2.94461497e-005, -2.94461497e-005, -2.94461497e-005,
          -2.94461497e-005, 0., 0., 0., 0., 0., 0., 0., 0., 0., 0., 0.,
          0., 0., 0., 0., 0., 0., 0., 0., 0., 0., 0., 0., 0., 0., 0., 0.,
          0., 0., 0., 0., 0., -2.94461497e-005, -2.94461497e-005,
          -2.94461497e-005, -2.94461497e-005, -2.94461497e-005,
          -2.94461497e-005, -1.20109362e-005, 0., 0., 0., 0., 0., 0.,
          -1.20109362e-005, -2.94461497e-005, -2.94461497e-005,
          -2.94461497e-005, -2.94461497e-005, -2.94461497e-005, 0., 0.,
          0., 0., 0., 0., 0., 0., 0., 0., 0., 0., 0., 0., 0., 0., 0., 0.,
          0., 0., 0., 0., 0., 0., 0., 0., 0., 0., 0., 0.,
          -1.74352153e-005, -2.94461497e-005, -2.94461497e-005,
          -2.94461497e-005, -2.94461497e-005, -2.94461497e-005,
          -2.94461497e-005, -2.94461497e-005, -2.94461497e-005,
          -2.94461497e-005, -2.94461497e-005, -2.94461497e-005,
          -2.94461497e-005, -2.94461497e-005, -2.94461497e-005,
          -2.94461497e-005, -2.94461497e-005, -2.94461497e-005,
          -2.94461497e-005, -2.94461497e-005, -2.94461497e-005,
          -2.94461497e-005, -2.94461497e-005, -1.74352153e-005, 0., 0.,
          0., 0., 0., 0., 0., 0., 0., 0., 0., 0., 0., 0., 0., 0., 0., 0.,
          0., 0., 0., 0., 0., 0., 0., 0., -1.74352153e-005,
          -2.94461497e-005, -2.94461497e-005, -2.94461497e-005,
          -2.94461497e-005, -2.94461497e-005, -2.94461497e-005,
          -2.94461497e-005, -2.94461497e-005, -2.94461497e-005,
          -2.94461497e-005, -2.94461497e-005, -2.94461497e-005,
          -2.94461497e-005, -2.94461497e-005, -2.94461497e-005,
          -2.94461497e-005, -2.94461497e-005, -2.94461497e-005,
          -2.94461497e-005, -2.94461497e-005, -2.94461497e-005,
          -2.94461497e-005, -2.94461497e-005, 0., 0., 0., 0., 0., 0., 0.,
          0., 0., 0., 0., 0., 0., 0., 0., 0., 0., 0., 0., 0., 0., 0., 0.,
          0., 0., 0., -1.74352153e-005, -2.94461497e-005,
          -2.94461497e-005, -2.94461497e-005, -2.94461497e-005,
          -2.94461497e-005, -2.94461497e-005, -2.94461497e-005,
          -2.94461497e-005, -2.94461497e-005, -2.94461497e-005,
          -2.94461497e-005, -2.94461497e-005, -2.94461497e-005,
          -2.94461497e-005, -2.94461497e-005, -2.94461497e-005,
          -2.94461497e-005, -2.94461497e-005, -2.94461497e-005,
          -2.94461497e-005, -2.94461497e-005, -2.94461497e-005,
          -1.74352153e-005, 0., 0., 0., 0., 0., 0., 0., 0., 0., 0., 0.,
          0., 0., 0., 0., 0., 0., 0., 0., 0., 0., 0., 0., 0., 0., 0., 0.,
          -1.74352153e-005, -2.94461497e-005, -2.94461497e-005,
          -2.94461497e-005, -2.94461497e-005, -2.94461497e-005,
          -2.94461497e-005, -2.94461497e-005, -2.94461497e-005,
          -1.74352153e-005, -1.74352153e-005, -1.74352153e-005,
          -1.74352153e-005, -2.94461497e-005, -2.94461497e-005,
          -2.94461497e-005, -2.94461497e-005, -2.94461497e-005,
          -2.94461497e-005, -1.74352153e-005, 0., 0., 0., 0., 0., 0., 0.,
          0., 0., 0., 0., 0., 0., 0., 0., 0., 0., 0., 0., 0., 0., 0., 0.,
          0., 0., 0., 0., 0., 0., 0., 0., 0., 0., 0., 0., 0., 0., 0., 0.,
          0., 0., 0., 0., 0., -2.94461497e-005, -2.94461497e-005,
          -2.94461497e-005, -2.94461497e-005, 0., 0., 0., 0., 0., 0., 0.,
          0., 0., 0., 0., 0., 0., 0., 0., 0., 0., 0., 0., 0., 0., 0., 0.,
          0., 0., 0., 0., 0., 0., 0., 0., 0., 0., 0., 0., 0., 0., 0., 0.,
          0., 0., 0., 0., 0., 0., 0., -2.94461497e-005, -2.94461497e-005,
          -2.94461497e-005, -2.94461497e-005, 0., 0., 0., 0., 0., 0., 0.,
          0., 0., 0., 0., 0., 0., 0., 0., 0., 0., 0., 0., 0., 0., 0., 0.,
          0., 0., 0., 0., 0., 0., 0., 0., 0., 0., 0., 0., 0., 0., 0., 0.,
          0., 0., 0., 0., 0., 0., 0., -2.94461497e-005, -2.94461497e-005,
          -2.94461497e-005, -2.94461497e-005, 0., 0., 0., 0., 0., 0., 0.,
          0., 0., 0., 0., 0., 0., 0., 0., 0., 0., 0., 0., 0., 0., 0., 0.,
          0., 0., 0., 0., 0., 0., 0., 0., 0., 0., 0., 0., 0., 0., 0., 0.,
          0., 0., 0., 0., 0., 0., -2.94461497e-005, -2.94461497e-005,
          -2.94461497e-005, -2.94461497e-005, -2.94461497e-005, 0., 0.,
          0., 0., 0., 0., 0., 0., 0., 0., 0., 0., 0., 0., 0., 0., 0., 0.,
          0., 0., 0., 0., 0., 0., 0., 0., 0., 0., 0., 0., 0., 0., 0., 0.,
          0., 0., 0., 0., 0., 0., 0., 0., 0., 0., 0., -2.94461497e-005,
          -2.94461497e-005, -2.94461497e-005, -2.94461497e-005,
          -2.94461497e-005, 0., 0., 0., 0., 0., 0., 0., 0., 0., 0., 0.,
          0., 0., 0., 0., 0., 0., 0., 0., 0., 0., 0., 0., 0., 0., 0., 0.,
          0., 0., 0., 0., 0., 0., 0., 0., 0., 0., 0., 0., 0., 0., 0., 0.,
          0., 0., -2.94461497e-005, -2.94461497e-005, -2.94461497e-005,
          -2.94461497e-005, -2.94461497e-005, 0., 0., 0., 0., 0., 0., 0.,
          0., 0., 0., 0., 0., 0., 0., 0., 0., 0., 0., 0., 0., 0., 0., 0.,
          0., 0., 0., 0., 0., 0., 0., 0., 0., 0., 0., 0., 0., 0., 0., 0.,
          0., 0., 0., 0., 0., 0., -2.94461497e-005, -2.94461497e-005,
          -2.94461497e-005, -2.94461497e-005, -2.94461497e-005, 0., 0.,
          0., 0., 0., 0., 0., 0., 0., 0., 0., 0., 0., 0., 0., 0., 0., 0.,
          0., 0., 0., 0., 0., 0., 0., 0., 0., 0., 0., 0., 0., 0., 0., 0.,
          0., 0., 0., 0., 0., 0., 0., 0., 0., 0., 0., -1.20109362e-005,
          -1.20109362e-005, -1.20109362e-005, -1.20109362e-005,
          -1.20109362e-005, 0., 0., 0., 0., 0., 0., 0., 0., 0., 0., 0.,
          0., 0., 0., 0., 0., 0., 0., 0., 0., 0., 0., 0., 0., 0., 0., 0.,
          0., 0., 0., 0., 0., 0., 0., 0., 0., 0., 0., 0., 0., 0., 0., 0.,
          0., 0., 0., 0., -1.20109362e-005, 0., 0., 0., 0., 0., 0., 0.,
          0., 0., 0., 0., 0., 0., 0., 0., 0., 0., 0., 0., 0., 0., 0., 0.,
          0., 0., 0., 0., 0., 0., 0., 0., 0., 0., 0., 0., 0., 0., 0., 0.,
          0., 0., 0., 0., 0., 0., 0., 0., 0., 0., 0., 0., 0., 0., 0., 0.,
          0., 0., 0., 0., 0., 0., 0., 0., 0., 0., 0., 0., 0., 0., 0., 0.,
          0., 0., 0., 0., 0., 0., 0., 0., 0., 0., 0., 0., 0., 0., 0., 0.,
          0., 0., 0., 0., 0., 0., 0., 0., 0., 0., 0., 0., 0., 0., 0., 0.,
          0., 0., 0., 0., 0., 0., 0., 0., 0., 0., 0., 0., 0., 0., 0., 0.,
          0., 0., 0., 0., 0., 0., 0., 0., 0., 0., 0., 0., 0., 0., 0., 0.,
          0., 0., 0., 0., 0., 0., 0., 0., 0., 0., 0., 0., 0., 0., 0., 0.,
          0., 0., 0., 0., 0., 0., 0., 0., 0., 0., 0., 0., 0., 0., 0., 0.,
          0., 0., 0., 0., 0., 0., 0., 0., 0., 0., 0., 0., 0., 0., 0., 0.,
          0., 0., 0., 0., 0., 0., 0., 0., 0., 0., 0., 0., 0., 0., 0., 0.,
          0., 0., 0., 0., 0., 0., 0., 0., 0., 0., 0., 0., 0., 0., 0., 0.,
          0., 0., 0., 0., 0., 0., 0., 0., 0., 0., 0., 0., 0., 0., 0., 0.,
          0., 0., 0., 0., 0., 0., 0., 0., 0., 0., 0., 0., 0., 0., 0., 0.,
          0., 0., 0., 0., 0., 0., 0., 0., 0., 0., 0., 0., 0., 0., 0., 0.,
          0., 0., 0., 0., 0., 0., 0., 0., 0., 0., 0., 0., 0., 0., 0., 0.,
          0., 0., 0., 0., 0., 0., 0., 0., 0., 0., 0., 0., 0., 0., 0., 0.,
          0., 0., 0., 0., 0., 0., 0., 0., 0., 0., 0., 0., 0., 0., 0., 0.,
          0., 0., 0., 0., 0., 0., 0., 0., 0., 0., 0., 0., 0., 0., 0., 0.,
          0., 0., 0., 0., 0., 0., 0., 0., 0., 0., 0., 0., 0., 0., 0., 0.,
          0., 0., 0., 0., 0., 0., 0., 0., 0., 0., 0., 0., 0., 0., 0., 0.,
          0., 0., 0., 0., 0., 0., 0., 0., 0., 0., 0. ]
      - [ 0., 0., 0., 0., 0., 0., 0., 0., 0., 0., 0., 0., 0., 0., 0., 0.,
          0., 0., 0., 0., 0., 0., 0., 0., 0., 0., 0., 0., 0., 0., 0., 0.,
          0., 0., 0., 0., 0., 0., 0., 0., 0., 0., 0., 0., 0., 0., 0., 0.,
          0., 0., 0., 0., 0., 0., 0., 0., 0., 0., 0., 0., 0., 0., 0., 0.,
          0., 0., 0., 0., 0., 0., 0., 0., 0., 0., 0., 0., 0., 0., 0., 0.,
          0., 0., 0., 0., 0., 0., 0., 0., 0., 0., 0., 0., 0., 0., 0., 0.,
          0., 0., 0., 0., 0., 0., 0., 0., 0., 0., 0., 0., 0., 0., 0., 0.,
          0., 0., 0., 0., 0., 0., 0., 0., 0., 0., 0., 0., 0., 0., 0., 0.,
          0., 0., 0., 0., 0., 0., 0., 0., 0., 0., 0., 0., 0., 0., 0., 0.,
          0., 0., 0., 0., 0., 0., 0., 0., 0., 0., 0., 0., 0., 0., 0., 0.,
          0., 0., 0., 0., 0., 0., 0., 0., 0., 0., 0., 0., 0., 0., 0., 0.,
          0., 0., 0., 0., 0., 0., 0., 0., 0., 0., 0., 0., 0., 0., 0., 0.,
          0., 0., 0., 0., 0., 0., 0., 0., 0., 0., 0., 0., 0., 0., 0., 0.,
          0., 0., 0., 0., 0., 0., 0., 0., 0., 0., 0., 0., 0., 0., 0., 0.,
          0., 0., 0., 0., 0., 0., 0., 0., 0., 0., 0., 0., 0., 0., 0., 0.,
          0., 0., 0., 0., 0., 0., 0., 0., 0., 0., 0., 0., 0., 0., 0., 0.,
          0., 0., 0., 0., 0., 0., 0., 0., 0., 0., 0., 0., 0., 0., 0., 0.,
          0., 0., 0., 0., 0., 0., 0., 0., 0., 0., 0., 0., 0., 0., 0., 0.,
          0., 0., 0., 0., 0., 0., 0., 0., 0., 0., 0., 0., 0., 0., 0., 0.,
          0., 0., 0., 0., 0., 0., 0., 0., 0., 0., 0., 0., 0., 0., 0., 0.,
          0., 0., 0., 0., 0., 0., 0., 0., 0., 0., 0., 0., 0., 0., 0., 0.,
          0., 0., 0., 0., 0., 0., 0., 0., 0., 0., 0., 0., 0., 0., 0., 0.,
          0., 0., 0., 0., 0., 0., 0., 0., 0., 0., 0., 0., 0., 0., 0., 0.,
          0., 0., 0., 0., 0., 0., 0., 0., 0., 0., 0., 0., 0., 0., 0., 0.,
          0., 0., 0., 0., 0., 0., 0., 0., 0., 0., 0., 0., 0., 0., 0., 0.,
          0., 0., 0., 0., 0., 0., 0., 0., 0., 0., 0., 0., 0., 0., 0., 0.,
          0., 0., 0., 0., 0., 0., 0., 0., 0., 0., 0., 0., 0., 0., 0., 0.,
          0., 0., 0., 0., 0., 0., 0., 0., 0., 0., 0., 0., 0., 0., 0., 0.,
          0., 0., 0., 0., 0., 0., 0., 0., 0., 0., 0., 0., 0., 0., 0., 0.,
          0., 0., 0., 0., -7.39513371e-006, -2.42377500e-005,
          -1.54818172e-005, -1.54818172e-005, -8.08668301e-006, 0.,
          -7.39513371e-006, -7.39513371e-006, -7.39513371e-006, 0.,
          -8.08668301e-006, -8.08668301e-006, -1.54818172e-005,
          -1.54818172e-005, -1.54818172e-005, -7.39513371e-006, 0., 0.,
          0., 0., 0., 0., 0., 0., 0., 0., 0., 0., 0., 0., 0., 0., 0., 0.,
          0., 0., 0., 0., 0., 0., 0., 0., 0., 0., 0., 0., 0., 0., 0.,
          -2.42377500e-005, -2.42377500e-005, -2.42377500e-005,
          -2.42377500e-005, -2.42377500e-005, -2.42377500e-005,
          -2.42377500e-005, -2.42377500e-005, -2.42377500e-005,
          -2.42377500e-005, -2.42377500e-005, -2.42377500e-005,
          -2.42377500e-005, -2.42377500e-005, -2.42377500e-005,
          -2.42377500e-005, -1.54818172e-005, -7.39513371e-006, 0., 0.,
          0., 0., 0., 0., 0., 0., 0., 0., 0., 0., 0., 0., 0., 0., 0., 0.,
          0., 0., 0., 0., 0., 0., 0., 0., 0., 0., 0., 0., 0.,
          -8.75593287e-006, -2.42377500e-005, -2.42377500e-005,
          -2.42377500e-005, -2.42377500e-005, -2.42377500e-005,
          -2.42377500e-005, -2.42377500e-005, -2.42377500e-005,
          -2.42377500e-005, -2.42377500e-005, -2.42377500e-005,
          -2.42377500e-005, -2.42377500e-005, -2.42377500e-005,
          -2.42377500e-005, -2.42377500e-005, -2.42377500e-005,
          -7.39513371e-006, -7.39513371e-006, 0., 0., 0., 0., 0., 0., 0.,
          0., 0., 0., 0., 0., 0., 0., 0., 0., 0., 0., 0., 0., 0., 0., 0.,
          0., 0., 0., 0., 0., 0., 0., -1.68426159e-005, -2.42377500e-005,
          -2.42377500e-005, -2.42377500e-005, -2.42377500e-005,
          -2.42377500e-005, -2.42377500e-005, -2.42377500e-005,
          -2.42377500e-005, -2.42377500e-005, -2.42377500e-005,
          -2.42377500e-005, -2.42377500e-005, -2.42377500e-005,
          -2.42377500e-005, -2.42377500e-005, -2.42377500e-005,
          -2.42377500e-005, -7.39513371e-006, -7.39513371e-006, 0., 0.,
          0., 0., 0., 0., 0., 0., 0., 0., 0., 0., 0., 0., 0., 0., 0., 0.,
          0., 0., 0., 0., 0., 0., 0., 0., 0., 0., 0., 0.,
          -1.68426159e-005, -2.42377500e-005, -2.42377500e-005,
          -2.42377500e-005, -2.42377500e-005, -2.42377500e-005,
          -2.42377500e-005, -2.42377500e-005, -2.42377500e-005,
          -2.42377500e-005, -2.42377500e-005, -2.42377500e-005,
          -2.42377500e-005, -2.42377500e-005, -2.42377500e-005,
          -2.42377500e-005, -2.42377500e-005, -2.42377500e-005,
          -7.39513371e-006, 0., 0., 0., 0., 0., 0., 0., 0., 0., 0., 0.,
          0., 0., 0., 0., 0., 0., 0., 0., 0., 0., 0., 0., 0., 0., 0., 0.,
          0., 0., 0., 0., -2.42377500e-005, -2.42377500e-005,
          -2.42377500e-005, -2.42377500e-005, -2.42377500e-005, 0., 0.,
          0., 0., 0., -8.75593287e-006, -8.75593287e-006,
          -8.75593287e-006, -8.75593287e-006, -8.75593287e-006,
          -1.61510670e-005, -1.61510670e-005, -7.39513371e-006, 0., 0.,
          0., 0., 0., 0., 0., 0., 0., 0., 0., 0., 0., 0., 0., 0., 0., 0.,
          0., 0., 0., 0., 0., 0., 0., 0., 0., 0., 0., 0., 0., 0.,
          -2.42377500e-005, -2.42377500e-005, -2.42377500e-005,
          -2.42377500e-005, -8.08668301e-006, 0., 0., 0., 0., 0., 0., 0.,
          0., 0., 0., 0., 0., 0., 0., 0., 0., 0., 0., 0., 0., 0., 0., 0.,
          0., 0., 0., 0., 0., 0., 0., 0., 0., 0., 0., 0., 0., 0., 0., 0.,
          0., 0., 0., 0., 0., 0., -2.42377500e-005, -2.42377500e-005,
          -2.42377500e-005, -2.42377500e-005, 0., 0., 0., 0., 0., 0., 0.,
          0., 0., 0., 0., 0., 0., 0., 0., 0., 0., 0., 0., 0., 0., 0., 0.,
          0., 0., 0., 0., 0., 0., 0., 0., 0., 0., 0., 0., 0., 0., 0., 0.,
          0., 0., 0., 0., 0., 0., 0., -2.42377500e-005, -2.42377500e-005,
          -2.42377500e-005, -2.42377500e-005, 0., 0., 0., 0., 0., 0., 0.,
          0., 0., 0., 0., 0., 0., 0., 0., 0., 0., 0., 0., 0., 0., 0., 0.,
          0., 0., 0., 0., 0., 0., 0., 0., 0., 0., 0., 0., 0., 0., 0., 0.,
          0., 0., 0., 0., 0., 0., 0., -2.42377500e-005, -2.42377500e-005,
          -2.42377500e-005, -2.42377500e-005, 0., 0., 0., 0., 0., 0., 0.,
          0., 0., 0., 0., 0., 0., 0., 0., 0., 0., 0., 0., 0., 0., 0., 0.,
          0., 0., 0., 0., 0., 0., 0., 0., 0., 0., 0., 0., 0., 0., 0., 0.,
          0., 0., 0., 0., 0., 0., 0., -2.42377500e-005, -2.42377500e-005,
          -2.42377500e-005, -2.42377500e-005, 0., 0., 0., 0., 0., 0., 0.,
          0., 0., 0., 0., 0., 0., 0., 0., 0., 0., 0., 0., 0., 0., 0., 0.,
          0., 0., 0., 0., 0., 0., 0., 0., 0., 0., 0., 0., 0., 0., 0., 0.,
          0., 0., 0., 0., 0., 0., 0., -2.42377500e-005, -2.42377500e-005,
          -2.42377500e-005, -2.42377500e-005, -1.54818172e-005, 0.,
          -7.39513371e-006, -1.54818172e-005, -2.42377500e-005,
          -2.42377500e-005, -2.42377500e-005, -2.42377500e-005,
          -1.54818172e-005, -1.54818172e-005, 0., 0., 0., 0., 0., 0., 0.,
          0., 0., 0., 0., 0., 0., 0., 0., 0., 0., 0., 0., 0., 0., 0., 0.,
          0., 0., 0., 0., 0., 0., 0., 0., 0., 0., 0., 0.,
          -8.75593287e-006, -2.42377500e-005, -2.42377500e-005,
          -2.42377500e-005, -2.42377500e-005, -2.42377500e-005,
          -2.42377500e-005, -2.42377500e-005, -2.42377500e-005,
          -2.42377500e-005, -2.42377500e-005, -2.42377500e-005,
          -2.42377500e-005, -2.42377500e-005, -2.42377500e-005,
          -1.54818172e-005, -1.54818172e-005, 0., 0., 0., 0., 0., 0., 0.,
          0., 0., 0., 0., 0., 0., 0., 0., 0., 0., 0., 0., 0., 0., 0., 0.,
          0., 0., 0., 0., 0., 0., 0., 0., 0., 0., -1.61510670e-005,
          -2.42377500e-005, -2.42377500e-005, -2.42377500e-005,
          -2.42377500e-005, -2.42377500e-005, -2.42377500e-005,
          -2.42377500e-005, -2.42377500e-005, -2.42377500e-005,
          -2.42377500e-005, -2.42377500e-005, -2.42377500e-005,
          -2.42377500e-005, -2.42377500e-005, -2.42377500e-005,
          -2.42377500e-005, -1.54818172e-005, 0., 0., 0., 0., 0., 0., 0.,
          0., 0., 0., 0., 0., 0., 0., 0., 0., 0., 0., 0., 0., 0., 0., 0.,
          0., 0., 0., 0., 0., 0., 0., 0., 0., -2.42377500e-005,
          -2.42377500e-005, -2.42377500e-005, -2.42377500e-005,
          -2.42377500e-005, -2.42377500e-005, -2.42377500e-005,
          -2.42377500e-005, -2.42377500e-005, -2.42377500e-005,
          -2.42377500e-005, -2.42377500e-005, -2.42377500e-005,
          -2.42377500e-005, -2.42377500e-005, -2.42377500e-005,
          -2.42377500e-005, -2.42377500e-005, -1.54818172e-005, 0., 0.,
          0., 0., 0., 0., 0., 0., 0., 0., 0., 0., 0., 0., 0., 0., 0., 0.,
          0., 0., 0., 0., 0., 0., 0., 0., 0., 0., 0., 0., 0.,
          -2.42377500e-005, -2.42377500e-005, -2.42377500e-005,
          -2.42377500e-005, -2.42377500e-005, -2.42377500e-005,
          -1.68426159e-005, -8.75593287e-006, 0., -8.75593287e-006,
          -8.75593287e-006, -8.75593287e-006, -1.68426159e-005,
          -2.42377500e-005, -2.42377500e-005, -2.42377500e-005,
          -2.42377500e-005, -2.42377500e-005, -2.42377500e-005,
          -7.39513371e-006, 0., 0., 0., 0., 0., 0., 0., 0., 0., 0., 0.,
          0., 0., 0., 0., 0., 0., 0., 0., 0., 0., 0., 0., 0., 0., 0., 0.,
          0., 0., 0., -1.61510670e-005, -2.42377500e-005,
          -2.42377500e-005, -2.42377500e-005, -2.42377500e-005,
          -1.68426159e-005, 0., 0., 0., 0., 0., 0., 0., -8.75593287e-006,
          -1.68426159e-005, -2.42377500e-005, -2.42377500e-005,
          -2.42377500e-005, -2.42377500e-005, -1.54818172e-005,
          -7.39513371e-006, 0., 0., 0., 0., 0., 0., 0., 0., 0., 0., 0.,
          0., 0., 0., 0., 0., 0., 0., 0., 0., 0., 0., 0., 0., 0., 0., 0.,
          0., 0., -8.75593287e-006, -1.68426159e-005, -2.42377500e-005,
          -1.68426159e-005, -8.75593287e-006, 0., 0., 0., 0., 0., 0., 0.,
          0., 0., -8.75593287e-006, -1.68426159e-005, -2.42377500e-005,
          -2.42377500e-005, -2.42377500e-005, -2.42377500e-005,
          -7.39513371e-006, 0., 0., 0., 0., 0., 0., 0., 0., 0., 0., 0.,
          0., 0., 0., 0., 0., 0., 0., 0., 0., 0., 0., 0., 0., 0., 0., 0.,
          0., 0., 0., 0., 0., 0., 0., 0., 0., 0., 0., 0., 0., 0., 0., 0.,
          0., -1.68426159e-005, -2.42377500e-005, -2.42377500e-005,
          -2.42377500e-005, -2.42377500e-005, -7.39513371e-006, 0., 0.,
          0., 0., 0., 0., 0., 0., 0., 0., 0., 0., 0., 0., 0., 0., 0., 0.,
          0., 0., 0., 0., 0., 0., 0., 0., 0., 0., 0., 0., 0., 0., 0., 0.,
          0., 0., 0., 0., 0., 0., 0., 0., 0., 0., -8.75593287e-006,
          -2.42377500e-005, -2.42377500e-005, -2.42377500e-005,
          -2.42377500e-005, -1.54818172e-005, -7.39513371e-006, 0., 0.,
          0., 0., 0., 0., 0., 0., 0., 0., 0., 0., 0., 0., 0., 0., 0., 0.,
          0., 0., 0., 0., 0., 0., 0., 0., 0., 0., 0., 0., 0., 0., 0., 0.,
          0., 0., 0., 0., 0., 0., 0., 0., 0., -8.75593287e-006,
          -1.68426159e-005, -2.42377500e-005, -2.42377500e-005,
          -2.42377500e-005, -1.54818172e-005, -7.39513371e-006, 0., 0.,
          0., 0., 0., 0., 0., 0., 0., 0., 0., 0., 0., 0., 0., 0., 0., 0.,
          0., 0., 0., 0., 0., 0., 0., 0., 0., 0., 0., 0., 0., 0., 0., 0.,
          0., 0., 0., 0., 0., 0., 0., 0., 0., 0., -1.68426159e-005,
          -2.42377500e-005, -2.42377500e-005, -2.42377500e-005,
          -2.42377500e-005, -7.39513371e-006, 0., 0., 0., 0., 0., 0., 0.,
          0., 0., 0., 0., 0., 0., 0., 0., 0., 0., 0., 0., 0., 0., 0., 0.,
          0., 0., 0., 0., -7.39513371e-006, -2.42377500e-005,
          -2.42377500e-005, -1.54818172e-005, 0., 0., 0., 0., 0., 0., 0.,
          0., 0., 0., 0., 0., 0., -1.68426159e-005, -2.42377500e-005,
          -2.42377500e-005, -2.42377500e-005, -1.61510670e-005,
          -7.39513371e-006, 0., 0., 0., 0., 0., 0., 0., 0., 0., 0., 0.,
          0., 0., 0., 0., 0., 0., 0., 0., 0., 0., 0., 0., 0., 0., 0.,
          -7.39513371e-006, -2.42377500e-005, -2.42377500e-005,
          -2.42377500e-005, -2.42377500e-005, -2.42377500e-005, 0., 0.,
          0., 0., 0., 0., 0., 0., 0., 0., 0., -8.08668301e-006,
          -1.68426159e-005, -2.42377500e-005, -2.42377500e-005,
          -2.42377500e-005, -7.39513371e-006, -7.39513371e-006, 0., 0.,
          0., 0., 0., 0., 0., 0., 0., 0., 0., 0., 0., 0., 0., 0., 0., 0.,
          0., 0., 0., 0., 0., 0., 0., 0., 0., -2.42377500e-005,
          -2.42377500e-005, -2.42377500e-005, -2.42377500e-005,
          -2.42377500e-005, -8.08668301e-006, 0., 0., 0., 0., 0., 0., 0.,
          0., 0., 0., -1.68426159e-005, -2.42377500e-005,
          -2.42377500e-005, -2.42377500e-005, -2.42377500e-005,
          -7.39513371e-006, 0., 0., 0., 0., 0., 0., 0., 0., 0., 0., 0.,
          0., 0., 0., 0., 0., 0., 0., 0., 0., 0., 0., 0., 0., 0., 0., 0.,
          0., -2.42377500e-005, -2.42377500e-005, -2.42377500e-005,
          -2.42377500e-005, -2.42377500e-005, -2.42377500e-005, 0., 0.,
          0., 0., 0., 0., 0., 0., 0., -8.08668301e-006, -1.68426159e-005,
          -2.42377500e-005, -2.42377500e-005, -2.42377500e-005,
          -2.42377500e-005, -7.39513371e-006, 0., 0., 0., 0., 0., 0., 0.,
          0., 0., 0., 0., 0., 0., 0., 0., 0., 0., 0., 0., 0., 0., 0., 0.,
          0., 0., 0., 0., 0., -2.42377500e-005, -2.42377500e-005,
          -2.42377500e-005, -2.42377500e-005, -2.42377500e-005,
          -2.42377500e-005, -1.54818172e-005, 0., 0., 0., 0., 0., 0., 0.,
          -8.08668301e-006, -1.68426159e-005, -2.42377500e-005,
          -2.42377500e-005, -2.42377500e-005, -2.42377500e-005,
          -1.61510670e-005, -7.39513371e-006, 0., 0., 0., 0., 0., 0., 0.,
          0., 0., 0., 0., 0., 0., 0., 0., 0., 0., 0., 0., 0., 0., 0., 0.,
          0., 0., 0., 0., 0., 0., -2.42377500e-005, -2.42377500e-005,
          -2.42377500e-005, -2.42377500e-005, -2.42377500e-005,
          -2.42377500e-005, -1.54818172e-005, -1.54818172e-005, 0., 0.,
          -8.08668301e-006, -8.08668301e-006, -8.08668301e-006,
          -2.42377500e-005, -2.42377500e-005, -2.42377500e-005,
          -2.42377500e-005, -2.42377500e-005, -2.42377500e-005,
          -7.39513371e-006, 0., 0., 0., 0., 0., 0., 0., 0., 0., 0., 0.,
          0., 0., 0., 0., 0., 0., 0., 0., 0., 0., 0., 0., 0., 0., 0., 0.,
          0., 0., 0., -8.75593287e-006, -2.42377500e-005,
          -2.42377500e-005, -2.42377500e-005, -2.42377500e-005,
          -2.42377500e-005, -2.42377500e-005, -2.42377500e-005,
          -2.42377500e-005, -2.42377500e-005, -2.42377500e-005,
          -2.42377500e-005, -2.42377500e-005, -2.42377500e-005,
          -2.42377500e-005, -2.42377500e-005, -2.42377500e-005,
          -2.42377500e-005, -1.61510670e-005, 0., 0., 0., 0., 0., 0., 0.,
          0., 0., 0., 0., 0., 0., 0., 0., 0., 0., 0., 0., 0., 0., 0., 0.,
          0., 0., 0., 0., 0., 0., 0., 0., 0., -8.75593287e-006,
          -2.42377500e-005, -2.42377500e-005, -2.42377500e-005,
          -2.42377500e-005, -2.42377500e-005, -2.42377500e-005,
          -2.42377500e-005, -2.42377500e-005, -2.42377500e-005,
          -2.42377500e-005, -2.42377500e-005, -2.42377500e-005,
          -2.42377500e-005, -2.42377500e-005, -2.42377500e-005,
          -1.61510670e-005, 0., 0., 0., 0., 0., 0., 0., 0., 0., 0., 0.,
          0., 0., 0., 0., 0., 0., 0., 0., 0., 0., 0., 0., 0., 0., 0., 0.,
          0., 0., 0., 0., 0., 0., 0., -8.75593287e-006, -1.68426159e-005,
          -2.42377500e-005, -2.42377500e-005, -2.42377500e-005,
          -2.42377500e-005, -2.42377500e-005, -2.42377500e-005,
          -2.42377500e-005, -2.42377500e-005, -2.42377500e-005,
          -2.42377500e-005, -2.42377500e-005, -2.42377500e-005,
          -1.61510670e-005, 0., 0., 0., 0., 0., 0., 0., 0., 0., 0., 0.,
          0., 0., 0., 0., 0., 0., 0., 0., 0., 0., 0., 0., 0., 0., 0., 0.,
          0., 0., 0., 0., 0., 0., 0., 0., 0., 0., -8.75593287e-006,
          -8.75593287e-006, -2.42377500e-005, -2.42377500e-005,
          -2.42377500e-005, -2.42377500e-005, -2.42377500e-005,
          -2.42377500e-005, -2.42377500e-005, -1.61510670e-005,
          -1.61510670e-005, -8.75593287e-006, 0., 0., 0., 0., 0., 0., 0.,
          0., 0., 0., 0., 0., 0., 0., 0., 0., 0., 0., 0., 0., 0., 0., 0.,
          0., 0., 0., 0., 0., 0., 0., 0., 0., 0., 0., 0., 0., 0., 0., 0.,
          0., 0., 0., -8.75593287e-006, -8.75593287e-006,
          -8.75593287e-006, -8.75593287e-006, 0., 0., 0., 0., 0., 0., 0.,
          0., 0., 0., 0., 0., 0., 0., 0., 0., 0., 0., 0., 0., 0., 0., 0.,
          0., 0., 0., 0., 0., 0., 0., 0., 0., 0., 0., 0., 0., 0., 0., 0.,
          0., 0., 0., 0., 0., 0., 0., 0., 0., 0., 0., 0., 0., 0., 0., 0.,
          0., 0., 0., 0., 0., 0., 0., 0., 0., 0., 0., 0., 0., 0., 0., 0.,
          0., 0., 0., 0., 0., 0., 0., 0., 0., 0., 0., 0., 0., 0., 0., 0.,
          0., 0., 0., 0., 0., 0., 0., 0., 0., 0., 0., 0., 0., 0., 0., 0.,
          0., 0., 0., 0., 0., 0., 0., 0., 0., 0., 0., 0., 0., 0., 0., 0.,
          0., 0., 0., 0., 0., 0., 0., 0., 0., 0., 0., 0., 0., 0., 0., 0.,
          0., 0., 0., 0., 0., 0., 0., 0., 0., 0., 0., 0., 0., 0., 0., 0.,
          0., 0., 0., 0., 0., 0., 0., 0., 0., 0., 0., 0., 0., 0., 0., 0.,
          0., 0., 0., 0., 0., 0., 0., 0., 0., 0., 0., 0., 0., 0., 0., 0.,
          0., 0., 0., 0., 0., 0., 0., 0., 0., 0., 0., 0., 0., 0., 0., 0.,
          0., 0., 0., 0., 0., 0., 0., 0., 0., 0., 0., 0., 0., 0., 0., 0.,
          0., 0., 0., 0., 0., 0., 0., 0., 0., 0., 0., 0., 0., 0., 0., 0.,
          0., 0., 0., 0., 0., 0., 0., 0., 0., 0., 0., 0., 0., 0., 0., 0.,
          0., 0., 0., 0., 0., 0., 0., 0., 0., 0., 0., 0., 0., 0., 0., 0.,
          0., 0., 0., 0., 0., 0., 0., 0., 0., 0., 0., 0., 0., 0., 0., 0.,
          0., 0., 0., 0., 0., 0., 0., 0., 0., 0., 0., 0., 0., 0., 0., 0.,
          0., 0., 0., 0., 0., 0., 0., 0., 0., 0., 0., 0., 0., 0., 0., 0.,
          0., 0., 0., 0., 0., 0., 0., 0., 0., 0., 0., 0., 0., 0., 0., 0.,
          0., 0., 0., 0., 0., 0., 0., 0., 0., 0., 0., 0., 0., 0., 0., 0.,
          0., 0., 0., 0., 0., 0., 0., 0., 0., 0., 0., 0., 0., 0., 0., 0.,
          0., 0., 0., 0., 0., 0., 0., 0., 0., 0., 0., 0., 0., 0., 0., 0.,
          0., 0., 0., 0., 0., 0., 0., 0., 0., 0., 0., 0., 0., 0., 0., 0.,
          0., 0., 0., 0., 0., 0., 0., 0., 0., 0., 0., 0., 0., 0., 0., 0.,
          0., 0., 0., 0., 0., 0., 0., 0., 0., 0., 0., 0., 0., 0., 0., 0. ]
      - [ 0., 0., 0., 0., 0., 0., 0., 0., 0., 0., 0., 0., 0., 0., 0., 0.,
          0., 0., 0., 0., 0., 0., 0., 0., 0., 0., 0., 0., 0., 0., 0., 0.,
          0., 0., 0., 0., 0., 0., 0., 0., 0., 0., 0., 0., 0., 0., 0., 0.,
          0., 0., 0., 0., 0., 0., 0., 0., 0., 0., 0., 0., 0., 0., 0., 0.,
          0., 0., 0., 0., 0., 0., 0., 0., 0., 0., 0., 0., 0., 0., 0., 0.,
          0., 0., 0., 0., 0., 0., 0., 0., 0., 0., 0., 0., 0., 0., 0., 0.,
          0., 0., 0., 0., 0., 0., 0., 0., 0., 0., 0., 0., 0., 0., 0., 0.,
          0., 0., 0., 0., 0., 0., 0., 0., 0., 0., 0., 0., 0., 0., 0., 0.,
          0., 0., 0., 0., 0., 0., 0., 0., 0., 0., 0., 0., 0., 0., 0., 0.,
          0., 0., 0., 0., 0., 0., 0., 0., 0., 0., 0., 0., 0., 0., 0., 0.,
          0., 0., 0., 0., 0., 0., 0., 0., 0., 0., 0., 0., 0., 0., 0., 0.,
          0., 0., 0., 0., 0., 0., 0., 0., 0., 0., 0., 0., 0., 0., 0., 0.,
          0., 0., 0., 0., 0., 0., 0., 0., 0., 0., 0., 0., 0., 0., 0., 0.,
          0., 0., 0., 0., 0., 0., 0., 0., 0., 0., 0., 0., 0., 0., 0., 0.,
          0., 0., 0., 0., 0., 0., 0., 0., 0., 0., 0., 0., 0., 0., 0., 0.,
          0., 0., 0., 0., 0., 0., 0., 0., 0., 0., 0., 0., 0., 0., 0., 0.,
          0., 0., 0., 0., 0., 0., 0., 0., 0., 0., 0., 0., 0., 0., 0., 0.,
          0., 0., 0., 0., 0., 0., 0., 0., 0., 0., 0., 0., 0., 0., 0., 0.,
          0., 0., 0., 0., 0., 0., 0., 0., 0., 0., 0., 0., 0., 0., 0., 0.,
          0., 0., 0., 0., 0., 0., 0., 0., 0., 0., 0., 0., 0., 0., 0., 0.,
          0., 0., 0., 0., 0., 0., 0., 0., 0., 0., 0., 0., 0., 0., 0., 0.,
          0., 0., 0., 0., 0., 0., 0., 0., 0., 0., 0., 0., 0., 0., 0., 0.,
          0., 0., 0., 0., 0., 0., 0., 0., 0., 0., 0., 0., 0., 0., 0., 0.,
          0., 0., 0., 0., 0., 0., 0., 0., 0., 0., 0., 0., 0., 0., 0., 0.,
          0., 0., 0., 0., 0., 0., 0., 0., 0., 0., 0., 0., 0., 0., 0., 0.,
          0., 0., 0., 0., 0., 0., 0., 0., 0., 0., 0., 0., 0., 0., 0., 0.,
          0., 0., 0., 0., 0., 0., 0., -7.37080472e-006, -7.37080472e-006,
          -7.37080472e-006, -7.37080472e-006, -7.37080472e-006,
          -7.37080472e-006, -7.37080472e-006, 0., 0., 0., 0., 0., 0., 0.,
          0., 0., 0., 0., 0., 0., 0., 0., 0., 0., 0., 0., 0., 0., 0., 0.,
          0., 0., 0., 0., 0., 0., 0., 0., 0., 0., 0., 0., 0., 0., 0., 0.,
          0., -7.37080472e-006, -7.37080472e-006, -7.37080472e-006,
          -2.09171576e-005, -2.09171576e-005, -2.09171576e-005,
          -2.09171576e-005, -2.09171576e-005, -2.09171576e-005,
          -2.09171576e-005, -7.37080472e-006, -7.37080472e-006, 0., 0.,
          0., 0., 0., 0., 0., 0., 0., 0., 0., 0., 0., 0., 0., 0., 0., 0.,
          0., 0., 0., 0., 0., 0., 0., 0., 0., 0., 0., 0., 0., 0., 0., 0.,
          0., 0., 0., -7.37080472e-006, -7.37080472e-006,
          -2.09171576e-005, -2.09171576e-005, -2.09171576e-005,
          -2.09171576e-005, -2.09171576e-005, -2.09171576e-005,
          -2.09171576e-005, -2.09171576e-005, -2.09171576e-005,
          -2.09171576e-005, -2.09171576e-005, -7.37080472e-006, 0., 0.,
          0., 0., 0., 0., 0., 0., 0., 0., 0., 0., 0., 0., 0., 0., 0., 0.,
          0., 0., 0., 0., 0., 0., 0., 0., 0., 0., 0., 0., 0., 0., 0., 0.,
          0., -7.37080472e-006, -2.09171576e-005, -2.09171576e-005,
          -2.09171576e-005, -2.09171576e-005, -2.09171576e-005,
          -2.09171576e-005, -2.09171576e-005, -2.09171576e-005,
          -2.09171576e-005, -2.09171576e-005, -2.09171576e-005,
          -2.09171576e-005, -2.09171576e-005, -2.09171576e-005,
          -7.37080472e-006, 0., 0., 0., 0., 0., 0., 0., 0., 0., 0., 0.,
          0., 0., 0., 0., 0., 0., 0., 0., 0., 0., 0., 0., 0., 0., 0., 0.,
          0., 0., 0., 0., 0., 0., -7.37080472e-006, -2.09171576e-005,
          -2.09171576e-005, -2.09171576e-005, -2.09171576e-005,
          -2.09171576e-005, -2.09171576e-005, -2.09171576e-005,
          -2.09171576e-005, -2.09171576e-005, -2.09171576e-005,
          -2.09171576e-005, -2.09171576e-005, -2.09171576e-005,
          -2.09171576e-005, -2.09171576e-005, -2.09171576e-005,
          -7.37080472e-006, 0., 0., 0., 0., 0., 0., 0., 0., 0., 0., 0.,
          0., 0., 0., 0., 0., 0., 0., 0., 0., 0., 0., 0., 0., 0., 0., 0.,
          0., 0., 0., 0., -7.37080472e-006, -7.37080472e-006,
          -2.09171576e-005, -2.09171576e-005, -2.09171576e-005,
          -2.09171576e-005, -2.09171576e-005, -2.09171576e-005,
          -1.35463524e-005, -1.35463524e-005, -1.35463524e-005,
          -1.35463524e-005, -2.09171576e-005, -2.09171576e-005,
          -2.09171576e-005, -2.09171576e-005, -2.09171576e-005,
          -2.09171576e-005, -2.09171576e-005, 0., 0., 0., 0., 0., 0., 0.,
          0., 0., 0., 0., 0., 0., 0., 0., 0., 0., 0., 0., 0., 0., 0., 0.,
          0., 0., 0., 0., 0., 0., 0., 0., -7.37080472e-006,
          -2.09171576e-005, -2.09171576e-005, -2.09171576e-005,
          -2.09171576e-005, -2.09171576e-005, -1.35463524e-005, 0., 0.,
          0., 0., 0., 0., -2.09171576e-005, -2.09171576e-005,
          -2.09171576e-005, -2.09171576e-005, -2.09171576e-005,
          -2.09171576e-005, 0., 0., 0., 0., 0., 0., 0., 0., 0., 0., 0.,
          0., 0., 0., 0., 0., 0., 0., 0., 0., 0., 0., 0., 0., 0., 0., 0.,
          0., 0., 0., 0., -7.37080472e-006, -2.09171576e-005,
          -2.09171576e-005, -2.09171576e-005, -2.09171576e-005,
          -1.35463524e-005, 0., 0., 0., 0., 0., 0., 0., 0.,
          -2.09171576e-005, -2.09171576e-005, -2.09171576e-005,
          -2.09171576e-005, -2.09171576e-005, -2.09171576e-005, 0., 0.,
          0., 0., 0., 0., 0., 0., 0., 0., 0., 0., 0., 0., 0., 0., 0., 0.,
          0., 0., 0., 0., 0., 0., 0., 0., 0., 0., 0., -7.37080472e-006,
          -2.09171576e-005, -2.09171576e-005, -2.09171576e-005,
          -2.09171576e-005, -1.35463524e-005, 0., 0., 0., 0., 0., 0., 0.,
          0., 0., -2.09171576e-005, -2.09171576e-005, -2.09171576e-005,
          -2.09171576e-005, -2.09171576e-005, -1.35463524e-005, 0., 0.,
          0., 0., 0., 0., 0., 0., 0., 0., 0., 0., 0., 0., 0., 0., 0., 0.,
          0., 0., 0., 0., 0., 0., 0., 0., 0., 0., 0., -7.37080472e-006,
          -2.09171576e-005, -2.09171576e-005, -2.09171576e-005,
          -2.09171576e-005, -1.35463524e-005, 0., 0., 0., 0., 0., 0., 0.,
          0., 0., 0., -2.09171576e-005, -2.09171576e-005,
          -2.09171576e-005, -2.09171576e-005, 0., 0., 0., 0., 0., 0., 0.,
          0., 0., 0., 0., 0., 0., 0., 0., 0., 0., 0., 0., 0., 0., 0., 0.,
          0., 0., 0., 0., 0., 0., 0., -7.37080472e-006, -2.09171576e-005,
          -2.09171576e-005, -2.09171576e-005, -1.35463524e-005, 0., 0.,
          0., 0., 0., 0., 0., 0., 0., 0., 0., 0., 0., 0., 0., 0., 0., 0.,
          0., 0., 0., 0., 0., 0., 0., 0., 0., 0., 0., 0., 0., 0., 0., 0.,
          0., 0., 0., 0., 0., 0., 0., 0., 0., 0., 0., -2.09171576e-005,
          -2.09171576e-005, -2.09171576e-005, -2.09171576e-005,
          -1.35463524e-005, 0., 0., 0., 0., 0., 0., 0., 0., 0., 0., 0.,
          0., 0., 0., 0., 0., 0., 0., 0., 0., 0., 0., 0., 0., 0., 0., 0.,
          0., 0., 0., 0., 0., 0., 0., 0., 0., 0., 0., 0., 0., 0., 0., 0.,
          0., -7.37080472e-006, -2.09171576e-005, -2.09171576e-005,
          -2.09171576e-005, -2.09171576e-005, -1.35463524e-005, 0., 0.,
          0., 0., 0., -2.09171576e-005, -2.09171576e-005,
          -2.09171576e-005, 0., 0., 0., 0., 0., 0., 0., 0., 0., 0., 0.,
          0., 0., 0., 0., 0., 0., 0., 0., 0., 0., 0., 0., 0., 0., 0., 0.,
          0., 0., 0., 0., 0., 0., 0., 0., 0., -7.37080472e-006,
          -2.09171576e-005, -2.09171576e-005, -2.09171576e-005,
          -2.09171576e-005, -1.35463524e-005, 0., 0., 0.,
          -2.09171576e-005, -2.09171576e-005, -2.09171576e-005,
          -2.09171576e-005, -2.09171576e-005, -2.09171576e-005,
          -2.09171576e-005, -1.35463524e-005, 0., 0., 0., 0., 0., 0., 0.,
          0., 0., 0., 0., 0., 0., 0., 0., 0., 0., 0., 0., 0., 0., 0., 0.,
          0., 0., 0., 0., 0., 0., 0., 0., 0., 0., -7.37080472e-006,
          -2.09171576e-005, -2.09171576e-005, -2.09171576e-005,
          -2.09171576e-005, -2.09171576e-005, -2.09171576e-005,
          -2.09171576e-005, -2.09171576e-005, -2.09171576e-005,
          -2.09171576e-005, -2.09171576e-005, -2.09171576e-005,
          -2.09171576e-005, -2.09171576e-005, -2.09171576e-005,
          -2.09171576e-005, -2.09171576e-005, 0., 0., 0., 0., 0., 0., 0.,
          0., 0., 0., 0., 0., 0., 0., 0., 0., 0., 0., 0., 0., 0., 0., 0.,
          0., 0., 0., 0., 0., 0., 0., 0., 0., -7.37080472e-006,
          -2.09171576e-005, -2.09171576e-005, -2.09171576e-005,
          -2.09171576e-005, -2.09171576e-005, -2.09171576e-005,
          -2.09171576e-005, -2.09171576e-005, -2.09171576e-005,
          -2.09171576e-005, -2.09171576e-005, -2.09171576e-005,
          -2.09171576e-005, -2.09171576e-005, -2.09171576e-005,
          -2.09171576e-005, -2.09171576e-005, -2.09171576e-005, 0., 0.,
          0., 0., 0., 0., 0., 0., 0., 0., 0., 0., 0., 0., 0., 0., 0., 0.,
          0., 0., 0., 0., 0., 0., 0., 0., 0., 0., 0., 0., 0.,
          -7.37080472e-006, -2.09171576e-005, -2.09171576e-005,
          -2.09171576e-005, -2.09171576e-005, -2.09171576e-005,
          -2.09171576e-005, -2.09171576e-005, -2.09171576e-005,
          -2.09171576e-005, -2.09171576e-005, -2.09171576e-005,
          -2.09171576e-005, -2.09171576e-005, -2.09171576e-005,
          -2.09171576e-005, -2.09171576e-005, -2.09171576e-005,
          -2.09171576e-005, -2.09171576e-005, 0., 0., 0., 0., 0., 0., 0.,
          0., 0., 0., 0., 0., 0., 0., 0., 0., 0., 0., 0., 0., 0., 0., 0.,
          0., 0., 0., 0., 0., 0., 0., -7.37080472e-006, -2.09171576e-005,
          -2.09171576e-005, -2.09171576e-005, -2.09171576e-005,
          -2.09171576e-005, -2.09171576e-005, -2.09171576e-005, 0., 0.,
          0., 0., 0., -7.37080472e-006, -2.09171576e-005,
          -2.09171576e-005, -2.09171576e-005, -2.09171576e-005,
          -2.09171576e-005, -2.09171576e-005, -1.35463524e-005, 0., 0.,
