%YAML:1.0
my_svm: !!opencv-ml-svm
   svm_type: C_SVC
   kernel: { type:LINEAR }
   C: 1.
   term_criteria: { epsilon:2.2204460492503131e-016, iterations:100 }
   var_all: 2500
   var_count: 2500
   class_count: 10
   class_labels: !!opencv-matrix
      rows: 1
      cols: 10
      dt: i
      data: [ 0, 1, 2, 3, 4, 5, 6, 7, 8, 9 ]
   sv_total: 45
   support_vectors:
      - [ 0., 0., 0., 0., 0., 0., 0., 0., 0., 0., 0., 0., 0., 0., 0., 0.,
          0., 0., 0., 0., 0., 0., 0., 0., 0., 0., 0., 0., 0., 0., 0., 0.,
          0., 0., 0., 0., 0., 0., 0., 0., 0., 0., 0., 0., 0., 0., 0., 0.,
          0., 0., 0., 0., 0., 0., 0., 0., 0., 0., 0., 0., 0., 0., 0., 0.,
          0., 0., 0., 0., 0., 0., 0., 0., 0., 0., 0., 0., 0., 0., 0., 0.,
          0., 0., 0., 0., 0., 0., 0., 0., 0., 0., 0., 0., 0., 0., 0., 0.,
          0., 0., 0., 0., 0., 0., 0., 0., 0., 0., 0., 0., 0., 0., 0., 0.,
          0., 0., 0., 0., 0., 0., 0., 0., -1.93175765e-007, 0., 0., 0.,
          0., 0., 0., 0., 0., 0., 0., -1.76214954e-008, -2.10797253e-007,
          0., -1.98192510e-007, 0., 0., 0., 0., 0., 0., 0., 0., 0., 0.,
          0., 0., 0., 0., 0., 0., 0., 0., 0., 0., 0., 0., 0., 0., 0., 0.,
          0., 0., 0., 0., 0., 0., 0., 0., 0., 0., 0., 0., 0., 0., 0., 0.,
          0., 0., 0., 0., 0., -1.76214954e-008, 0., -1.98192510e-007, 0.,
          0., 0., 0., 0., 0., 0., 0., 0., 0., 0., 0., 0., 0., 0., 0., 0.,
          0., 0., 0., 0., 0., 0., 0., 0., 0., 0., 0., 0., 0., 0., 0., 0.,
          0., 0., -1.76214940e-007, -5.80848621e-007, -1.10817211e-006,
          -2.56613134e-006, -6.20690525e-006, -1.01614869e-005,
          -1.33271624e-005, -1.42826311e-005, -1.28244201e-005,
          -9.82577967e-006, -5.69036229e-006, -2.80450763e-006,
          -1.44697242e-006, -6.54202438e-007, -4.56009928e-007,
          -2.28004964e-007, 0., 0., 0., 0., 0., 0., 0., 0., 0., 0., 0.,
          0., 0., 0., 0., 0., 0., 0., 0., 0., 0., 0., 0., 0., 0., 0., 0.,
          0., 0., 0., 0., 1.92990548e-008, 1.92990548e-008,
          -3.52429907e-008, -4.75780354e-007, -1.40839825e-006,
          -2.76889523e-006, -6.45746877e-006, -1.55208618e-005,
          -2.35783045e-005, -3.20410509e-005, -3.70491325e-005,
          -3.44136643e-005, -2.59819008e-005, -1.53560759e-005,
          -6.98599979e-006, -3.72949398e-006, -1.96260726e-006,
          -1.79742017e-007, -4.56009928e-007, 0., 1.96792200e-008, 0.,
          -3.40214541e-007, 0., 0., 0., 0., 0., 0., 0., 0., 0., 0., 0.,
          0., 0., 0., 0., 0., 0., 0., 0., 0., 0., -2.46403271e-008,
          -1.32609685e-007, -2.40579055e-007, -3.56761859e-007,
          -4.23664005e-007, -4.61296224e-007, -3.28686525e-007,
          -3.39438003e-007, -7.75345768e-007, -1.26371492e-006,
          -1.86005400e-006, -2.89876948e-006, -1.86089801e-006,
          -9.71139684e-007, -1.80066263e-006, -4.88585238e-006,
          -9.05506204e-006, -1.42356675e-005, -1.69093328e-005,
          -1.62130273e-005, -1.24401113e-005, -6.57365945e-006,
          -1.49797721e-008, -4.74721105e-007, -2.97997076e-006,
          -3.85034491e-006, -3.41606687e-006, -1.46614207e-006,
          -6.98020301e-007, -3.09889458e-007, 0., 0., 0., 0., 0., 0., 0.,
          0., 0., 0., 0., 0., 0., 0., 0., 0., 0., 0., 0.,
          2.04645101e-009, -1.07969363e-007, -4.04847896e-007,
          -8.05066179e-007, -1.23470329e-006, -1.47957780e-006,
          -1.68345412e-006, -1.62043341e-006, -1.61386106e-006,
          -2.07321773e-006, -2.09421000e-006, -1.18883190e-006,
          -7.08017751e-007, 1.02586682e-005, 3.09687239e-005,
          4.46703452e-005, 5.49987308e-005, 5.50185541e-005,
          4.54086476e-005, 2.34941454e-005, 4.31368062e-006,
          -8.70987242e-006, -7.83561336e-006, -1.72897921e-006,
          -8.14172017e-006, -1.48941981e-005, -1.79992840e-005,
          -1.33395515e-005, -5.54293638e-006, -2.15837917e-006,
          -8.01316787e-007, 0., 8.01079292e-009, 0., 4.04512015e-008, 0.,
          0., 0., 0., 0., 0., 0., 0., 0., 0., 0., 0., 0., 0., 0., 0.,
          -2.55811329e-007, -8.20298453e-007, -1.52336838e-006,
          -2.32992693e-006, -2.81911298e-006, -3.25684709e-006,
          -3.28447209e-006, -3.19591413e-006, -3.10040264e-006,
          -2.53003759e-006, -7.09271376e-007, 2.08802089e-006,
          2.17531415e-005, 5.24802490e-005, 8.04276060e-005,
          1.02271857e-004, 1.07197164e-004, 9.19886807e-005,
          6.46855478e-005, 3.33224198e-005, 9.67326741e-006,
          -8.64304002e-006, -1.00564912e-005, -2.00129089e-005,
          -2.73230453e-005, -2.76930296e-005, -1.92152511e-005,
          -7.36702123e-006, -2.80564655e-006, -1.08922723e-006, 0., 0.,
          0., 4.04512015e-008, 0., 0., 0., 0., 0., 0., 0., 0., 0., 0.,
          0., 0., 0., 0., -5.74940984e-008, -1.72482302e-007,
          -6.44232330e-007, -1.37572033e-006, -2.33461174e-006,
          -3.47470063e-006, -4.23697111e-006, -5.04742093e-006,
          -5.17365879e-006, -4.70916302e-006, -3.44132536e-006,
          -2.00166346e-006, 3.86117392e-007, -2.48813376e-006,
          1.50782507e-005, 4.06246472e-005, 6.28450071e-005,
          4.57096139e-005, 3.56789387e-005, 5.90969830e-005,
          -5.47640957e-006, -1.71406245e-005, 2.55662417e-005,
          -1.63607747e-005, -4.42793280e-005, -4.80092931e-005,
          -4.51039632e-005, -3.76657226e-005, -2.76190385e-005,
          -1.66331683e-005, -8.71514840e-006, -4.99477028e-006,
          -1.58733394e-006, -4.93975222e-007, -3.07664408e-007, 0., 0.,
          0., 0., 0., 0., 0., 0., 0., 0., 0., 0., 0., 0., 0.,
          -1.64268855e-007, -4.43525892e-007, -1.02324532e-006,
          -1.78475125e-006, -2.82441761e-006, -4.12146301e-006,
          -5.25753467e-006, -6.23692085e-006, -5.64682568e-006,
          -4.69742099e-006, -3.01411546e-006, -7.07902473e-007,
          1.85477333e-007, -9.42400038e-006, -8.45121633e-007,
          7.64835295e-006, 1.30569615e-005, 9.98483529e-007,
          -2.02996725e-005, -7.38581221e-005, -4.03278100e-005,
          -2.62815302e-005, -4.07062471e-005, -2.63941365e-005,
          -7.37635783e-005, -8.10402853e-005, -6.31251314e-005,
          -4.58869654e-005, -3.73451076e-005, -2.96645667e-005,
          -1.87021833e-005, -1.12958578e-005, -4.22757557e-006,
          -9.93157300e-007, -5.34426420e-007, 3.49332652e-008, 0., 0.,
          0., 0., 0., 0., 0., 0., 0., 0., 0., 0., 0., 0.,
          -3.82084949e-007, -7.02409181e-007, -1.88345325e-006,
          -3.37530969e-006, -4.92092340e-006, -5.84236523e-006,
          -6.09612607e-006, -6.03558465e-006, -5.11775534e-006,
          -4.37354765e-006, -2.01654825e-006, 9.37667835e-007,
          -1.02781423e-005, -2.18663299e-005, -1.14456834e-005,
          -1.22754727e-005, -1.47895344e-005, -1.30636699e-005,
          -1.27897933e-004, -1.22191079e-004, -8.96946294e-005,
          -4.68072612e-005, -4.57692768e-005, -3.68573274e-005,
          -9.51397888e-005, -1.00663128e-004, -7.43873752e-005,
          -4.84427474e-005, -4.10847933e-005, -3.66825661e-005,
          -2.84975322e-005, -1.67611615e-005, -6.00185649e-006,
          -1.34571803e-006, -5.97516191e-007, 0., 0., 0., 0., 0., 0., 0.,
          0., 0., 0., 0., 0., 0., 0., 0., -6.78088611e-007,
          -1.60417756e-006, -4.98259396e-006, -1.00466159e-005,
          -1.37577354e-005, -1.21729072e-005, -6.98270878e-006,
          -3.62550213e-006, -2.32040929e-006, -2.98136274e-006,
          -7.65630102e-006, -1.08575723e-005, -1.89430830e-005,
          -2.82159272e-005, -1.18992666e-005, 2.38023586e-006,
          1.45141375e-005, 1.39502436e-005, -1.18722812e-004,
          -1.49205152e-004, -1.28642059e-004, -7.90869017e-005,
          -6.35715187e-005, -4.23208039e-005, -8.93494871e-005,
          -9.00487430e-005, -6.78221768e-005, -4.36997107e-005,
          -3.89555462e-005, -3.62593855e-005, -2.87886414e-005,
          -1.84333021e-005, -6.80086850e-006, -1.13874285e-006,
          -7.28925045e-008, 0., 0., 1.86738225e-009, 1.86738225e-009, 0.,
          0., 0., 0., 0., 0., 0., 0., 0., 0., 0., -1.15496164e-006,
          -3.24831717e-006, -9.30877195e-006, -1.84255550e-005,
          -2.46437976e-005, -2.10904764e-005, -1.08091699e-005,
          -3.03325510e-006, -1.70191186e-006, -5.00414899e-006,
          -1.04157452e-005, -1.63188288e-005, -2.48629349e-005,
          -2.96694780e-005, -5.47019545e-006, 2.47786302e-005,
          5.22188675e-005, -2.42262122e-005, -1.07880056e-004,
          -1.55031667e-004, -1.49858184e-004, -9.67617525e-005,
          -7.52149645e-005, -3.67561588e-005, -6.82782120e-005,
          -6.24148233e-005, -4.81746865e-005, -3.26172994e-005,
          -2.97588685e-005, -2.36736360e-005, -1.80313818e-005,
          -1.29261016e-005, -5.63645654e-006, -2.39126422e-007,
          2.60118270e-007, 0., 0., 0., 0., 0., 0., 0., 0., 0., 0., 0.,
          0., 0., 0., 0., -2.10242251e-006, -5.92500874e-006,
          -1.47786541e-005, -2.73888872e-005, -3.58412581e-005,
          -3.26798654e-005, -2.09894970e-005, -1.15693756e-005,
          -7.64839660e-006, -7.43198279e-006, -8.64610683e-006,
          -1.37057523e-005, -2.37853419e-005, -2.82703168e-005,
          -9.27510973e-006, 2.98708619e-005, 6.23864034e-005,
          -1.39794238e-005, -1.02947437e-004, -1.57841161e-004,
          -1.48553430e-004, -9.02419997e-005, -6.42651285e-005,
          -1.94703916e-005, -4.38658681e-005, -3.75042182e-005,
          -2.56393050e-005, -2.00747836e-005, -4.93188327e-006,
          7.81981362e-006, 9.84556300e-006, 5.40579640e-006,
          1.36229244e-006, 1.13877695e-006, 7.46510182e-007,
          2.61433524e-008, 9.33691169e-009, 0., 0., 0., 0., 0., 0., 0.,
          0., 0., 0., 0., 0., 0., -3.05192953e-006, -7.95435790e-006,
          -1.89284838e-005, -3.24849498e-005, -4.20870929e-005,
          -4.16016810e-005, -3.22121668e-005, -2.22339459e-005,
          -1.34931970e-005, -9.86089344e-006, -3.05965773e-006,
          -2.65518565e-006, -1.30752060e-005, -1.01218604e-004,
          -8.82759341e-005, -5.13023078e-005, -1.49643620e-005,
          -1.69197847e-005, -9.60582329e-005, -1.40627337e-004,
          -1.25965787e-004, -6.67228596e-005, -4.11881338e-005,
          2.14402053e-006, -2.31038175e-005, -1.91537074e-005,
          -1.36496255e-005, -4.21673985e-006, 2.15790169e-005,
          4.35090988e-005, 4.33701098e-005, 2.67237629e-005,
          1.13583201e-005, 5.30312309e-006, 1.64783773e-006,
          1.26036113e-007, 3.54802623e-008, 0., 0., 0., -3.07664408e-007,
          0., 0., 0., 0., 0., 0., 0., 0., 0., -4.36937034e-006,
          -1.15974944e-005, -2.41895777e-005, -3.70666457e-005,
          -4.64453042e-005, -4.39469368e-005, -3.73669609e-005,
          -2.50889570e-005, -1.62129709e-005, -3.00294573e-006,
          6.13150723e-006, -6.84456681e-005, -7.75996450e-005,
          -8.58542262e-005, -6.49573994e-005, -3.93778901e-005,
          -2.38109260e-005, -3.39636827e-005, -9.76513184e-005,
          -1.30623434e-004, -1.12522503e-004, -4.31293920e-005,
          -1.48308991e-005, 2.61056030e-005, 5.27179736e-007,
          -8.47534739e-006, -1.66625682e-006, 1.99989099e-005,
          5.11271792e-005, 7.68137033e-005, 6.73898321e-005,
          4.46791382e-005, 2.15803375e-005, 9.02674037e-006,
          1.99445185e-006, -7.34387584e-007, -1.46736147e-006,
          -1.53832195e-006, -9.22993195e-007, 0., 0., 0., 0., 0., 0., 0.,
          0., 0., 6.47773248e-008, 0., -5.88203329e-006,
          -1.53934761e-005, -2.85609494e-005, -3.89073466e-005,
          -4.50831576e-005, -3.98263619e-005, -3.23953827e-005,
          -2.00231461e-005, -4.58759905e-006, 1.42110675e-005,
          -5.89946467e-005, -7.21845136e-005, -6.79918667e-005,
          -5.80938504e-005, -2.48043762e-005, -1.43531606e-005,
          -3.53044197e-005, -6.72813767e-005, -1.21601712e-004,
          -1.42230245e-004, -1.08357694e-004, -3.48195426e-005,
          3.71191248e-007, 4.14908391e-005, 9.94976745e-006,
          5.63591857e-006, 1.78738010e-005, 3.86577267e-005,
          6.86093626e-005, 9.17534271e-005, 7.84411386e-005,
          5.32958438e-005, 2.71305307e-005, 1.19536835e-005,
          5.01342242e-007, -5.58979218e-006, -9.13096028e-006,
          -9.22993240e-006, -5.53795917e-006, -9.22993195e-007, 0., 0.,
          0., 0., 0., 0., 0., 0., 0., 0., -6.81926167e-006,
          -1.80447296e-005, -3.08930794e-005, -3.82960206e-005,
          -4.07828848e-005, -3.35239383e-005, -2.32672137e-005,
          -8.10493384e-006, 1.14062386e-005, 2.84488578e-005,
          -5.10229220e-005, -6.46321714e-005, -5.07912955e-005,
          -2.54712559e-005, 1.98518610e-005, 7.60167404e-006,
          -5.19122368e-005, -1.01413112e-004, -1.46291917e-004,
          -1.42798934e-004, -9.59626195e-005, -1.68365514e-005,
          1.74585839e-005, 5.01428585e-005, 2.18710611e-005,
          1.84806267e-005, 3.45719818e-005, 5.67662064e-005,
          8.16500105e-005, 9.59412719e-005, 8.53046731e-005,
          6.01894535e-005, 3.13921155e-005, 1.32123532e-005,
          -8.31374166e-007, -1.01580736e-005, -1.64962330e-005,
          -1.69215418e-005, -9.84526105e-006, -1.53832195e-006, 0., 0.,
          0., 0., 0., 0., 0., 0., 0., 6.13935303e-009, -7.22418235e-006,
          -1.89150214e-005, -3.15870784e-005, -3.93449336e-005,
          -4.13603702e-005, -3.40821498e-005, -2.46307754e-005,
          -8.43450198e-006, 1.07786909e-005, 2.27199253e-005,
          1.78956725e-005, -5.53187783e-005, -2.92411532e-005,
          7.16444220e-006, 3.63637155e-005, 5.90480013e-005,
          -1.27800731e-005, -5.75656813e-005, -1.63375851e-004,
          -1.40252014e-004, -8.40587381e-005, 5.61357956e-006,
          2.91342058e-005, 6.87972206e-005, 4.21432160e-005,
          2.58562777e-005, 4.41077827e-005, 6.75422925e-005,
          9.01475214e-005, 1.01216443e-004, 9.06067144e-005,
          6.71085654e-005, 3.77858123e-005, 1.64993944e-005,
          -2.88126785e-007, -1.21777057e-005, -1.98372927e-005,
          -2.03058498e-005, -1.19989118e-005, -1.84598639e-006, 0., 0.,
          0., 0., 0., 0., 6.47773248e-008, 0., 0., 1.02322550e-008,
          -6.30753721e-006, -1.67603648e-005, -2.98990999e-005,
          -3.90819660e-005, -4.44653160e-005, -3.92832626e-005,
          -2.92247769e-005, -1.69586801e-005, -2.65966059e-006,
          3.70224802e-006, 3.67114262e-006, 2.26212651e-005,
          6.15699610e-005, 8.87537972e-005, 8.91312375e-005,
          2.65312246e-005, -3.84778614e-005, -7.22821642e-005,
          -1.65411286e-004, -1.36248374e-004, -7.18604206e-005,
          1.35072241e-005, 4.41464072e-005, 8.90707379e-005,
          6.18001795e-005, 3.78782352e-005, 4.65117919e-005,
          6.69132205e-005, 8.85233676e-005, 1.02444814e-004,
          9.27782021e-005, 7.07226864e-005, 4.26314982e-005,
          2.01747680e-005, 1.52275516e-006, -1.11062427e-005,
          -1.85524277e-005, -1.90751925e-005, -1.13835831e-005,
          -1.84598639e-006, 0., 0., 0., 0., 0., 0., 0., 5.78644830e-008,
          1.44661200e-007, 6.77720266e-007, -2.04853745e-006,
          -8.42565441e-006, -1.94076256e-005, -2.93634221e-005,
          -3.76783173e-005, -3.59282458e-005, -2.74184586e-005,
          -1.54257741e-005, -5.31404885e-006, -4.38688039e-006,
          2.45014126e-005, 5.90842938e-005, 9.17599973e-005,
          8.31972429e-005, 4.84881202e-005, -1.20465647e-005,
          -7.39619791e-005, -9.95600712e-005, -1.71055552e-004,
          -1.31851368e-004, -6.39884529e-005, 1.23621512e-005,
          4.96168941e-005, 9.96775489e-005, 6.89173030e-005,
          4.15295981e-005, 4.88868027e-005, 6.48333298e-005,
          8.72638338e-005, 1.01238249e-004, 9.45337015e-005,
          7.33267298e-005, 4.74381304e-005, 2.46647633e-005,
          4.58202931e-006, -8.05773197e-006, -1.38448922e-005,
          -1.44602263e-005, -8.61460285e-006, -1.23065763e-006, 0., 0.,
          0., 0., 0., 0., 0., 2.09438525e-007, 9.10725134e-007,
          3.08984499e-006, 3.37671509e-006, 1.02387082e-006,
          -6.17025580e-006, -1.52905941e-005, -2.50784869e-005,
          -2.28676599e-005, -1.20513414e-005, 2.23195934e-006,
          9.85122915e-006, 2.53014841e-005, 6.65681728e-005,
          1.06825413e-004, 1.23846679e-004, 7.97829780e-005,
          5.70388511e-006, -8.01255228e-005, -1.51710890e-004,
          -1.65759440e-004, -2.08688143e-004, -1.40031800e-004,
          -6.97521828e-005, 3.14239128e-006, 3.69847585e-005,
          8.36469844e-005, 5.03206575e-005, 3.50213268e-005,
          4.74568114e-005, 6.65044208e-005, 8.65772163e-005,
          9.80465848e-005, 9.31934555e-005, 7.46643636e-005,
          5.02156145e-005, 2.83478275e-005, 8.13541737e-006,
          -3.13866940e-006, -6.83013241e-006, -7.69161034e-006,
          -4.61496620e-006, -6.15328815e-007, 0., 0., 0., 0., 0., 0., 0.,
          6.25595248e-007, 2.61388482e-006, 6.95739573e-006,
          1.09696321e-005, 1.38906125e-005, 1.08386366e-005,
          2.40105055e-006, -6.26281098e-006, -4.97772680e-006,
          8.24864310e-006, 2.45562369e-005, 4.40752665e-005,
          7.89262849e-005, 1.21710480e-004, 1.48960884e-004,
          1.42219229e-004, 6.47970664e-005, -3.81566206e-005,
          -1.47241662e-004, -2.25403695e-004, -2.40216585e-004,
          -2.53638718e-004, -1.55790302e-004, -7.84494405e-005,
          -6.25087478e-006, 2.40226746e-005, 6.54357355e-005,
          2.79492560e-005, 3.83598563e-005, 5.40718829e-005,
          7.08355801e-005, 8.70879376e-005, 9.43128616e-005,
          8.87848146e-005, 7.32161934e-005, 5.07431541e-005,
          3.04318346e-005, 1.09358261e-005, 1.25931911e-006,
          -4.09630388e-007, -1.23065763e-006, -6.15328815e-007, 0., 0.,
          0., 0., 0., 0., 0., 0., 1.45213107e-006, 6.10876577e-006,
          1.22666070e-005, 2.18252826e-005, 2.99728763e-005,
          3.01179298e-005, 2.51332040e-005, 1.63698169e-005,
          1.69439390e-005, 2.30162641e-005, 4.09705499e-005,
          8.67849158e-005, 1.43058176e-004, 1.76386660e-004,
          1.73452732e-004, 1.28961256e-004, 3.00626398e-005,
          -8.31570796e-005, -1.96590903e-004, -2.86016526e-004,
          -2.98205006e-004, -2.84657377e-004, -1.47291401e-004,
          -6.41030128e-005, 1.39491276e-005, 3.70085836e-005,
          7.11411121e-005, 2.37399545e-005, 3.23739150e-005,
          5.61835368e-005, 7.57653106e-005, 8.84089532e-005,
          9.13605691e-005, 8.49772769e-005, 7.09835149e-005,
          4.99642010e-005, 3.08258786e-005, 1.25473871e-005,
          3.08199515e-006, 1.15627961e-006, 0., 0., 0., -3.07664408e-007,
          0., 0., 0., 0., 0., 0., 2.29018588e-006, 9.03231648e-006,
          1.70617077e-005, 3.02626504e-005, 4.12431946e-005,
          4.55996924e-005, 4.26150509e-005, 3.52945535e-005,
          3.02299286e-005, 2.70218970e-005, 4.58346985e-005,
          1.15767347e-004, 1.85095254e-004, 2.03428281e-004,
          1.72890563e-004, 9.88789761e-005, -1.31722334e-006,
          -1.00690319e-004, -2.18963338e-004, -3.12668213e-004,
          -3.21778731e-004, -2.89918709e-004, -1.30547283e-004,
          -3.49227885e-005, 4.59782896e-005, 6.06570975e-005,
          8.34966122e-005, 3.32900963e-005, 2.50517915e-005,
          5.60145454e-005, 7.97428293e-005, 9.08580114e-005,
          9.03405671e-005, 8.28482953e-005, 6.89798107e-005,
          4.77967405e-005, 3.00465526e-005, 1.32185551e-005,
          3.72934824e-006, 1.39358497e-006, 0., 0., 0., 0., 0., 0., 0.,
          0., 0., 2.89322415e-008, 3.51843687e-006, 1.20343984e-005,
          2.38947978e-005, 3.97686053e-005, 5.21870315e-005,
          5.84027366e-005, 5.74168480e-005, 5.01678041e-005,
          4.01013349e-005, 3.01576256e-005, 6.16521065e-005,
          1.43081634e-004, 2.17190711e-004, 2.18039451e-004,
          1.52977635e-004, 6.63311075e-005, -3.92141883e-005,
          -1.36484712e-004, -2.49658100e-004, -3.36720434e-004,
          -3.24628520e-004, -2.73363898e-004, -9.99581462e-005,
          2.41815565e-006, 7.47189042e-005, 6.63210885e-005,
          8.33553058e-005, 2.89160580e-005, 1.99814513e-005,
          5.68065007e-005, 8.35694736e-005, 9.08991497e-005,
          8.61834123e-005, 7.79013426e-005, 6.48472487e-005,
          4.50976731e-005, 2.86048180e-005, 1.33212061e-005,
          4.14101032e-006, 1.52219218e-006, 0., 0., 0., 0., 0., 0., 0.,
          0., 0., 1.15728966e-007, 4.33521109e-006, 1.53234087e-005,
          2.95390892e-005, 4.63527940e-005, 5.80403721e-005,
          6.08593582e-005, 5.88111288e-005, 5.02933435e-005,
          4.51022825e-005, 4.64812911e-005, 9.53015915e-005,
          1.66305283e-004, 2.25630851e-004, 1.99178656e-004,
          1.23634571e-004, 3.94285562e-005, -7.71360137e-005,
          -1.77606955e-004, -2.75739643e-004, -3.45050765e-004,
          -3.14551085e-004, -2.51937076e-004, -7.36545844e-005,
          2.38601624e-005, 7.36118163e-005, 5.18450943e-005,
          6.27812988e-005, 9.89375712e-006, 1.95299508e-005,
          5.89583433e-005, 8.54527752e-005, 8.91250384e-005,
          8.09648409e-005, 7.21665565e-005, 6.01698557e-005,
          4.26588158e-005, 2.83449172e-005, 1.35630098e-005,
          4.11074370e-006, 1.49318294e-006, 0., 0., 0., 0., 0., 0., 0.,
          0., 2.89322415e-008, 1.44661200e-007, 5.02957391e-006,
          1.79468498e-005, 3.34485558e-005, 4.94203268e-005,
          5.87627692e-005, 5.85046764e-005, 5.62739915e-005,
          4.81710849e-005, 5.26773547e-005, 6.72726892e-005,
          1.13738097e-004, 1.69206585e-004, 2.15037071e-004,
          1.75223366e-004, 1.00710371e-004, 1.37610023e-005,
          -1.05942032e-004, -2.02238589e-004, -2.83797010e-004,
          -3.27299786e-004, -2.78534775e-004, -2.17747933e-004,
          -4.45543301e-005, 4.44390789e-005, 7.55316942e-005,
          4.42047058e-005, 5.10853788e-005, -1.51226209e-006,
          2.27794062e-005, 6.05382265e-005, 8.47642150e-005,
          8.53020611e-005, 7.49755927e-005, 6.56174743e-005,
          5.48517855e-005, 4.11966357e-005, 2.80366530e-005,
          1.29214877e-005, 3.55880275e-006, 1.34889001e-006, 0., 0., 0.,
          0., 0., 0., 0., 0., 2.89322415e-008, 1.73593449e-007,
          5.59409182e-006, 1.93866836e-005, 3.49996517e-005,
          4.84063821e-005, 5.47072268e-005, 5.53928803e-005,
          5.49284778e-005, 5.02289658e-005, 5.17136250e-005,
          5.46568845e-005, 9.09429873e-005, 1.40908407e-004,
          1.90587802e-004, 1.53386180e-004, 7.51894113e-005,
          -7.31245746e-006, -1.19112243e-004, -1.89942235e-004,
          -2.57471023e-004, -2.78491090e-004, -2.19936439e-004,
          -1.66330705e-004, -2.61067430e-006, 7.58305760e-005,
          1.02632592e-004, 6.99313023e-005, 7.74627915e-005,
          2.41508533e-005, 2.92880104e-005, 6.33775999e-005,
          8.42488662e-005, 8.09355697e-005, 6.80214580e-005,
          5.83331239e-005, 5.05772732e-005, 3.94074123e-005,
          2.60630641e-005, 1.16012698e-005, 3.20620097e-006,
          1.11544557e-006, 0., 0., 0., 0., 0., 0., 0., 0.,
          5.78644830e-008, 2.02525683e-007, 5.69708391e-006,
          1.89440725e-005, 3.33005810e-005, 4.46184386e-005,
          4.84712546e-005, 5.16285399e-005, 5.40451074e-005,
          5.37132837e-005, 3.95186944e-005, 2.08617039e-005,
          4.28011153e-005, 9.49673704e-005, 1.54483918e-004,
          1.41080571e-004, 6.08899791e-005, -1.31280385e-005,
          -1.06199586e-004, -1.64294630e-004, -2.14403510e-004,
          -2.23620125e-004, -1.59500007e-004, -1.16745556e-004,
          3.11567892e-005, 1.02677332e-004, 1.35831928e-004,
          1.12914320e-004, 1.24037600e-004, 6.37864796e-005,
          4.38520292e-005, 6.57667988e-005, 8.34181337e-005,
          7.75576918e-005, 6.35259421e-005, 5.33650273e-005,
          4.77738031e-005, 3.66746681e-005, 2.35443986e-005,
          9.96454946e-006, 2.43578643e-006, 8.79954825e-007,
          -1.76214954e-008, -1.76214954e-008, 0., 0., 0., 0., 0., 0., 0.,
          1.15728966e-007, 5.75546983e-006, 1.90162446e-005,
          3.27837770e-005, 4.30990403e-005, 4.71457788e-005,
          4.84193079e-005, 5.10380087e-005, 4.48025094e-005,
          2.53619401e-005, 4.12268719e-006, -3.71822080e-006,
          4.82167598e-005, 1.15698487e-004, 1.16521267e-004,
          5.78438085e-005, -8.54588961e-006, -1.01870057e-004,
          -1.62512442e-004, -1.97854781e-004, -1.87435086e-004,
          -1.14808819e-004, -6.87578577e-005, 6.40399739e-005,
          1.16225252e-004, 1.44605350e-004, 1.28519998e-004,
          1.45940721e-004, 8.56738552e-005, 5.40503061e-005,
          6.24613458e-005, 6.67095519e-005, 6.46608896e-005,
          5.46196716e-005, 4.95724671e-005, 4.31347980e-005,
          3.08599519e-005, 1.86716861e-005, 7.29233125e-006,
          1.32641924e-006, 5.30347222e-007, 0., 0., 0., 0., 0., 0., 0.,
          0., 0., 0., 5.54545522e-006, 1.92471289e-005, 3.36725570e-005,
          4.27759951e-005, 4.37928720e-005, 4.07749103e-005,
          3.74533993e-005, 2.75071452e-005, 1.07459118e-005,
          -6.95241033e-006, -1.86520629e-005, 3.01562250e-005,
          9.43392224e-005, 1.02404018e-004, 6.46073531e-005,
          -5.56701616e-006, -1.27526844e-004, -2.17561901e-004,
          -2.44779687e-004, -2.04671713e-004, -1.04778170e-004,
          -4.70815103e-005, 8.25500974e-005, 1.24873201e-004,
          1.40738281e-004, 1.11004607e-004, 1.29299660e-004,
          7.22941040e-005, 3.35560908e-005, 3.32243726e-005,
          3.47556634e-005, 3.98567208e-005, 4.08917585e-005,
          4.28643325e-005, 3.40646257e-005, 2.34681102e-005,
          1.32144150e-005, 4.81484176e-006, 3.41660069e-007,
          1.11593309e-007, 0., 0., 0., 0., 0., 0., 0., 0., 0., 0.,
          5.12958786e-006, 1.91091276e-005, 3.42552339e-005,
          4.21496552e-005, 4.01365469e-005, 3.22576598e-005,
          2.33121300e-005, 1.07850383e-005, -9.27991778e-007,
          -1.44042133e-005, -2.50625035e-005, 2.02028987e-005,
          8.02619761e-005, 9.84156432e-005, 7.24832935e-005,
          3.18287493e-006, -1.39439886e-004, -2.52658152e-004,
          -2.81168817e-004, -2.25300682e-004, -1.05314422e-004,
          -3.91874964e-005, 8.58183048e-005, 1.23624894e-004,
          1.12737187e-004, 7.01014797e-005, 9.07404319e-005,
          3.95499592e-005, 6.53420875e-006, -1.14589787e-008,
          1.22463541e-006, 1.37177203e-005, 2.46956661e-005,
          2.82894380e-005, 1.98579928e-005, 1.07343403e-005,
          2.93606354e-006, -2.11223073e-006, -2.94895676e-006,
          -9.25246923e-007, 0., 0., 0., 0., 0., 0., 0., 0., 0.,
          1.92990548e-008, 4.80947301e-006, 1.84756391e-005,
          3.37160818e-005, 3.93809969e-005, 3.35555633e-005,
          2.12369014e-005, 9.99272561e-006, -4.87922944e-006,
          -1.41357714e-005, -3.24123394e-005, -4.83215990e-005,
          -4.57878150e-006, 5.68932519e-005, 8.08951299e-005,
          5.97804210e-005, -2.41062253e-006, -1.20977893e-004,
          -2.16790970e-004, -2.41331363e-004, -1.92241627e-004,
          -8.74467733e-005, -2.82976798e-005, 9.42018232e-005,
          1.13367423e-004, 7.29640378e-005, 1.49698508e-005,
          4.02508340e-005, 6.08443133e-006, -1.68596944e-005,
          -2.50634912e-005, -2.34758809e-005, -9.26801476e-006,
          4.38618690e-006, 7.39808684e-006, -2.00602381e-006,
          -1.22633455e-005, -1.71634256e-005, -1.79857907e-005,
          -1.27077856e-005, -5.47073932e-006, 0., 0., 0., 0., 0., 0., 0.,
          0., 0., 0., 4.64331879e-006, 1.75109963e-005, 3.25277761e-005,
          3.64001135e-005, 2.78037460e-005, 1.31972829e-005,
          8.22242384e-007, -1.32822697e-005, -2.88618503e-005,
          -5.34161773e-005, -7.17255898e-005, -2.49307686e-005,
          4.82191281e-005, 6.21872314e-005, 3.15928555e-005,
          -1.77305410e-005, -8.87153874e-005, -1.39926618e-004,
          -1.61107266e-004, -1.35732276e-004, -6.58109275e-005,
          -1.88380527e-005, 9.51883048e-005, 9.67952437e-005,
          3.78435398e-005, -3.70280723e-005, -6.16809075e-007,
          -2.07646081e-005, -3.48658250e-005, -3.58690013e-005,
          -3.18204802e-005, -1.95257708e-005, -9.44619023e-006,
          -1.14706145e-005, -2.33882947e-005, -3.37107558e-005,
          -3.63526888e-005, -3.45178523e-005, -2.34596519e-005,
          -1.05411846e-005, -1.40971963e-007, 0., 0., 0., 0., 0., 0., 0.,
          0., 0., 3.89141360e-006, 1.48592380e-005, 2.81647026e-005,
          3.14434401e-005, 2.15477721e-005, 6.21362369e-006,
          -6.61335662e-006, -2.21779792e-005, -4.77267786e-005,
          -7.42432967e-005, -8.80112275e-005, -2.68931399e-005,
          4.64285949e-005, 5.43460701e-005, 1.60249510e-005,
          -1.37273855e-005, -2.76412011e-005, -2.86196755e-005,
          -4.64616714e-005, -6.28111156e-005, -3.28492206e-005,
          -1.44951955e-005, 7.47578815e-005, 5.18765046e-005,
          -1.66000573e-005, -8.09932535e-005, -2.97864281e-005,
          -3.66939275e-005, -3.71531860e-005, -3.37920937e-005,
          -2.85756341e-005, -2.25894910e-005, -2.25106287e-005,
          -2.86503237e-005, -3.90934729e-005, -4.75518755e-005,
          -5.07861478e-005, -4.79784176e-005, -3.43064276e-005,
          -1.86898087e-005, -4.83005488e-006, -3.86351530e-007,
          -4.03973019e-007, 0., 0., 0., 0., 0., 0., 2.50550904e-008,
          2.87144985e-006, 1.12069365e-005, 2.28920744e-005,
          2.53741655e-005, 1.59859137e-005, 8.07523506e-008,
          -1.37828429e-005, -2.94740494e-005, -5.62322166e-005,
          -7.49081082e-005, -7.98203982e-005, -2.63071543e-005,
          4.52121276e-005, 5.84891750e-005, 2.68713884e-005,
          1.06536072e-005, 3.77217257e-005, 6.73658215e-005,
          5.27119337e-005, 6.72271653e-006, 9.47920216e-006,
          -1.24652024e-005, 4.59877119e-005, 8.32424757e-006,
          -5.42566449e-005, -1.04075771e-004, -2.51588917e-005,
          -2.54373190e-005, -2.20563343e-005, -1.72073578e-005,
          -1.49573862e-005, -1.99608949e-005, -2.93304929e-005,
          -3.80660458e-005, -4.45169826e-005, -4.90670573e-005,
          -5.06580109e-005, -5.14752101e-005, -4.21358818e-005,
          -2.83120335e-005, -1.36456538e-005, -5.40892142e-006,
          -1.15905459e-006, 0., 0., 0., 0., 0., 0., 0., 1.74828710e-006,
          6.82757764e-006, 1.59956471e-005, 1.94415970e-005,
          1.42885337e-005, -5.22862877e-007, -1.45003405e-005,
          -2.92126533e-005, -4.52287059e-005, -5.97375074e-005,
          -6.88635409e-005, -2.05953020e-005, 4.79467817e-005,
          7.05282728e-005, 5.34164028e-005, 5.91458884e-005,
          1.02431099e-004, 1.45383019e-004, 1.15954223e-004,
          5.35899453e-005, 3.33450080e-005, -1.20343357e-005,
          6.86845806e-006, -3.82789804e-005, -8.80981315e-005,
          -1.16219890e-004, -2.28170902e-005, -9.52843129e-006,
          -2.41411931e-006, 1.51443385e-006, -4.45224396e-006,
          -1.87869409e-005, -3.42629028e-005, -4.37792805e-005,
          -4.49760009e-005, -4.66116471e-005, -4.96807952e-005,
          -5.00629612e-005, -4.29927313e-005, -3.31570664e-005,
          -2.01079001e-005, -9.46561249e-006, -1.73858189e-006, 0., 0.,
          0., 0., 0., 0., 0., 7.06216895e-007, 3.62697619e-006,
          8.61548233e-006, 1.43974876e-005, 1.42166673e-005,
          6.73637942e-006, -5.10654354e-006, -1.84732271e-005,
          -3.91089307e-005, -5.63535468e-005, -6.54080650e-005,
          -1.98748839e-005, 5.32674057e-005, 8.42084046e-005,
          8.73785175e-005, 1.16703668e-004, 1.51464847e-004,
          1.87613754e-004, 1.45015496e-004, 8.42960653e-005,
          3.80315978e-005, -4.44991165e-005, -3.66585919e-005,
          -8.98219878e-005, -1.27419757e-004, -1.29751017e-004,
          -2.51161691e-005, 3.03060415e-006, 1.22660658e-005,
          9.04474291e-006, -2.02199294e-006, -1.65136080e-005,
          -2.97060415e-005, -3.34235338e-005, -3.36094454e-005,
          -3.45359622e-005, -3.74406627e-005, -3.80908677e-005,
          -3.40790320e-005, -2.80281074e-005, -1.83516968e-005,
          -8.88608520e-006, -1.54540612e-006, 0., 0., 0., 0., 0., 0., 0.,
          3.89392909e-007, 1.36032384e-006, 4.30929595e-006,
          1.16150804e-005, 1.71216761e-005, 1.49395455e-005,
          7.90622107e-006, -6.05471860e-006, -3.34731703e-005,
          -5.97427716e-005, -6.82602986e-005, -1.99503647e-005,
          5.70892953e-005, 1.05484534e-004, 1.19928744e-004,
          1.56304784e-004, 1.85994795e-004, 1.99128146e-004,
          1.58276904e-004, 1.03236256e-004, 2.71728550e-005,
          5.80680535e-006, -6.74013281e-005, -1.14868213e-004,
          -1.42895122e-004, -6.28756243e-005, -2.41234393e-005,
          1.00551733e-005, 1.69310806e-005, 9.26924349e-006,
          -2.10681173e-006, -1.14800905e-005, -1.84449855e-005,
          -2.00450304e-005, -1.98700327e-005, -2.00902796e-005,
          -2.15952332e-005, -2.20220372e-005, -1.97215486e-005,
          -1.62267643e-005, -1.06246671e-005, -5.21574566e-006,
          -9.65878826e-007, 0., 0., 0., 0., 0., 0., 4.04512015e-008,
          7.51652749e-008, 5.77740167e-008, 1.61025469e-006,
          7.37467690e-006, 1.45563490e-005, 1.57066806e-005,
          1.19834804e-005, 3.37981845e-007, -2.60352263e-005,
          -5.35619474e-005, -5.67804855e-005, -1.29662985e-005,
          5.75153717e-005, 1.05904575e-004, 1.18538541e-004,
          1.47327228e-004, 1.76791014e-004, 1.95793153e-004,
          1.50110209e-004, 7.47658705e-005, 4.26717361e-006,
          -1.63404329e-005, -1.48434347e-005, -5.25593205e-005,
          -7.30883912e-005, -6.44935353e-005, -2.66971438e-005,
          1.05206846e-005, 1.66289883e-005, 7.23741186e-006,
          -1.65080735e-006, -5.79985817e-006, -7.33562183e-006,
          -7.10462245e-006, -6.78976630e-006, -6.76115178e-006,
          -7.14750331e-006, -7.14750331e-006, -6.37480025e-006,
          -5.40892142e-006, -3.47716377e-006, -1.73858189e-006,
          -3.86351530e-007, 0., 0., 0., 0., 0., 0., 4.04512015e-008,
          1.50330550e-007, 4.18933240e-007, 1.49630216e-006,
          4.99080852e-006, 8.97443624e-006, 1.07624301e-005,
          7.10928498e-006, -2.44329982e-007, -1.65230031e-005,
          -3.30504809e-005, -3.17938211e-005, -8.96712550e-007,
          4.57893111e-005, 6.77927601e-005, 6.00105377e-005,
          6.67146087e-005, 8.95142584e-005, 1.07184627e-004,
          7.46966252e-005, 1.88462855e-005, -2.94987713e-005,
          -3.01943292e-005, -1.53132132e-005, -4.34149442e-005,
          -6.84938132e-005, -6.72538881e-005, -3.46711749e-005,
          2.45009801e-006, 1.18065909e-005, 4.97050223e-006,
          -6.16452553e-007, -2.47791058e-006, -2.19855451e-006,
          -1.88277329e-006, -1.69324801e-006, -1.54540612e-006,
          -1.53739529e-006, -1.73858189e-006, -1.54540612e-006,
          -1.35223036e-006, -9.65878826e-007, -5.79527295e-007, 0., 0.,
          0., 0., 0., 0., 0., 0., 2.00440724e-007, 9.77148488e-007,
          2.24457017e-006, 4.24401196e-006, 6.03533817e-006,
          6.62790171e-006, 4.47259708e-006, 1.78635821e-006,
          -3.10003998e-006, -6.99446446e-006, -1.10039309e-006,
          1.24199796e-005, 3.18520397e-005, 2.42568112e-005,
          -3.50955406e-006, -1.43240550e-005, 1.24262465e-006,
          1.78079572e-005, -1.73007493e-007, -3.31752162e-005,
          -5.06889701e-005, -3.20321378e-005, -5.48652906e-006,
          -2.79852429e-005, -5.58126994e-005, -6.09783674e-005,
          -3.72781396e-005, -5.64701713e-006, 4.85787359e-006,
          1.75462731e-006, -8.82006873e-007, -9.07552476e-007,
          -8.28032285e-007, -7.19155821e-007, -6.37021401e-007,
          -5.79527295e-007, -5.79527295e-007, -5.79527295e-007,
          -5.79527295e-007, -3.86351530e-007, -3.86351530e-007,
          -1.93175765e-007, 0., 0., 0., 0., 0., 0., 0., 0.,
          1.50330550e-007, 7.64401022e-007, 1.75407558e-006,
          2.78111497e-006, 3.78677828e-006, 4.13408998e-006,
          3.17934405e-006, 1.95444454e-006, 3.32877835e-006,
          5.07560799e-006, 1.07862897e-005, 1.80118550e-005,
          2.13999301e-005, 7.08621428e-006, -1.70368658e-005,
          -3.13330056e-005, -2.88905539e-005, -2.02238189e-005,
          -2.27880300e-005, -3.12115517e-005, -3.04931618e-005,
          -1.36766439e-005, 7.75212811e-006, -8.53101301e-006,
          -3.12605371e-005, -3.97194090e-005, -2.53572398e-005,
          -6.51944583e-006, 7.76659761e-007, 1.83904199e-008,
          -2.46403271e-008, 2.40243150e-008, -8.21344237e-009,
          1.42769068e-007, 0., 0., 2.04645101e-009, 0., 0., 0., 0., 0.,
          0., 0., 0., 0., 0., 0., 0., 0., 5.01101809e-008,
          3.25716172e-007, 6.76487446e-007, 1.07736889e-006,
          1.37802999e-006, 1.60352579e-006, 1.09308644e-006,
          6.75961587e-007, 8.90709885e-007, 3.26323629e-006,
          4.62371690e-006, 7.02923171e-006, 8.56351562e-006,
          3.95048983e-006, -4.63025935e-006, -7.86047076e-006,
          -3.12861766e-006, 3.01118985e-006, 2.53141093e-006,
          -2.30244223e-006, -4.77421236e-006, 7.96881210e-008,
          6.70960890e-006, -1.63172490e-006, -1.12087646e-005,
          -1.57111954e-005, -1.06277912e-005, -2.63820652e-006,
          2.61615185e-007, 8.18580403e-009, 0., 0., 0., 0., 0., 0., 0.,
          0., 0., 0., 0., 0., 0., 0., 0., 0., 0., 0., 0.,
          2.50550904e-008, 0., 0., 0., 0., 8.01079292e-009, 0., 0., 0.,
          0., 0., 1.12151099e-007, -3.09304710e-007, 4.32582823e-007,
          6.48874220e-007, 1.71674219e-006, 4.80680046e-006,
          9.13629447e-006, 1.24544495e-005, 1.30897342e-005,
          1.09139446e-005, 7.85122666e-006, 4.86093313e-006,
          2.88648039e-006, -7.66288366e-008, 0., 0., -8.19887518e-008,
          0., 0., 0., 0., 0., 0., 0., 0., 0., 0., 0., 0., 0., 0., 0., 0.,
          0., 0., 0., 0., 0., 0., 2.50550904e-008, 0., 0., 0., 0.,
          9.87817561e-009, 0., 0., 0., 0., 0., 0., -5.17585363e-007,
          -4.05434236e-007, 2.88388549e-007, 3.76507273e-007,
          1.71064494e-006, 3.95386223e-006, 5.73712305e-006,
          6.12073291e-006, 5.00480019e-006, 2.78266725e-006,
          1.28169734e-006, 4.61836862e-007, -6.53924928e-007,
          -4.14423162e-008, 0., -8.19887518e-008, 0., 0., 0., 0., 0., 0.,
          0., 0., 0., 0., 0., 0., 0., 0., 0., 0., 0., 0., 0., 0., 0., 0.,
          0., 0., 0., 0., 0., 0., 0., 0., 0., 0., 0., 8.01079292e-009,
          2.40323796e-008, 4.00539655e-008, 5.60755495e-008,
          1.87556353e-007, 4.26485570e-007, 7.72863245e-007,
          1.11123006e-006, 1.20265690e-006, 9.39695326e-007,
          6.92755293e-007, 4.61836862e-007, 2.30918431e-007, 0., 0., 0.,
          0., 0., 0., 0., 0., 0., 0., 0., 0., 0., 0., 0., 0., 0., 0., 0.,
          0., 0., 0., 0., 0., 0., 0., 0., 0., 0., 0., 0., 0., 0., 0., 0.,
          0., 0., 0., 0., 0., 0., 0., 0., 0., 0., 0., 0., 0.,
          8.01079292e-009, 0., 0., 0., 0., 0., 0., 0., 0., 0., 0., 0.,
          0., 0., 0., 0., 0., 0., 0., 0., 0., 0., 0. ]
      - [ 0., 0., 0., 0., 0., 0., 0., 0., 0., 0., 0., 0., 0., 0., 0., 0.,
          0., 0., 0., 0., 0., 0., -3.67032669e-007, 0., 0., 0., 0., 0.,
          0., 0., 0., 0., 0., 0., 0., 0., 0., 0., 0., 0., 0., 0., 0., 0.,
          0., 0., 0., 0., 0., 0., 0., 0., 0., 0., 0., 0., 0., 0., 0., 0.,
          0., 0., 0., 0., -3.67032669e-007, -7.34065338e-007,
          -1.10109795e-006, -1.46813068e-006, -1.46813068e-006,
          -7.34065338e-007, -6.27359668e-007, -8.80297137e-007,
          -1.88706304e-006, -2.64089158e-006, -2.88884485e-006,
          -1.88207889e-006, -1.00178181e-006, -5.00890906e-007, 0., 0.,
          0., 0., 0., 0., 0., 0., 0., 0., 0., 0., 0., 0., 0., 0., 0., 0.,
          0., 0., 0., 0., 0., 0., 0., 0., 0., 0., 0., 0., 0., 0., 0., 0.,
          0., 0., 0., -1.46813068e-006, -3.30329385e-006,
          -4.77142476e-006, -4.77142476e-006, -2.22195899e-006,
          -2.50943867e-006, -6.40504913e-006, -1.18468070e-005,
          -1.52415269e-005, -1.40698021e-005, -8.40362918e-006,
          -2.50445441e-006, 7.63450998e-007, 0., 1.56640994e-007,
          -5.45725186e-007, 0., 0., 0., 2.69906565e-007, 0., 0., 0., 0.,
          7.86591329e-007, 1.56640994e-007, -7.02366151e-007,
          -7.02366151e-007, 0., 0., 0., 0., 0., 0., 0., 0., 0., 0., 0.,
          0., 0., 0., 0., 0., 0., 0., 0., 0., 0., -2.56922863e-006,
          -7.70768565e-006, -1.28461434e-005, -1.65164693e-005,
          -1.65164693e-005, -1.21516041e-005, -5.49021024e-006,
          -1.20662389e-005, -2.29162488e-005, -3.16807309e-005,
          -3.20352156e-005, -2.53423386e-005, -1.57805553e-005,
          -6.51158143e-006, 0., 0., 1.56640994e-007, 0., 0., 0.,
          3.04832412e-007, 0., 0., 0., 0., 1.56640994e-007, 0.,
          -7.02366151e-007, -7.02366151e-007, 0., 0., 0., 0., 0., 0., 0.,
          0., 0., 0., 0., 0., 0., 0., 0., 0., 0., 0., -6.98516800e-008,
          -2.09555026e-007, -1.45035631e-006, -1.26359655e-005,
          -2.56136882e-005, -3.87124346e-005, -4.60702395e-005,
          -4.77948306e-005, -5.00049609e-005, -4.96951434e-005,
          -5.39888752e-005, -5.91055286e-005, -6.18862614e-005,
          -6.21953150e-005, -5.99926898e-005, -4.91067294e-005,
          -2.91251199e-005, -7.16816203e-006, 8.32624664e-006,
          1.88883259e-005, 2.70018536e-005, 3.37684905e-005,
          2.81860703e-005, 9.60406578e-006, -1.30834142e-005,
          -3.14040044e-005, -3.72292743e-005, -3.35189652e-005,
          -2.09426798e-005, -7.23553148e-006, 0., 0., 0., 0., 0., 0., 0.,
          0., 0., 0., 0., 0., 0., 0., 0., 0., 0., 0., 0.,
          -1.35657928e-007, -6.11513542e-007, -4.25312720e-007,
          -5.71442206e-006, -2.45468927e-005, -4.56440575e-005,
          -6.77865391e-005, -8.04351366e-005, -8.24128510e-005,
          -9.78912576e-005, -1.11361187e-004, -1.15315306e-004,
          -1.07145643e-004, -8.97335049e-005, -8.34307793e-005,
          -8.60673681e-005, -7.62973868e-005, -5.40768269e-005,
          -2.01403764e-005, 1.88329032e-005, 4.43436111e-005,
          6.87496577e-005, 8.85124900e-005, 7.39440657e-005,
          2.56846815e-005, -3.42138119e-005, -8.13982042e-005,
          -9.61642145e-005, -8.69944051e-005, -5.37375126e-005,
          -1.88355825e-005, 2.33350491e-007, -1.33112577e-009, 0.,
          1.26183991e-007, 0., 0., 0., 0., 0., 0., 0., 0., 0., 0., 0.,
          0., 0., 0., -9.89817082e-008, -2.96945132e-007,
          -1.52148675e-006, -2.22151812e-006, -9.84017424e-006,
          -3.62832980e-005, -6.62985694e-005, -9.34731361e-005,
          -1.01323501e-004, -1.00585676e-004, -1.13252943e-004,
          -1.24212616e-004, -1.15699695e-004, -9.15283599e-005,
          -6.64594700e-005, -5.18264387e-005, -5.44818540e-005,
          -5.90762065e-005, -6.32855299e-005, -6.49073409e-005,
          -3.19280443e-005, 1.79455856e-005, 6.53290117e-005,
          1.04208950e-004, 9.96857198e-005, 4.75382076e-005,
          -3.44109430e-005, -1.01639496e-004, -1.25508319e-004,
          -1.17136326e-004, -7.53946297e-005, -2.56575313e-005,
          6.03931221e-006, 4.39468113e-006, 3.42469252e-006,
          1.99444708e-006, 7.67095059e-007, 0., 0., 0., 0., 0., 0., 0.,
          0., 0., -6.40558682e-008, 0., 0., 0., -1.04777513e-007,
          -5.37680023e-007, -3.25069323e-006, -6.80141284e-006,
          -1.51705299e-005, -4.82458126e-005, -8.57149062e-005,
          -1.14682429e-004, -1.13858499e-004, -1.01515005e-004,
          -8.89903313e-005, -8.42968730e-005, -8.20052737e-005,
          -7.81629424e-005, -7.75838998e-005, -4.81072893e-005,
          -1.40407847e-005, -1.48609315e-005, -5.48106691e-005,
          -1.05934872e-004, -1.28464875e-004, -1.15581359e-004,
          -5.62775713e-005, 2.51384245e-005, 7.76039233e-005,
          7.06097126e-005, -3.04413834e-006, -6.94817572e-005,
          -9.45472930e-005, -9.29531016e-005, -5.69918120e-005,
          -1.36700164e-005, 1.79383405e-005, 1.42294521e-005,
          1.03168004e-005, 5.69476197e-006, 2.30128512e-006, 0., 0., 0.,
          0., 0., 0., 0., 0., 0., 0., 0., 0., 0., -8.79243771e-007,
          -2.47469370e-006, -6.45765522e-006, -1.25841580e-005,
          -2.19365593e-005, -5.70420780e-005, -9.41387771e-005,
          -1.18893498e-004, -1.15566261e-004, -8.42950467e-005,
          -4.01374200e-005, -1.72059026e-005, -3.50646224e-005,
          -6.66418200e-005, -7.72644125e-005, -2.92226377e-005,
          4.73988184e-005, 5.58579777e-005, -6.56721159e-006,
          -1.03219063e-004, -1.87178564e-004, -2.13414271e-004,
          -1.69340128e-004, -4.96210996e-005, 5.05426615e-005,
          9.42143015e-005, 4.56539201e-005, -1.98027124e-006,
          -3.30183830e-005, -4.63780743e-005, -2.57302690e-005,
          6.85403256e-006, 2.74914473e-005, 2.58384898e-005,
          1.70228977e-005, 9.74210707e-006, 3.75876562e-006, 0., 0., 0.,
          0., 0., 0., 0., 0., 0., 0., -6.40558682e-008, -5.12446945e-007,
          -1.60139678e-006, -4.14912847e-006, -7.02050511e-006,
          -1.44120322e-005, -2.30997321e-005, -3.37292186e-005,
          -6.26614783e-005, -9.30178649e-005, -1.07509222e-004,
          -7.39822644e-005, -1.95340981e-005, -7.56798045e-007,
          -2.51977099e-006, -4.33119931e-005, -8.89801813e-005,
          -9.26788416e-005, -3.59306141e-005, 4.33143759e-005,
          6.69740211e-006, -4.21266632e-005, -6.70990339e-005,
          -1.46025384e-004, -2.16042201e-004, -2.07685967e-004,
          -9.55915893e-005, 1.32921286e-005, 1.00029043e-004,
          8.77889906e-005, 3.54616459e-005, -3.98835436e-006,
          -2.13810836e-005, -9.28845293e-006, 1.96782312e-005,
          4.00578319e-005, 3.20513318e-005, 2.16221015e-005,
          1.18132639e-005, 4.52586073e-006, 0., 0., 0., 0., 0., 0., 0.,
          0., 0., 0., -2.56223473e-007, -1.66545260e-006,
          -3.97146414e-006, -8.32776914e-006, -1.30564986e-005,
          -2.29465386e-005, -3.35565346e-005, -4.34386275e-005,
          -6.64063409e-005, -8.91014715e-005, -8.44893657e-005,
          -2.26169359e-005, 3.73179901e-005, 3.64031075e-005,
          -4.90953016e-006, -7.62992640e-005, -1.09647073e-004,
          -9.13818076e-005, -2.00719096e-005, 3.43927240e-005,
          8.72807141e-006, -4.28959538e-005, -5.71785022e-005,
          -9.01984749e-005, -1.48440071e-004, -1.56742724e-004,
          -1.12510068e-004, -3.39077342e-005, 6.89186272e-005,
          1.02510232e-004, 7.08331063e-005, 1.11747186e-005,
          -1.18015178e-005, -8.16879856e-006, 2.43417780e-005,
          4.78209768e-005, 3.59417318e-005, 2.30201676e-005,
          1.16692563e-005, 4.44915122e-006, 0., 0., 0., 0., 0., 0., 0.,
          0., 0., 0., -1.01145258e-006, -4.62231310e-006,
          -9.79503420e-006, -1.62707238e-005, -2.14887223e-005,
          -3.03300803e-005, -3.63446670e-005, -4.97228648e-005,
          -6.49396025e-005, -7.15287169e-005, -4.45737278e-005,
          2.21712999e-005, 7.51913904e-005, 7.13498666e-005,
          7.84126678e-006, -6.67411441e-005, -7.67317106e-005,
          -6.57581695e-005, -3.69475383e-005, 8.00017733e-006,
          2.99888652e-005, 1.09268185e-005, 2.09857899e-005,
          -1.18289954e-005, -1.71259708e-005, -6.87270440e-005,
          -8.87174756e-005, -4.08308988e-005, 4.61088712e-005,
          8.35565443e-005, 7.54659341e-005, 1.33482908e-005,
          -2.22229810e-005, -1.99040824e-005, 1.35695745e-005,
          3.80590827e-005, 2.92640507e-005, 2.02042993e-005,
          1.08927497e-005, 4.21902268e-006, 0., 0., 0., 0., 0., 0., 0.,
          0., 0., 0., -2.27834107e-006, -8.67650488e-006,
          -1.63948680e-005, -2.42489041e-005, -2.84862654e-005,
          -3.53761352e-005, -4.14150381e-005, -5.85548114e-005,
          -6.45797700e-005, -5.15780157e-005, -3.12383781e-005,
          1.73488952e-005, 6.09012241e-005, 4.85201272e-005,
          1.12919156e-006, -5.47268828e-005, -1.00090023e-004,
          -1.03052931e-004, -3.82007311e-005, 5.32345402e-005,
          1.12659167e-004, 8.21220528e-005, 7.69026519e-005,
          5.89720912e-005, 7.89789920e-005, 1.72012915e-005,
          -3.21973348e-005, -1.30646677e-005, 4.89219383e-005,
          5.86743954e-005, 2.70387736e-005, -2.99680014e-005,
          -6.22289226e-005, -6.02910695e-005, -2.31892427e-005,
          9.69514986e-006, 1.37610423e-005, 1.41966293e-005,
          1.07310825e-005, 3.98889415e-006, 0., 2.21187534e-007, 0., 0.,
          0., 0., 0., 0., 0., 0., -3.85206749e-006, -1.29366390e-005,
          -2.33172250e-005, -3.06529655e-005, -3.24814791e-005,
          -3.60763224e-005, -3.91569483e-005, -6.21746003e-005,
          -5.17097651e-005, -2.93708508e-005, -1.58793191e-005,
          1.47103965e-005, 2.78314055e-005, 2.24742053e-005,
          4.59858256e-006, -6.45392065e-005, -1.03253667e-004,
          -9.74417417e-005, -8.08441564e-006, 1.00567653e-004,
          1.68553539e-004, 1.26026775e-004, 9.40459140e-005,
          7.63516728e-005, 1.09102737e-004, 6.01375104e-005,
          2.38272423e-005, 3.15142606e-005, 6.06239810e-005,
          2.72789566e-005, -3.16044461e-005, -7.48923703e-005,
          -8.64055473e-005, -8.25360039e-005, -5.17419176e-005,
          -1.43875195e-005, 2.03024251e-006, 9.57899374e-006,
          9.28185000e-006, 3.60534659e-006, 0., 0., 0., 0., 0., 0., 0.,
          0., 0., 0., -5.71997816e-006, -1.71986831e-005,
          -2.90996832e-005, -3.59879814e-005, -3.57053468e-005,
          -3.01892142e-005, -4.32652050e-005, -5.23216004e-005,
          -4.06871841e-005, -1.30437538e-005, 9.44726651e-007,
          -6.86718477e-006, -1.11836816e-005, -1.54389636e-005,
          -2.33714454e-005, -4.13892267e-005, -9.11127208e-005,
          -1.01158439e-004, -1.68227816e-005, 9.76263691e-005,
          1.26742001e-004, 6.94092887e-005, 2.62479589e-005,
          -3.33250755e-005, -9.41637063e-006, 1.71038173e-005,
          9.25575205e-006, 2.94509664e-005, 5.09811216e-005,
          -9.33961201e-006, -6.53095340e-005, -7.52735577e-005,
          -4.95992463e-005, -3.55638404e-005, -2.45253595e-005,
          -9.37944424e-006, 2.97302290e-006, 1.60821837e-005,
          1.35752452e-005, 5.28025566e-006, 0., 0., 0., 0., 0., 0., 0.,
          0., 0., 0., -6.88406180e-006, -1.91259423e-005,
          -3.14919089e-005, -3.45471672e-005, -2.99654657e-005,
          -2.65444196e-005, -3.54382028e-005, -3.71602473e-005,
          -2.51000274e-005, 3.34395122e-006, 6.97646010e-006,
          -4.95942913e-007, -1.93973483e-005, -1.50227297e-005,
          2.10051530e-005, 7.34584091e-006, -4.48952924e-005,
          -7.90466293e-005, -1.52223820e-005, 5.61618945e-005,
          5.21757174e-005, -2.22017279e-005, -7.06618739e-005,
          -1.26275205e-004, -1.65864825e-004, -1.00099329e-004,
          -6.78668148e-005, -1.23820073e-005, 1.71672418e-005,
          -4.66824858e-005, -7.24733618e-005, -3.51991403e-005,
          1.59256451e-005, 4.33225287e-005, 3.55317316e-005,
          2.30530441e-005, 2.01548810e-005, 2.90205699e-005,
          2.05533670e-005, 7.92082210e-006, 0., 0., 0., 0., 0., 0., 0.,
          0., 0., -3.06838018e-007, -6.95998369e-006, -1.86419347e-005,
          -2.99403382e-005, -2.54525221e-005, -1.34274369e-005,
          -9.76937099e-006, -9.78393109e-006, -7.68175687e-006,
          7.60440935e-006, 2.81565572e-005, 3.52655911e-006,
          -2.39355868e-005, -4.04295897e-005, -3.16574528e-006,
          4.41638003e-005, 6.90617744e-005, 3.57534518e-005,
          8.12117560e-006, 3.38881750e-006, 1.27870007e-005,
          -1.56031911e-005, -7.63222270e-005, -1.26048471e-004,
          -1.73148263e-004, -1.81938827e-004, -1.55301779e-004,
          -9.85009538e-005, -4.29892789e-005, -3.47300229e-005,
          -6.77324788e-005, -6.24567911e-005, 2.69751553e-007,
          6.97555879e-005, 1.06159503e-004, 9.97303650e-005,
          7.42367411e-005, 4.62544813e-005, 3.90733658e-005,
          2.20795700e-005, 8.15620842e-006, 0., 0., 0., 0., 0., 0., 0.,
          0., 0., -1.53419009e-007, -5.85838052e-006, -1.57819632e-005,
          -2.54817332e-005, -1.27062649e-005, -8.17962075e-007,
          4.35118437e-007, 1.01917412e-005, 1.57914383e-005,
          2.54721181e-005, 2.82021501e-005, -1.36957042e-005,
          -3.91841822e-005, -4.08630694e-005, -2.23548523e-005,
          7.00550936e-006, 7.53677159e-005, 1.02642123e-004,
          8.50995275e-005, 4.73498549e-005, -1.38936448e-005,
          -6.97151627e-005, -1.25897728e-004, -1.20920115e-004,
          -1.24345534e-004, -1.10312067e-004, -8.72056116e-005,
          -5.87754803e-005, -2.25194344e-005, -2.60141733e-005,
          -5.39125031e-005, -4.67551545e-005, 8.25644383e-006,
          7.69193211e-005, 1.31182693e-004, 1.46126273e-004,
          1.25507271e-004, 7.75686058e-005, 4.06445761e-005,
          2.01601815e-005, 7.47943068e-006, 0., 1.17737471e-007, 0., 0.,
          0., 0., 0., 0., 0., 0., -4.00233557e-006, -1.12913140e-005,
          -1.71989850e-005, -2.80466065e-006, 1.36284289e-005,
          2.55732866e-005, 4.62297139e-005, 6.23380911e-005,
          5.93856712e-005, 3.90808200e-005, 3.66951485e-006,
          -6.99943200e-007, -6.01884358e-006, -3.90346622e-006,
          1.35610489e-005, 9.13030090e-005, 1.23795049e-004,
          1.27792140e-004, 8.36618929e-005, -5.39147413e-006,
          -8.35582541e-005, -1.13272370e-004, -7.22262412e-005,
          -3.87495020e-005, 4.77928734e-006, 3.98023185e-005,
          2.39786259e-005, 3.24148896e-005, 2.03724812e-005,
          -2.02183328e-005, -2.18294736e-005, 1.77038964e-005,
          8.06790631e-005, 1.38071744e-004, 1.84397330e-004,
          1.74529894e-004, 1.03540202e-004, 3.55213415e-005,
          7.49739456e-006, -1.19630556e-006, -4.14185524e-006,
          -2.07092762e-006, -6.90309207e-007, 0., 0., 0., 0., 0., 0., 0.,
          -2.77931713e-006, -1.24241524e-005, -1.72056079e-005,
          3.80154302e-006, 3.67027169e-005, 7.12352266e-005,
          9.90167391e-005, 1.06719563e-004, 8.57329287e-005,
          6.16490361e-005, 4.51938722e-005, 5.16018627e-005,
          3.95778479e-005, 5.12593688e-005, 7.72735220e-005,
          9.20999591e-005, 9.98330725e-005, 7.13296322e-005,
          1.56090355e-005, -4.13546477e-005, -6.85473933e-005,
          -6.97898067e-005, -7.45822445e-006, 8.61415465e-005,
          1.45623359e-004, 1.35703711e-004, 1.07024855e-004,
          1.13402508e-004, 7.11836619e-005, 2.91699289e-005,
          1.96075398e-005, 3.87377768e-005, 8.40920329e-005,
          1.42848046e-004, 1.93854008e-004, 1.64752186e-004,
          7.95815649e-005, -1.15903549e-006, -3.17142003e-005,
          -3.22445339e-005, -2.35835523e-005, -1.22445081e-005,
          -3.08624340e-006, -5.07657887e-007, 0., 0., 0., 0., 0.,
          8.46542676e-008, -2.67650398e-006, -1.54100835e-005,
          -2.37519907e-005, 8.46143485e-006, 6.59659418e-005,
          1.15235409e-004, 1.45057085e-004, 1.43575031e-004,
          1.22060046e-004, 1.08169690e-004, 9.23921107e-005,
          1.00148536e-004, 8.24014060e-005, 8.50530778e-005,
          1.13746130e-004, 1.14659008e-004, 4.18882410e-005,
          -2.04497155e-005, -7.32500775e-005, -6.40118669e-005,
          -9.24663073e-006, 3.26650734e-005, 1.01341437e-004,
          1.81908807e-004, 2.19697220e-004, 2.16948218e-004,
          1.95547720e-004, 1.75536858e-004, 1.13786140e-004,
          6.01153188e-005, 4.75125526e-005, 4.98682530e-005,
          7.73629872e-005, 1.29780747e-004, 1.61362710e-004,
          1.24184196e-004, 3.34296383e-005, -4.50645966e-005,
          -6.96645147e-005, -6.55615804e-005, -4.80282288e-005,
          -2.38133798e-005, -6.24305176e-006, -1.18453511e-006, 0., 0.,
          0., 0., -2.74035244e-007, -1.37017616e-006, -1.20477007e-005,
          -2.35442058e-005, -2.69124776e-005, 2.73612695e-005,
          1.09031032e-004, 1.69769031e-004, 1.92058258e-004,
          1.73612949e-004, 1.82427611e-004, 1.78787974e-004,
          1.59397139e-004, 1.51354223e-004, 1.29676715e-004,
          1.41665194e-004, 1.71256397e-004, 1.44831210e-004,
          7.25172458e-006, -8.93817851e-005, -1.03236904e-004,
          -3.35810837e-005, 6.36855038e-005, 1.45765196e-004,
          1.80171366e-004, 2.15324966e-004, 2.34415944e-004,
          2.16597749e-004, 1.99923728e-004, 1.64140220e-004,
          1.01147285e-004, 5.44253999e-005, 4.64318255e-005,
          4.96659886e-005, 7.14033158e-005, 1.17320233e-004,
          1.33542373e-004, 9.09245064e-005, 1.28023794e-005,
          -5.48323951e-005, -7.99205227e-005, -8.22569564e-005,
          -6.32272786e-005, -3.23768290e-005, -8.87877013e-006,
          -1.52297378e-006, 0., 0., 0., 0., -5.47747686e-006,
          -1.39725698e-005, -2.65088020e-005, -3.33425560e-005,
          -2.71426270e-005, 4.48112005e-005, 1.37669442e-004,
          2.01061237e-004, 1.99027578e-004, 1.63821387e-004,
          1.96260851e-004, 2.12293322e-004, 2.13751162e-004,
          1.97149609e-004, 1.74820554e-004, 1.89165992e-004,
          2.03614982e-004, 1.30765024e-004, -1.39198414e-006,
          -1.11917732e-004, -1.15220158e-004, -5.11528706e-005,
          6.33330128e-005, 9.12227260e-005, 1.09073597e-004,
          1.41328259e-004, 1.29403343e-004, 9.94937727e-005,
          7.87561585e-005, 5.62571367e-005, 1.87876885e-005,
          -1.12917655e-006, -3.18373395e-007, 8.39913810e-006,
          4.22568046e-005, 7.74272485e-005, 8.65528273e-005,
          5.22630689e-005, 2.17648699e-006, -4.27332780e-005,
          -6.93583643e-005, -7.86883174e-005, -6.39726786e-005,
          -3.28068236e-005, -9.35833850e-006, -1.18453511e-006, 0., 0.,
          0., 0., -1.06873740e-005, -2.84964372e-005, -4.18923009e-005,
          -3.89740817e-005, -1.26537516e-005, 7.42974953e-005,
          1.70812622e-004, 2.25340642e-004, 1.97012909e-004,
          1.61320015e-004, 1.95480010e-004, 2.40135254e-004,
          2.64763512e-004, 2.56594183e-004, 2.53954757e-004,
          2.39734480e-004, 2.19330570e-004, 1.42795514e-004,
          3.71873393e-005, -5.08256780e-005, -8.06669777e-005,
          -5.85496746e-005, -2.67577761e-005, -2.38433167e-005,
          2.22364051e-005, 3.33101161e-005, 1.50853066e-005,
          -7.47729018e-006, -3.47784589e-005, -4.59933835e-005,
          -2.34298077e-005, -3.88147928e-005, -3.35616496e-005,
          -1.07867354e-005, 3.46796151e-005, 6.43797030e-005,
          6.19912971e-005, 4.76129608e-005, 2.30321129e-005,
          -4.79548453e-006, -3.47544010e-005, -5.55142942e-005,
          -5.22503069e-005, -2.68122876e-005, -8.82259064e-006,
          -6.76877221e-007, 0., 0., -2.70807448e-007, 0.,
          -1.57374034e-005, -4.09093991e-005, -5.21370894e-005,
          -3.45062144e-005, 1.19544520e-005, 1.00997582e-004,
          1.82487827e-004, 2.03901029e-004, 1.48941894e-004,
          9.00437808e-005, 1.13149857e-004, 1.78598537e-004,
          2.26946897e-004, 2.53688893e-004, 2.67731171e-004,
          2.21095455e-004, 1.67943392e-004, 1.12543647e-004,
          5.26537915e-005, -1.23584705e-005, -7.94122607e-005,
          -1.33131645e-004, -2.04026801e-004, -1.88058111e-004,
          -1.22796395e-004, -9.76012307e-005, -7.26195140e-005,
          -5.30378747e-005, -5.11249709e-005, -4.45559199e-005,
          -2.31021313e-005, -3.37038546e-005, -8.19611432e-006,
          3.45618537e-005, 8.39227796e-005, 9.10052549e-005,
          8.62787565e-005, 8.22504298e-005, 6.78984652e-005,
          3.85024177e-005, 2.63971378e-006, -2.92884870e-005,
          -3.85252497e-005, -2.05000397e-005, -7.67340953e-006,
          -1.00764760e-006, 0., 0., -2.70807448e-007, -2.70807448e-007,
          -1.81644737e-005, -4.78360816e-005, -5.47482632e-005,
          -2.33427636e-005, 3.32213895e-005, 1.09406174e-004,
          1.58971627e-004, 1.54253314e-004, 6.97034775e-005,
          -1.18458784e-005, -6.35660126e-006, 6.43711028e-005,
          1.27478706e-004, 1.81741038e-004, 2.21550523e-004,
          1.83179232e-004, 1.17483702e-004, 6.91491950e-005,
          5.33436905e-005, 1.54204408e-005, -9.04891785e-005,
          -2.29177516e-004, -3.26348993e-004, -2.94820988e-004,
          -2.13251638e-004, -1.59117262e-004, -7.56184527e-005,
          -7.44089812e-006, 1.01119631e-005, 1.69511859e-005,
          1.09221610e-005, 5.60173885e-006, 5.61825000e-005,
          1.04056155e-004, 1.53470362e-004, 1.52629349e-004,
          1.46286984e-004, 1.34137314e-004, 1.14074464e-004,
          7.23266203e-005, 2.87211478e-005, -1.07026581e-005,
          -2.81673219e-005, -1.68733950e-005, -7.55229712e-006,
          -2.07699122e-006, 0., 0., 0., 0., -1.83992615e-005,
          -4.71333697e-005, -5.68415890e-005, -1.86360830e-005,
          4.31487824e-005, 9.63131679e-005, 1.25781982e-004,
          9.99893236e-005, 2.25229796e-005, -5.73630095e-005,
          -7.31914333e-005, -2.86304803e-005, 1.35679129e-005,
          7.47318554e-005, 1.23500809e-004, 1.25873499e-004,
          6.19226485e-005, 5.15772663e-005, 5.17424269e-005,
          5.32111835e-006, -1.70223953e-004, -3.40997794e-004,
          -4.06481442e-004, -3.32887023e-004, -2.21119262e-004,
          -1.47672210e-004, -4.26592487e-005, 2.55840441e-005,
          3.13040073e-005, 1.94571312e-005, 1.45661988e-005,
          5.14578387e-005, 1.19138123e-004, 1.63179488e-004,
          2.00187031e-004, 1.67325008e-004, 1.63921897e-004,
          1.54598863e-004, 1.24627957e-004, 6.80579178e-005,
          1.83599950e-005, -2.27681430e-005, -3.75537675e-005,
          -2.30697970e-005, -1.07397718e-005, -2.67683595e-006, 0., 0.,
          0., 0., -1.89932016e-005, -4.93227672e-005, -6.32823139e-005,
          -2.91405631e-005, 1.78047685e-005, 5.83071851e-005,
          8.75148617e-005, 6.29596907e-005, 1.34140637e-005,
          -5.11176950e-005, -9.72921771e-005, -8.51229561e-005,
          -5.17984081e-005, -2.96038779e-005, 1.60511754e-005,
          2.21258438e-006, 2.43935506e-006, 2.55567611e-005,
          -2.45047213e-005, -1.24314291e-004, -3.09592957e-004,
          -4.50631720e-004, -4.45806945e-004, -3.01755586e-004,
          -1.28313914e-004, -5.18259694e-005, -4.09218671e-007,
          -4.16066797e-007, -5.01583090e-005, -8.55871331e-005,
          -4.68650978e-005, 4.23124111e-005, 1.43748883e-004,
          1.68606712e-004, 1.59314484e-004, 1.21853831e-004,
          1.31163106e-004, 1.12722613e-004, 6.61064187e-005,
          1.70726616e-006, -4.97973160e-005, -8.45420436e-005,
          -8.28677294e-005, -4.74778353e-005, -1.93408978e-005,
          -3.59926094e-006, 0., 0., 0., 0., -1.94439253e-005,
          -5.05789540e-005, -6.92545509e-005, -4.83920048e-005,
          -2.08469901e-005, 1.30314529e-005, 4.42308046e-005,
          3.55242883e-005, 2.13750918e-005, -1.45257291e-008,
          -3.91224057e-005, -5.58382417e-005, -6.01642932e-005,
          -8.30616045e-005, -7.67128076e-005, -5.13137384e-005,
          1.00538882e-005, 5.22228183e-005, -5.91987373e-005,
          -2.21804279e-004, -3.76589742e-004, -4.60155425e-004,
          -4.07381856e-004, -2.19900670e-004, -6.21676099e-006,
          6.43156454e-005, 3.99117525e-005, -3.28005699e-005,
          -1.30171960e-004, -1.77351380e-004, -1.00280646e-004,
          3.17068298e-005, 1.43032099e-004, 1.44970909e-004,
          1.06468462e-004, 9.24765118e-005, 9.71716217e-005,
          6.83423932e-005, 5.89910269e-006, -6.75634365e-005,
          -1.13607413e-004, -1.37078954e-004, -1.18450655e-004,
          -6.67781205e-005, -2.41047328e-005, -3.68064934e-006, 0., 0.,
          0., 0., -1.98842172e-005, -5.14365711e-005, -6.97769865e-005,
          -6.15194003e-005, -4.09207823e-005, -3.00586416e-005,
          -3.21209955e-005, -4.60396186e-005, -4.37371818e-006,
          5.23249182e-005, 4.19716307e-005, -1.79158851e-005,
          -6.19507991e-005, -1.32530637e-004, -1.39801341e-004,
          -6.35033866e-005, 4.45327532e-005, 1.01719314e-004,
          -4.52255663e-005, -2.40209818e-004, -3.64748004e-004,
          -3.87242442e-004, -2.75650906e-004, -1.09114008e-004,
          5.45348885e-005, 8.02588766e-005, 3.16519763e-005,
          -5.41161498e-005, -1.56756971e-004, -1.88104386e-004,
          -1.30215150e-004, 2.24297273e-005, 9.76689116e-005,
          8.44553433e-005, 4.42157070e-005, 4.68864491e-005,
          4.28143576e-005, 5.45001740e-006, -4.27687519e-005,
          -1.03374099e-004, -1.41334516e-004, -1.53068890e-004,
          -1.24417958e-004, -6.75571137e-005, -2.15979562e-005,
          -2.34223148e-006, 0., 0., 0., 0., -1.90954161e-005,
          -4.94897613e-005, -6.60542792e-005, -5.28068667e-005,
          -3.39852886e-005, -5.32645790e-005, -1.01966427e-004,
          -1.36006318e-004, -3.39812177e-005, 1.02761558e-004,
          1.07095671e-004, 3.68495712e-005, -3.75862801e-005,
          -1.24453523e-004, -1.39866359e-004, -4.44509824e-005,
          6.72695314e-005, 1.31487002e-004, -3.16186088e-005,
          -1.95033776e-004, -2.55119929e-004, -2.12648301e-004,
          -1.11969086e-004, -1.82630247e-005, 3.75312848e-005,
          1.56287333e-005, 7.66316862e-006, -4.18268173e-005,
          -9.79778270e-005, -1.33561582e-004, -9.27067886e-005,
          7.34834384e-006, 4.62433418e-005, 3.44438158e-005,
          1.23235559e-005, 2.36811720e-005, 8.82706536e-006,
          -2.58637647e-005, -6.51714363e-005, -1.04235762e-004,
          -1.28050291e-004, -1.32939327e-004, -1.02354934e-004,
          -5.13678933e-005, -1.32686819e-005, -3.34604493e-007, 0., 0.,
          0., 0., -1.84498313e-005, -4.68819198e-005, -5.73295438e-005,
          -4.23718884e-005, -2.34081926e-005, -6.43530730e-005,
          -1.50825217e-004, -1.63931603e-004, -2.04990447e-005,
          1.54833935e-004, 1.45363563e-004, 7.12850160e-005,
          -5.15963839e-005, -1.28722560e-004, -1.15601659e-004,
          -8.25329334e-006, 1.17402677e-004, 1.22614292e-004,
          -4.06286308e-005, -1.59295523e-004, -1.54145455e-004,
          -6.00870371e-005, 6.64745039e-006, 1.10316059e-005,
          -1.47068613e-005, -4.96067441e-005, -4.12054906e-005,
          -3.48112371e-005, -5.74824953e-005, -5.24410352e-005,
          -2.93924568e-005, 1.11695326e-005, 2.04215521e-005,
          2.30485948e-005, 1.78259124e-005, 2.30111145e-005,
          -1.13923770e-005, -4.99594062e-005, -7.25035643e-005,
          -9.45247666e-005, -9.48173110e-005, -9.46487562e-005,
          -6.91134046e-005, -3.15101279e-005, -6.05291871e-006, 0., 0.,
          0., 0., 0., -1.70957937e-005, -4.38681127e-005,
          -5.18847810e-005, -4.17520059e-005, -2.26992397e-005,
          -6.02967593e-005, -1.33752386e-004, -1.33248672e-004,
          7.36020911e-006, 1.70516476e-004, 1.42152916e-004,
          3.31819938e-005, -1.03254621e-004, -1.69606021e-004,
          -1.23726262e-004, 5.50372715e-006, 1.41747689e-004,
          1.14449795e-004, -4.20306169e-005, -1.68682120e-004,
          -1.73758541e-004, -7.17387229e-005, -2.26231205e-005,
          -4.23834827e-005, -7.96602617e-005, -1.09174602e-004,
          -9.02394386e-005, -6.00411440e-005, -6.65324333e-005,
          -2.02895153e-005, 3.21807761e-006, 2.44638341e-005,
          3.20431027e-005, 3.91199355e-005, 2.12155956e-005,
          1.01073792e-005, -2.23851166e-005, -4.91262399e-005,
          -4.97493711e-005, -5.37163651e-005, -5.43177121e-005,
          -5.51496378e-005, -4.26635925e-005, -1.91569634e-005,
          -3.43883539e-006, 0., 0., 0., 0., 0., -1.35752980e-005,
          -3.47751120e-005, -4.54124820e-005, -3.71963069e-005,
          -2.14844222e-005, -3.77388169e-005, -7.24705460e-005,
          -5.89549418e-005, 5.05660864e-005, 1.72941989e-004,
          1.41870885e-004, 2.66443112e-005, -1.10486370e-004,
          -1.44407066e-004, -9.10790477e-005, 3.03802881e-005,
          1.43635829e-004, 1.33970563e-004, -2.90536209e-005,
          -1.74547473e-004, -2.14257612e-004, -1.45105238e-004,
          -9.21074679e-005, -9.51011461e-005, -1.06511208e-004,
          -1.23996608e-004, -1.11443806e-004, -1.02548802e-004,
          -5.62964087e-005, 3.55116435e-006, 4.10503089e-005,
          5.69752447e-005, 6.22731313e-005, 4.47038765e-005,
          1.16052706e-005, 3.80609976e-007, -1.34338143e-005,
          -2.21483369e-005, -9.62053036e-006, -8.85028840e-006,
          -1.35741248e-005, -1.83638931e-005, -1.47578348e-005,
          -5.64103129e-006, -9.81393214e-007, 0., -7.02366151e-007, 0.,
          0., 0., -8.66583832e-006, -2.27481742e-005, -3.15598372e-005,
          -2.49184632e-005, -1.81795986e-005, -2.87970688e-005,
          -3.49036309e-005, -2.37045733e-005, 5.66762137e-005,
          1.47190105e-004, 1.04838662e-004, 6.68207895e-006,
          -1.02483340e-004, -1.05642648e-004, -2.99512685e-005,
          5.15171414e-005, 1.24459155e-004, 1.27286519e-004,
          8.65035690e-006, -1.32946327e-004, -1.93795262e-004,
          -1.61764881e-004, -1.27622203e-004, -9.78308308e-005,
          -1.05247811e-004, -1.15540075e-004, -1.14762646e-004,
          -8.45607428e-005, -6.60661462e-005, -4.41040065e-005,
          -2.36039723e-005, -2.12180839e-005, -3.82319558e-005,
          -5.12779916e-005, -6.78354045e-005, -4.81133720e-005,
          -2.76635201e-005, 3.24412144e-006, 1.92840344e-005,
          1.08966469e-005, 5.95368692e-006, 1.53510450e-006,
          -1.26538032e-006, -1.64282355e-007, 0., 0., -1.04777513e-007,
          0., 0., 0., -5.60467834e-006, -1.30701201e-005,
          -1.59848169e-005, -1.15882249e-005, -1.33014746e-005,
          -2.72810503e-005, -1.83607226e-005, -7.60985995e-006,
          4.15589093e-005, 1.10308749e-004, 6.03204862e-005,
          -1.41585833e-005, -9.43716077e-005, -6.31797448e-005,
          2.44244857e-005, 6.27623813e-005, 7.50533363e-005,
          4.97752444e-005, -4.36609253e-006, -6.36595578e-005,
          -1.32758752e-004, -1.42445526e-004, -1.20125143e-004,
          -7.99353802e-005, -5.57776730e-005, -3.85172425e-005,
          -1.65682086e-005, -3.97506556e-005, -8.51287477e-005,
          -1.26508457e-004, -1.54924172e-004, -1.59224466e-004,
          -1.59475865e-004, -1.47606901e-004, -1.27536288e-004,
          -7.41554686e-005, -2.04244589e-005, 2.88874890e-005,
          3.91824688e-005, 1.80348488e-005, 5.23897916e-006,
          1.72797911e-006, -3.67032669e-007, 0., 0., 0.,
          -1.74629193e-007, 0., 0., 0., -4.21565892e-006,
          -1.01908990e-005, -8.42148256e-006, 6.50015693e-007,
          -5.41318923e-006, -2.16928802e-005, -2.38429220e-005,
          -9.68251243e-006, 1.37817051e-005, 4.91867868e-005,
          2.70897726e-005, -2.63280635e-005, -6.81832535e-005,
          -2.25961721e-005, 3.63008112e-005, 3.18240855e-005,
          -1.13477417e-005, -4.79460796e-005, -3.41968625e-005,
          -3.42808889e-005, -3.49460715e-005, -4.53399552e-005,
          -3.58594116e-005, 8.16775082e-006, 2.50803332e-005,
          8.91070977e-006, -2.05951328e-005, -7.10810200e-005,
          -1.18394593e-004, -1.79117094e-004, -2.32071267e-004,
          -2.27685261e-004, -1.92223481e-004, -1.53865156e-004,
          -1.17296186e-004, -5.76401180e-005, -1.15966941e-005,
          2.82079400e-005, 2.78228745e-005, 1.41418986e-005,
          1.33369656e-006, 1.99986161e-007, 0., 0., 0., 0.,
          -1.39703360e-007, 0., 0., 0., -7.20685375e-006,
          -1.86474081e-005, -1.46550292e-005, -2.36088326e-007,
          8.57952091e-006, -2.84939165e-006, -2.11171900e-005,
          -2.88477167e-005, -1.89217662e-005, 1.39918093e-005,
          3.09076204e-005, -3.93529308e-006, -6.26021210e-005,
          -5.03272313e-005, -1.90631290e-005, -1.85618173e-005,
          -6.74787516e-005, -9.65648651e-005, -7.74289583e-005,
          -5.10487771e-005, -9.18090609e-006, 2.23766656e-005,
          7.16187860e-005, 8.19791239e-005, 5.01143986e-005,
          -2.51838192e-005, -1.10252309e-004, -1.66564816e-004,
          -1.69800071e-004, -1.78975228e-004, -1.85208555e-004,
          -1.56033479e-004, -9.96833987e-005, -5.50356199e-005,
          -2.50917656e-005, -5.09779602e-006, -8.69191626e-006,
          -4.31468652e-006, -1.20571917e-006, 1.24302403e-006,
          -1.10472649e-006, -1.18670187e-007, -1.10876845e-008,
          -1.51367601e-007, 0., 0., -3.49258400e-008, 0., 0., 0.,
          -9.40894824e-006, -2.48942251e-005, -2.53078342e-005,
          -9.47183617e-006, 1.23952213e-005, 1.42302370e-005,
          -2.53425947e-006, -3.28094975e-005, -3.88303633e-005,
          -1.88909398e-005, 1.44757023e-005, 1.72557175e-005,
          -4.35272996e-005, -5.66366834e-005, -5.10263199e-005,
          -6.92832400e-005, -7.42081975e-005, -9.19481972e-005,
          -8.71626617e-005, -4.97435940e-005, 3.15072066e-005,
          1.14829229e-004, 1.84445365e-004, 1.64530269e-004,
          7.67454621e-005, -6.07896691e-005, -1.88873222e-004,
          -2.43966628e-004, -1.95478569e-004, -1.39812968e-004,
          -8.32043515e-005, -3.35686964e-005, 2.81631110e-005,
          7.40064279e-005, 8.78667124e-005, 6.08617702e-005,
          5.35056506e-006, -2.90967819e-005, -2.12622435e-005,
          -4.55404734e-006, 0., 0., 0., 0., 0., 0., 0., 0., 0., 0.,
          -7.60723469e-006, -2.01394687e-005, -2.96954131e-005,
          -2.97751831e-005, -1.45416607e-005, 2.84329099e-006,
          1.40956299e-005, -1.70209787e-005, -5.53468199e-005,
          -7.03381374e-005, -3.41732848e-005, -5.84383633e-006,
          -3.35069126e-005, -3.75341770e-005, -2.98782379e-005,
          -2.59136286e-005, -2.26879038e-005, -3.39003094e-007,
          5.94487483e-006, 3.92429865e-005, 1.26859260e-004,
          1.99108603e-004, 2.06805067e-004, 1.35171023e-004,
          -5.10201698e-006, -1.75897236e-004, -2.94749974e-004,
          -2.92548211e-004, -2.01260293e-004, -1.03040395e-004,
          -8.12078724e-006, 4.83365475e-005, 8.97226710e-005,
          1.14245842e-004, 8.90441224e-005, 2.66010029e-005,
          -1.53828660e-005, -3.68042602e-005, -2.64205064e-005,
          -7.98085694e-006, -2.80064768e-007, -1.06803168e-006,
          -1.54271243e-006, -9.72160251e-007, -8.30691306e-007,
          -4.74680746e-007, 0., 0., 0., 0., -3.20304616e-006,
          -8.60818636e-006, -2.82031197e-005, -4.63152865e-005,
          -4.48530263e-005, -9.53617928e-006, 1.50265760e-005,
          -7.83384894e-006, -6.64031613e-005, -1.07805732e-004,
          -8.28863704e-005, -3.38074606e-005, -1.40425846e-005,
          9.65158415e-006, 4.50644548e-005, 8.19262059e-005,
          1.00323130e-004, 1.41449826e-004, 1.41447978e-004,
          1.82597490e-004, 2.66590214e-004, 3.08455783e-004,
          2.11076316e-004, 7.57561138e-005, -6.34155294e-005,
          -2.20664064e-004, -3.04101501e-004, -2.78280961e-004,
          -1.71607884e-004, -5.59656910e-005, 3.47427012e-005,
          7.80779446e-005, 8.57328705e-005, 7.39722673e-005,
          4.21947116e-005, 1.84003761e-006, -1.80786810e-005,
          -2.52575737e-005, -1.66492937e-005, -4.43367662e-006,
          -9.49361493e-007, -2.72941429e-006, -3.67877578e-006,
          -3.20409504e-006, -2.13606336e-006, -1.06803168e-006, 0., 0.,
          0., 0., -4.15678130e-007, -2.11331644e-006, -2.42288261e-005,
          -5.31469850e-005, -6.35094257e-005, -3.77809847e-005,
          -1.57042559e-005, -1.99352089e-005, -7.03351252e-005,
          -1.21606143e-004, -1.23033358e-004, -9.03150285e-005,
          -3.82891012e-005, 1.81996784e-005, 7.88112375e-005,
          1.46555554e-004, 1.76857269e-004, 2.25216267e-004,
          2.69810000e-004, 2.78225198e-004, 2.47288845e-004,
          1.98939961e-004, 1.09722881e-004, -6.24703534e-006,
          -1.13330490e-004, -2.07228979e-004, -2.61792738e-004,
          -2.45167990e-004, -1.60299140e-004, -6.35061515e-005,
          1.29993041e-005, 4.41511402e-005, 3.93970076e-005,
          1.56978585e-005, -7.40202086e-006, -2.54290480e-005,
          -2.31217909e-005, -1.55508314e-005, -8.21810409e-006,
          -2.84109683e-006, -1.39749318e-006, -3.44143541e-006,
          -4.50946709e-006, -3.91611593e-006, -2.61074410e-006,
          -1.42404224e-006, 0., 0., 0., 0., -4.15678130e-007,
          -2.38795155e-006, -1.82025251e-005, -4.28627536e-005,
          -5.64678630e-005, -4.78412221e-005, -2.89299151e-005,
          -3.58299949e-005, -6.70139198e-005, -9.70603578e-005,
          -1.05453415e-004, -9.50148460e-005, -7.79888505e-005,
          -4.30056643e-005, 9.06817422e-006, 7.13686022e-005,
          1.15377421e-004, 1.71190652e-004, 2.08359823e-004,
          2.08559053e-004, 1.72972839e-004, 1.13276146e-004,
          4.21968507e-005, -1.93889155e-005, -7.73739885e-005,
          -1.47330851e-004, -2.07044868e-004, -2.21501046e-004,
          -1.89458908e-004, -1.35879483e-004, -8.38555716e-005,
          -6.58997888e-005, -4.07795887e-005, -3.36542653e-005,
          -3.49373586e-005, -3.51581839e-005, -2.60530014e-005,
          -1.59918491e-005, -8.02108116e-006, -2.91269885e-006,
          -1.23365032e-006, -2.49207392e-006, -3.32276522e-006,
          -2.84808448e-006, -1.89872299e-006, -9.49361493e-007, 0., 0.,
          0., 0., -4.15678130e-007, -1.66271252e-006, -1.13567239e-005,
          -2.40450354e-005, -3.09587012e-005, -3.34345859e-005,
          -3.09008356e-005, -3.60114645e-005, -4.90319799e-005,
          -6.04769666e-005, -6.76973796e-005, -7.59332834e-005,
          -7.76818561e-005, -8.35634273e-005, -7.18024094e-005,
          -2.52686223e-005, 2.78305979e-005, 8.25938332e-005,
          1.21038807e-004, 1.29467706e-004, 1.04985833e-004,
          6.15096433e-005, 1.32711084e-005, -4.83545409e-006,
          -2.38707999e-005, -8.32196383e-005, -1.41925004e-004,
          -1.91171232e-004, -2.09023347e-004, -1.98347130e-004,
          -1.77921553e-004, -1.43777637e-004, -1.01077865e-004,
          -6.76205746e-005, -4.02715741e-005, -3.00009942e-005,
          -2.26129359e-005, -1.33467802e-005, -6.81273423e-006,
          -2.47185403e-006, -8.59015984e-007, -1.19614344e-006,
          -1.42404224e-006, -1.30537205e-006, -8.30691306e-007,
          -3.56010560e-007, 0., 0., 0., 0., -4.15678130e-007,
          -1.39230082e-007, -5.21224547e-006, -1.09418634e-005,
          -1.19877141e-005, -1.52909779e-005, -1.69599443e-005,
          -1.85728732e-005, -2.09394038e-005, -2.14199172e-005,
          -2.91330507e-005, -4.02003061e-005, -5.55260704e-005,
          -6.64683321e-005, -6.31206567e-005, -4.04568273e-005,
          -7.11093662e-006, 3.53914729e-005, 6.44520478e-005,
          8.12477374e-005, 6.57079145e-005, 5.30948200e-005,
          3.90057940e-005, 2.53451199e-005, 9.75126841e-006,
          -3.18757593e-005, -7.76417146e-005, -1.29784356e-004,
          -1.70536310e-004, -1.94205350e-004, -1.88464910e-004,
          -1.57483708e-004, -1.06857442e-004, -6.52713934e-005,
          -3.17509584e-005, -2.01825351e-005, -1.49560692e-005,
          -8.56109909e-006, -4.07479774e-006, -1.49592358e-006,
          -5.03005424e-007, -4.84122268e-007, -3.56010560e-007,
          -3.56010560e-007, -2.37340373e-007, -1.18670187e-007, 0., 0.,
          0., 0., 0., -4.15678130e-007, -2.15309342e-006,
          -3.60315335e-006, -4.54175006e-006, -5.66719336e-006,
          -6.30941440e-006, -6.69361043e-006, -7.83232645e-006,
          -8.11016889e-006, -1.11472709e-005, -1.40511675e-005,
          -2.09465798e-005, -2.60738198e-005, -2.53852377e-005,
          -1.65650763e-005, -3.27154044e-006, 1.42504059e-005,
          2.53748931e-005, 3.17433078e-005, 2.71921508e-005,
          2.20095262e-005, 1.52933408e-005, 9.85410770e-006,
          3.65365327e-006, -1.31032366e-005, -3.25756155e-005,
          -6.84891056e-005, -1.12765811e-004, -1.44360369e-004,
          -1.46073391e-004, -1.20808923e-004, -8.03478470e-005,
          -4.45147343e-005, -1.59604806e-005, -7.89448495e-006,
          -5.83697738e-006, -3.32353261e-006, -1.64667392e-006,
          -5.84049019e-007, -1.28111736e-007, -1.82726055e-007,
          -1.18670187e-007, -1.18670187e-007, -1.18670187e-007, 0., 0.,
          0., 0., 0., 0., 1.70487738e-007, 0., -2.89579191e-007, 0., 0.,
          0., 0., -6.29196620e-007, 0., 0., -7.67095045e-008, 0., 0., 0.,
          0., 0., 0., 0., 0., 0., 0., 0., 0., 0., 0., 0.,
          -1.64143567e-005, -5.28114106e-005, -8.34991224e-005,
          -8.99221268e-005, -7.42214397e-005, -4.85294040e-005,
          -2.42647020e-005, -4.28200610e-006, 0., 0., 0., 0., 0., 0., 0.,
          0., 0., 0., 0., 0., 0., 0., 0., 0., 1.70487738e-007, 0.,
          -2.89579191e-007, 0., 0., 0., 0., -6.29196620e-007,
          -6.29196620e-007, 0., -7.67095045e-008, 0., 1.64282355e-007,
          0., 0., 0., 0., 0., 0., 0., 0., 0., 0., 0., 0., 0.,
          -2.14100305e-006, -2.21236987e-005, -3.99653909e-005,
          -4.49610634e-005, -3.78243858e-005, -2.49783698e-005,
          -1.28460188e-005, -2.14100305e-006, 0., 0., 0., 0., 0.,
          -1.35657928e-007, 0., 0., 0., 0., 0., 0., 0., 0., 0., 0., 0.,
          0., 0., 0., 0., 0., 0., 0., 0., 0., 0., 0., 0., 0., 0., 0., 0.,
          0., 0., 0., 0., 0., 0., 0., 0., 0., -1.42733541e-006,
          -4.28200610e-006, -7.13667669e-006, -7.85034445e-006,
          -6.42300938e-006, -4.28200610e-006, -2.14100305e-006,
          -7.13667703e-007, 0., 0., 0., 0., 0., 0., 0., 0., 0., 0., 0.,
          0., 0., 0., 0., 0., 0., 0., 0., 0., 0., 0., 0., 0., 0., 0., 0.,
          0., 0., 0., 0., 0., 0., 0., 0., -1.50322265e-007,
          -3.00644530e-007, -6.01289059e-007, -1.05225593e-006,
          -1.35290043e-006, -9.01933618e-007, 0., 0., 0., 0., 0., 0., 0.,
          0., 0., -7.13667703e-007, 0., 0., 0., 0., 0., 0., 0., 0., 0.,
          0. ]
      - [ 0., 0., 0., 0., 0., 0., 0., 0., 0., 0., 0., 0., 0., 0., 0., 0.,
          0., 0., 0., 0., 0., 0., 0., 0., 0., 0., 0., 0., 0., 0., 0., 0.,
          0., 0., 0., 0., 0., 0., 0., 0., 0., 0., 0., 0., 0., 0., 0., 0.,
          0., 0., 0., 0., 0., 0., 0., 0., 0., 0., 0., 0., 0., 0., 0., 0.,
          0., 0., 0., 0., 0., 0., 0., 0., 0., 0., 0., 0., 0., 0., 0., 0.,
          0., 0., 0., 0., 0., 0., 0., 0., 0., 0., 0., 0., 0., 0., 0., 0.,
          0., 0., 0., 0., 0., 0., 0., 0., 0., 0., 0., 0., 0., 0., 0., 0.,
          0., 0., 0., 0., 0., -2.52346894e-007, -2.52346894e-007, 0.,
          -3.82562661e-007, 0., -1.11332206e-007, -1.11332206e-007, 0.,
          0., 0., 1.51045214e-007, 0., 0., 0., 0., 0., 0., 0., 0., 0.,
          -3.82562661e-007, 0., -1.59863703e-007, 0., 0.,
          -4.38376588e-008, 0., 0., 0., 0., 0., 0., 0., 0., 0., 0., 0.,
          0., 0., 0., 0., 0., 0., 0., 0., 0., 0., 0., 0., 0.,
          -2.52346894e-007, 0., 0., -3.82562661e-007, 0.,
          -1.11332206e-007, 0., 0., 0., 0., 0., 0., 0., 0., 0., 0., 0.,
          0., 0., 0., -3.82562661e-007, 0., 0., 0., 0., 0., 0., 0., 0.,
          0., 0., 0., 0., 0., 0., 0., 0., 0., 0., 0., 0., 0., 0., 0., 0.,
          0., 0., 0., 0., 0., 0., 0., -2.52346899e-006, -7.55920018e-006,
          -1.25885008e-005, -1.97976024e-005, -2.48849628e-005,
          -2.79590367e-005, -2.94982474e-005, -3.16223595e-005,
          -3.24947723e-005, -3.27076050e-005, -3.61440434e-005,
          -3.80148595e-005, -3.55705997e-005, -2.97089227e-005,
          -2.16355420e-005, -1.42048493e-005, -9.23050175e-006,
          -5.69503800e-006, -2.92233040e-006, -8.61266187e-007,
          -2.19188280e-007, -8.76753177e-008, 0., 0., 0., 0., 0., 0., 0.,
          0., 0., 0., 0., 0., 0., 0., 0., 0., 0., 0., 0., 0., 0.,
          1.18442777e-007, 0., 0., -1.26565070e-007, 0.,
          -5.39857865e-007, 0., -7.81154722e-006, -1.85475019e-005,
          -3.34564393e-005, -5.23341259e-005, -6.64230101e-005,
          -7.09519954e-005, -7.19687159e-005, -7.91467683e-005,
          -8.56504121e-005, -8.74685720e-005, -9.39562451e-005,
          -9.88965548e-005, -9.26031207e-005, -7.82857460e-005,
          -5.71178498e-005, -3.50793343e-005, -2.43266932e-005,
          -1.41546925e-005, -7.59152044e-006, -2.47181788e-006,
          -1.38421308e-006, -1.75350635e-007, 0., 0., 0., 0., 0., 0., 0.,
          0., 0., 0., 0., 0., 0., 0., 0., 0., 0., 0., 0., 0.,
          -8.68663960e-007, -1.67738006e-006, -2.81032112e-006,
          -4.44733041e-006, -5.35575691e-006, -7.77440164e-006,
          -1.11283271e-005, -1.35457994e-005, -2.27970904e-005,
          -3.58871330e-005, -6.56034317e-005, -1.06812658e-004,
          -1.33926282e-004, -1.25981780e-004, -9.36107463e-005,
          -7.63395219e-005, -7.93766230e-005, -9.56896256e-005,
          -1.09655201e-004, -1.19390708e-004, -1.17625343e-004,
          -1.05028696e-004, -8.67607232e-005, -5.31800142e-005,
          -2.29652251e-005, 2.76027367e-006, 9.14054453e-006,
          1.04192313e-005, 6.32593401e-006, 2.06813297e-006,
          -2.79417009e-007, 0., 0., 0., 0., 0., 0., 0., 0., 0., 0., 0.,
          0., 0., 0., 0., 0., 0., 0., 7.46051185e-008, -1.97711938e-006,
          -7.03859450e-006, -1.36141616e-005, -2.18689729e-005,
          -2.94384026e-005, -3.87896544e-005, -4.73940090e-005,
          -5.33965504e-005, -6.53645548e-005, -7.90924605e-005,
          -1.31184861e-004, -2.02083815e-004, -2.35789485e-004,
          -1.95003406e-004, -1.15953684e-004, -5.20883659e-005,
          -3.09998904e-005, -3.51245544e-005, -4.58371396e-005,
          -6.63475221e-005, -8.95664634e-005, -9.93529029e-005,
          -7.90753475e-005, -3.51399212e-005, 8.63133755e-006,
          4.49062318e-005, 4.74837834e-005, 3.24264802e-005,
          1.89367747e-005, 7.37647815e-006, 0., 0., 0., -1.53098370e-007,
          0., 0., 0., 0., 0., 0., 0., 0., 0., 0., 0., 0., 0., 0.,
          -4.64305913e-007, -2.71206363e-006, -1.11372738e-005,
          -2.21540431e-005, -3.62937753e-005, -5.20494068e-005,
          -6.18527629e-005, -7.40909236e-005, -8.76101622e-005,
          -9.37152654e-005, -1.02613223e-004, -1.16543015e-004,
          -1.80764939e-004, -2.52912636e-004, -2.83974689e-004,
          -2.06735422e-004, -9.12565374e-005, 1.01232672e-006,
          4.24404680e-005, 4.35350848e-005, 3.95847892e-005,
          1.25323240e-005, -2.70763267e-005, -5.33675120e-005,
          -5.63049689e-005, -7.69818416e-006, 4.63193574e-005,
          8.95715057e-005, 8.64395843e-005, 6.08422670e-005,
          2.97564784e-005, 7.98112796e-006, -2.51475308e-006,
          -8.38251026e-007, 0., 9.41917193e-008, 0., 0., 0., 0., 0., 0.,
          0., 0., 0., 0., 0., 0., 0., -1.43758871e-006, -1.05579802e-005,
          -2.15496548e-005, -4.02083060e-005, -6.20597275e-005,
          -8.36505278e-005, -1.00279103e-004, -1.04924620e-004,
          -1.08914246e-004, -1.11467816e-004, -1.17083866e-004,
          -1.32396599e-004, -1.43676181e-004, -1.85659723e-004,
          -2.34058942e-004, -2.42223454e-004, -1.61668475e-004,
          -4.12593181e-005, -2.06346758e-005, -1.91910676e-005,
          3.23337918e-005, 7.02850011e-005, 7.25585414e-005,
          3.04666064e-005, -2.80172062e-005, -6.93324255e-005,
          -1.06683992e-005, 4.91290411e-005, 8.59837455e-005,
          9.74995637e-005, 7.29701787e-005, 2.33554329e-005,
          -1.45279364e-005, -2.94877609e-005, -1.72798755e-005,
          -5.38092536e-006, 0., 0., 0., 0., 0., 0., 0., 0., 0., 0., 0.,
          0., -3.44410211e-007, -2.71614709e-007, -5.04868649e-006,
          -2.28673471e-005, -4.38480747e-005, -7.31473774e-005,
          -1.04342631e-004, -1.30373199e-004, -1.44576799e-004,
          -1.38010844e-004, -1.28266474e-004, -1.17041483e-004,
          -1.18724951e-004, -1.35010865e-004, -1.39004042e-004,
          -1.54829526e-004, -1.60655560e-004, -1.42484947e-004,
          -8.15972890e-005, -1.28510756e-005, 7.89028581e-006,
          -1.37803663e-005, 4.55614099e-006, -6.88923174e-005,
          -2.46628933e-005, -4.46684353e-005, -3.50362534e-005,
          -1.07873173e-004, -4.99580819e-005, 6.08275423e-006,
          6.07664479e-005, 7.45076686e-005, 6.10545030e-005,
          1.13471891e-007, -5.01956347e-005, -6.52245872e-005,
          -3.92243528e-005, -1.27104404e-005, 1.76638181e-007, 0., 0.,
          0., 0., 0., 0., 0., 0., 0., 0., -1.24103977e-007,
          -8.40826146e-007, -9.92831815e-007, -7.54355005e-006,
          -3.05967769e-005, -5.76207640e-005, -9.17609286e-005,
          -1.25478386e-004, -1.52130175e-004, -1.56057722e-004,
          -1.40414821e-004, -1.19356489e-004, -1.10969413e-004,
          -1.17288175e-004, -1.09176064e-004, -1.01538848e-004,
          -1.02831153e-004, -9.13053227e-005, -6.22700536e-005,
          -1.36056442e-005, 4.51581473e-005, 6.70019435e-005,
          1.76423728e-005, -1.01691330e-004, -5.33686325e-005,
          1.36540775e-005, -1.08778504e-005, -1.36916846e-004,
          -1.19000419e-004, -9.67285887e-005, -2.80372642e-005,
          3.57855715e-005, 4.95101849e-005, 4.53770263e-005,
          -2.26620414e-005, -8.56034385e-005, -1.05793268e-004,
          -6.54515679e-005, -2.17639772e-005, 0., 0., 0., 0., 0., 0., 0.,
          0., 0., 0., -1.24103977e-007, -6.20519927e-007,
          -2.85439160e-006, -5.93058667e-006, -1.24605185e-005,
          -3.48820286e-005, -6.13046941e-005, -9.64091596e-005,
          -1.26873187e-004, -1.48029067e-004, -1.48951178e-004,
          -1.26675193e-004, -1.07601925e-004, -1.10481356e-004,
          -1.00965321e-004, -6.90230154e-005, -4.50394800e-005,
          -5.36592124e-005, -6.02846558e-005, -4.40576478e-005,
          1.56665101e-005, 8.30768913e-005, 1.14646427e-004,
          -5.06227188e-005, -4.58085524e-005, -3.89682373e-006,
          4.26656952e-005, -1.02423510e-005, -1.49131825e-004,
          -1.31356879e-004, -8.13595470e-005, -1.46196799e-005,
          3.77342476e-005, 4.59925286e-005, 3.45313201e-005,
          -3.43929350e-005, -1.04961742e-004, -1.35917027e-004,
          -8.70488657e-005, -2.96813359e-005, -9.11149129e-008, 0., 0.,
          0., 0., 0., 0., 0., 0., 0., -7.44623890e-007, -1.98566363e-006,
          -6.20519904e-006, -1.15152661e-005, -1.71221418e-005,
          -3.59285550e-005, -5.85393318e-005, -9.04318003e-005,
          -1.10659188e-004, -1.26997242e-004, -1.21942685e-004,
          -9.82023266e-005, -8.09415360e-005, -7.82919815e-005,
          -5.47040181e-005, -2.51276415e-005, 2.61066657e-006,
          -1.83428801e-005, -3.80553065e-005, -2.62871436e-005,
          4.05368519e-005, 1.11810245e-004, 4.39715477e-005,
          7.91401362e-006, 1.84650617e-005, 4.02199876e-005,
          4.98643276e-005, -8.80289645e-006, -1.38457166e-004,
          -9.47373919e-005, -4.78413967e-005, 1.21433013e-005,
          4.76819077e-005, 4.58476898e-005, 2.58134678e-005,
          -3.41501000e-005, -9.98848845e-005, -1.32847781e-004,
          -8.95896446e-005, -3.04694695e-005, 4.74035403e-007,
          9.41917193e-008, 0., 0., 0., 0., 0., 0., 0., 0.,
          -2.23387178e-006, -5.95699112e-006, -1.14175664e-005,
          -1.61934659e-005, -2.03121908e-005, -3.76833159e-005,
          -5.86654933e-005, -8.22332440e-005, -9.54033458e-005,
          -1.03775696e-004, -9.48443485e-005, -7.01138124e-005,
          -4.63899269e-005, -2.52348655e-005, -1.21137737e-005,
          -1.18228836e-005, -7.22727918e-006, -4.40786316e-005,
          -6.83808685e-005, -6.49470894e-005, 7.83938322e-006,
          1.11911206e-004, 6.42716768e-005, 2.56216535e-005,
          2.53304934e-005, 1.93368469e-005, 1.36250055e-005,
          -4.59877010e-005, -4.15094837e-006, -4.41374177e-005,
          -3.39535086e-006, 2.70918863e-005, 3.48200010e-005,
          1.95031444e-005, 1.28124766e-005, -1.93358956e-005,
          -6.10458083e-005, -8.45135874e-005, -5.74166188e-005,
          -1.99007227e-005, 1.03610887e-006, 2.82575144e-007, 0., 0., 0.,
          0., 0., 0., 0., 0., -3.97132726e-006, -1.03006305e-005,
          -1.61130865e-005, -1.79008857e-005, -2.11934384e-005,
          -3.54701988e-005, -5.14999992e-005, -7.06223072e-005,
          -7.64797442e-005, -7.97440734e-005, -6.33547534e-005,
          -4.35672191e-005, -2.29479647e-005, 7.58783790e-006,
          1.40707371e-005, -3.71436772e-006, -2.96648395e-005,
          -8.45292598e-005, -1.26560932e-004, -1.19217519e-004,
          -1.68027436e-005, 6.66646247e-006, 8.20331625e-005,
          1.98223479e-005, -3.19163655e-006, -2.96816688e-005,
          -4.23513447e-005, -7.75540175e-005, 1.09069470e-005,
          1.06125763e-005, 3.77580072e-005, 2.73387177e-005,
          6.70799500e-006, -9.82121946e-006, -1.63550958e-005,
          -1.66653645e-005, -1.62795295e-005, -1.46297725e-005,
          -9.46820182e-006, -4.08006326e-006, 1.13030057e-006,
          3.76766877e-007, 0., 0., 0., 0., 0., 0., 0., 0.,
          -4.34363938e-006, -1.11693580e-005, -1.59889823e-005,
          -1.56371025e-005, -1.70068015e-005, -2.50754983e-005,
          -3.35511322e-005, -4.34701797e-005, -4.44294456e-005,
          -4.55481713e-005, -2.69545344e-005, -1.33130443e-005,
          2.67357052e-007, 3.33254211e-005, 4.67761311e-005,
          1.87979240e-005, -4.41012744e-005, -1.04712562e-004,
          -1.20676668e-004, -8.51378136e-005, 3.38975842e-005,
          4.68893522e-005, 7.90976919e-005, 1.79059191e-006,
          -3.99138626e-005, -6.99067459e-005, -6.73102695e-005,
          -6.97872238e-005, 3.30779221e-005, 4.49733961e-005,
          5.22537739e-005, 2.00676932e-005, -1.03230432e-005,
          -3.22539418e-005, -3.17113045e-005, 1.09175380e-005,
          4.68230755e-005, 6.02232358e-005, 3.89096422e-005,
          1.13434780e-005, 9.41917165e-007, 3.76766877e-007, 0., 0., 0.,
          0., 0., 0., 0., 0., -2.85439160e-006, -7.32213493e-006,
          -1.02801996e-005, -9.53976814e-006, -8.87571241e-006,
          -1.12175558e-005, -1.12257694e-005, -1.16805022e-005,
          -9.57238080e-006, -8.25762436e-006, 1.07588050e-006,
          4.05023729e-006, 9.85220049e-006, 4.71548847e-005,
          6.94388073e-005, 2.88407591e-005, -3.89969900e-005,
          -8.04467927e-005, -4.27282830e-005, 2.46830714e-005,
          8.47980209e-006, 7.28448867e-005, 5.71981873e-005,
          -2.69744305e-005, -6.19850180e-005, -5.30272118e-005,
          -1.18229618e-005, -5.23828749e-006, 6.27462796e-005,
          4.11039327e-005, 2.15426389e-005, -4.86572162e-006,
          -2.77405488e-005, -3.08597191e-005, -9.01667863e-006,
          4.95791865e-005, 9.14663979e-005, 1.01529658e-004,
          6.11623327e-005, 1.51654676e-005, 6.35975994e-007,
          1.88383439e-007, 0., 0., 0., 0., 0., 0., 0., 0.,
          -8.68727852e-007, -2.35797575e-006, -2.97849556e-006,
          -2.35797575e-006, -7.89514104e-007, 6.56268912e-006,
          1.76554859e-005, 2.62771755e-005, 3.08140879e-005,
          3.13432938e-005, 3.22914748e-005, 2.68717704e-005,
          2.87190724e-005, 6.87929569e-005, 8.51533841e-005,
          6.17716869e-005, 1.30526150e-005, 1.38521382e-005,
          7.97538305e-005, 4.81074967e-005, 8.73708850e-005,
          6.47707711e-005, 6.30749696e-007, -6.67202985e-005,
          -7.64636643e-005, -3.29177456e-005, 4.72095126e-005,
          4.35498187e-005, 7.01157769e-005, 1.39559879e-005,
          -1.58446255e-005, -3.04513997e-005, -3.20431318e-005,
          -6.00074145e-006, 3.64011648e-005, 9.35511634e-005,
          1.25744453e-004, 1.21075173e-004, 7.27626102e-005,
          1.90164046e-005, 1.23100244e-006, 2.36885555e-007, 0., 0., 0.,
          0., 0., 0., 0., 0., 0., 0., 4.51525722e-007, 8.59213742e-007,
          4.81627421e-006, 2.33755909e-005, 4.57476526e-005,
          6.62735183e-005, 7.22551704e-005, 6.14425298e-005,
          5.16139335e-005, 4.83136937e-005, 4.64755358e-005,
          6.71769885e-005, 6.98141885e-005, 4.12690424e-005,
          2.78752395e-005, 5.02571929e-005, -4.25124063e-006,
          5.06925426e-005, 2.05675860e-005, -3.45584813e-005,
          2.59533681e-005, -6.29056785e-007, -1.08634893e-004,
          -5.68524993e-005, 3.28514761e-006, 6.82131849e-006,
          4.61973978e-005, -4.58845852e-006, -4.37109084e-005,
          -3.78070545e-005, -7.20373509e-006, 2.23988991e-005,
          7.48662715e-005, 1.36539835e-004, 1.56397582e-004,
          1.33487381e-004, 8.08697077e-005, 2.90561347e-005,
          6.10439020e-006, 2.01288185e-006, 0., 0., 0., 0., 0., 0., 0.,
          0., 0., 7.08256991e-008, 9.03051443e-007, 3.22865912e-006,
          1.06706511e-005, 3.57834542e-005, 6.59827638e-005,
          9.25823115e-005, 8.72876262e-005, 6.47367851e-005,
          5.87365357e-005, 6.54212272e-005, 5.68545729e-005,
          5.85313464e-005, 3.26244444e-005, 1.43037937e-006,
          2.00073555e-005, -6.93147085e-005, -4.10990433e-005,
          -3.92754446e-005, -9.66521329e-005, -2.15339260e-005,
          -3.31916235e-005, -2.04028420e-005, -1.03535029e-004,
          -9.53261260e-005, -8.26156902e-005, -8.74372490e-005,
          1.06296829e-006, -2.07650428e-005, -3.76049902e-005,
          -2.11902934e-005, 2.14799329e-005, 5.01969953e-005,
          9.03502878e-005, 1.51572502e-004, 1.63100893e-004,
          1.37653216e-004, 8.90158481e-005, 3.86748798e-005,
          1.45623144e-005, 5.55178076e-006, 0., 0., 0., 0., 0., 0., 0.,
          0., 0., 0., 1.44095407e-006, 6.24409131e-006, 1.66351037e-005,
          4.88004334e-005, 8.59310385e-005, 1.06637053e-004,
          9.24866763e-005, 6.20926512e-005, 6.89561348e-005,
          8.49928765e-005, 8.85810223e-005, 4.25578291e-005,
          -3.26779809e-005, -2.91286760e-005, -9.05550187e-005,
          -5.48638673e-005, -6.32845622e-005, -1.09387962e-004,
          -5.23837662e-005, -7.56115696e-005, -8.33760932e-005,
          -4.02013284e-005, -1.20843659e-004, -1.23606311e-004,
          -1.50043546e-004, -1.69254359e-004, -5.92755459e-005,
          -5.25430914e-005, -2.84428497e-005, 1.24588396e-005,
          5.58256725e-005, 7.77702007e-005, 1.02724553e-004,
          1.43952959e-004, 1.53823217e-004, 1.35367591e-004,
          9.50194226e-005, 4.83095755e-005, 2.34308336e-005,
          9.02590273e-006, 0., 0., 0., 0., 0., 0., 0., 0., 0.,
          2.40231969e-007, 1.75648006e-006, 7.72071417e-006,
          2.04602547e-005, 5.47847485e-005, 9.34963828e-005,
          9.67194792e-005, 7.17910953e-005, 3.30053299e-005,
          5.80093511e-005, 1.18724856e-004, 1.01053440e-004,
          -3.09053394e-006, -7.99500049e-005, -1.77461159e-004,
          -9.50442482e-005, -6.36180048e-005, -8.16801912e-005,
          -1.43742349e-004, -1.04569859e-004, -1.63816338e-004,
          -1.77056514e-004, -1.22096375e-004, -1.74813365e-004,
          -1.73562192e-004, -2.02722120e-004, -2.32190054e-004,
          -1.36198418e-004, -1.17463569e-004, -5.77322098e-005,
          2.98829473e-005, 8.57977575e-005, 8.74306497e-005,
          1.03326740e-004, 1.33528811e-004, 1.39391355e-004,
          1.23195510e-004, 9.04713597e-005, 5.30032339e-005,
          2.74847444e-005, 1.06173657e-005, 0., -3.44410211e-007, 0., 0.,
          0., 0., 0., 0., 0., 0., 2.11076599e-006, 8.95030826e-006,
          2.37136355e-005, 5.63958565e-005, 9.13203112e-005,
          8.55900507e-005, 5.28787059e-005, 2.33453229e-005,
          7.46943479e-005, 1.41757540e-004, 1.03285849e-004,
          -2.45301521e-006, -1.81628871e-004, -1.56563765e-004,
          -7.92561623e-005, -5.04721866e-005, -6.16383550e-005,
          -2.09450645e-005, -1.27037842e-004, -2.35678570e-004,
          -2.77679181e-004, -2.05903954e-004, -2.30188947e-004,
          -2.00429597e-004, -2.00498427e-004, -2.39117973e-004,
          -1.60026801e-004, -1.60235300e-004, -4.04240309e-005,
          5.36532752e-005, 1.10038942e-004, 1.02928214e-004,
          1.04781742e-004, 1.18253309e-004, 1.18759039e-004,
          1.01524209e-004, 7.77693785e-005, 5.26808108e-005,
          2.88024876e-005, 1.10787114e-005, 0., 0., 0., 0., 0., 0., 0.,
          0., 0., 0., 2.34660911e-006, 1.04460851e-005, 2.77538147e-005,
          6.27357804e-005, 9.08839284e-005, 7.95422748e-005,
